<?xml version="1.0"?>
<MethodSetup Method="DL::DNN_CPU">
  <GeneralInfo>
    <Info name="TMVA Release" value="4.2.1 [262657]"/>
    <Info name="ROOT Release" value="6.28/02 [400386]"/>
    <Info name="Creator" value="boltzman"/>
    <Info name="Date" value="Wed Jun 21 23:45:15 2023"/>
    <Info name="Host" value="Linux root-ubuntu-2004-3 5.4.0-128-generic #144-Ubuntu SMP Tue Sep 20 11:00:04 UTC 2022 x86_64 x86_64 x86_64 GNU/Linux"/>
    <Info name="Dir" value="/home/boltzman/Documents/Clases/MFS734/Proyectos/Tarea-ML"/>
    <Info name="Training events" value="2000"/>
    <Info name="TrainingTime" value="6.24650002e+00"/>
    <Info name="AnalysisType" value="Classification"/>
  </GeneralInfo>
  <Options>
    <Option name="V" modified="Yes">True</Option>
    <Option name="VerbosityLevel" modified="No">Verbose</Option>
    <Option name="VarTransform" modified="Yes">N</Option>
    <Option name="H" modified="Yes">False</Option>
    <Option name="CreateMVAPdfs" modified="No">False</Option>
    <Option name="IgnoreNegWeightsInTraining" modified="No">False</Option>
    <Option name="InputLayout" modified="No">0|0|0</Option>
    <Option name="BatchLayout" modified="No">0|0|0</Option>
    <Option name="Layout" modified="Yes">TANH|128,TANH|128,TANH|128,LINEAR</Option>
    <Option name="ErrorStrategy" modified="Yes">CROSSENTROPY</Option>
    <Option name="WeightInitialization" modified="Yes">XAVIERUNIFORM</Option>
    <Option name="RandomSeed" modified="No">0</Option>
    <Option name="ValidationSize" modified="No">20%</Option>
    <Option name="Architecture" modified="Yes">CPU</Option>
    <Option name="TrainingStrategy" modified="Yes">LearningRate=1e-2,Momentum=0.9,ConvergenceSteps=20,BatchSize=100,TestRepetitions=1,WeightDecay=1e-4,Regularization=None,DropConfig=0.0+0.5+0.5+0.5</Option>
  </Options>
  <Variables NVar="4">
    <Variable VarIndex="0" Expression="var1+var2" Label="myvar1" Title="myvar1" Unit="" Internal="myvar1" Type="F" Min="-9.33803940e+00" Max="7.69307804e+00"/>
    <Variable VarIndex="1" Expression="var1-var2" Label="myvar2" Title="Expression 2" Unit="" Internal="myvar2" Type="F" Min="-3.25508261e+00" Max="4.02912045e+00"/>
    <Variable VarIndex="2" Expression="var3" Label="var3" Title="Variable 3" Unit="units" Internal="var3" Type="F" Min="-5.27774286e+00" Max="4.64297915e+00"/>
    <Variable VarIndex="3" Expression="var4" Label="var4" Title="Variable 4" Unit="units" Internal="var4" Type="F" Min="-5.60070276e+00" Max="4.67435789e+00"/>
  </Variables>
  <Spectators NSpec="2">
    <Spectator SpecIndex="0" Expression="var1*2" Label="spec1" Title="Spectator 1" Unit="units" Internal="spec1" Type="F" Min="-9.91655540e+00" Max="8.70301723e+00"/>
    <Spectator SpecIndex="1" Expression="var1*3" Label="spec2" Title="Spectator 2" Unit="units" Internal="spec2" Type="F" Min="-1.48748331e+01" Max="1.30545254e+01"/>
  </Spectators>
  <Classes NClass="2">
    <Class Name="Signal" Index="0"/>
    <Class Name="Background" Index="1"/>
  </Classes>
  <Transformations NTransformations="1">
    <Transform Name="Normalize">
      <Selection>
        <Input NInputs="4">
          <Input Type="Variable" Label="myvar1" Expression="var1+var2"/>
          <Input Type="Variable" Label="myvar2" Expression="var1-var2"/>
          <Input Type="Variable" Label="var3" Expression="var3"/>
          <Input Type="Variable" Label="var4" Expression="var4"/>
        </Input>
        <Output NOutputs="4">
          <Output Type="Variable" Label="myvar1" Expression="var1+var2"/>
          <Output Type="Variable" Label="myvar2" Expression="var1-var2"/>
          <Output Type="Variable" Label="var3" Expression="var3"/>
          <Output Type="Variable" Label="var4" Expression="var4"/>
        </Output>
      </Selection>
      <Class ClassIndex="0">
        <Ranges>
          <Range Index="0" Min="-4.3359384536743164e+00" Max="6.3994679450988770e+00"/>
          <Range Index="1" Min="-3.2098844051361084e+00" Max="4.0291204452514648e+00"/>
          <Range Index="2" Min="-2.6063573360443115e+00" Max="3.8698983192443848e+00"/>
          <Range Index="3" Min="-2.1695792675018311e+00" Max="4.5351858139038086e+00"/>
        </Ranges>
      </Class>
      <Class ClassIndex="1">
        <Ranges>
          <Range Index="0" Min="-9.3380393981933594e+00" Max="7.6930780410766602e+00"/>
          <Range Index="1" Min="-3.2550826072692871e+00" Max="3.3650035858154297e+00"/>
          <Range Index="2" Min="-5.2777428627014160e+00" Max="4.6429791450500488e+00"/>
          <Range Index="3" Min="-5.6007027626037598e+00" Max="4.6743578910827637e+00"/>
        </Ranges>
      </Class>
      <Class ClassIndex="2">
        <Ranges>
          <Range Index="0" Min="-9.3380393981933594e+00" Max="7.6930780410766602e+00"/>
          <Range Index="1" Min="-3.2550826072692871e+00" Max="4.0291204452514648e+00"/>
          <Range Index="2" Min="-5.2777428627014160e+00" Max="4.6429791450500488e+00"/>
          <Range Index="3" Min="-5.6007027626037598e+00" Max="4.6743578910827637e+00"/>
        </Ranges>
      </Class>
    </Transform>
  </Transformations>
  <MVAPdfs/>
  <Weights NetDepth="4" InputDepth="1" InputHeight="1" InputWidth="4" BatchSize="1" BatchDepth="1" BatchHeight="100" BatchWidth="4" LossFunction="C" Initialization="F" Regularization="0" OutputFunction="S" WeightDecay="9.9999997473787516e-05">
    <DenseLayer Width="128" ActivationFunction="3">
      <Weights Rows="128" Columns="4">
        3.164780e-01  1.513070e-02  1.246302e-01  -4.585616e-01  1.413932e-01  9.176767e-02  -5.346192e-02  -8.975928e-02  -8.973705e-02  3.094214e-03  -1.597339e-01  -5.088973e-02  3.589357e-01  5.819838e-02  -2.814469e-02  -3.756566e-01  1.971538e-01  1.817911e-01  1.810273e-01  -4.063444e-01  1.538443e-01  8.207926e-02  8.693617e-03  -2.067656e-01  2.191217e-01  2.521216e-02  1.447509e-01  -2.645293e-01  -9.032604e-02  4.920678e-02  -4.978003e-03  2.398088e-01  -8.040496e-03  1.587124e-01  1.124675e-01  -4.715557e-02  -2.617114e-01  2.817604e-02  6.458949e-02  2.548991e-01  2.896112e-01  1.014670e-01  1.515044e-01  -4.075531e-01  -2.885308e-01  9.993371e-02  -2.960024e-02  3.653869e-01  -4.072253e-02  -1.383464e-01  -2.709977e-01  3.469699e-01  4.505090e-02  -7.901005e-03  1.179634e-01  -1.421152e-01  1.036518e-01  4.356187e-02  -5.970931e-02  3.761961e-02  -1.687843e-01  5.748609e-03  1.317008e-01  1.109676e-02  -2.986923e-01  -1.176690e-01  9.952839e-03  3.011450e-01  2.770299e-01  1.419958e-01  2.592765e-01  -5.203249e-01  2.041734e-01  1.125418e-01  -1.426878e-01  -9.530479e-02  -3.857924e-02  -3.262173e-02  -9.749625e-02  8.394360e-02  3.161599e-01  9.137543e-02  3.632948e-02  -3.024077e-01  -1.596369e-01  -3.714548e-02  -6.864135e-02  3.423997e-01  3.066343e-01  6.501824e-02  -1.419766e-01  -2.270720e-01  -3.720818e-02  8.460822e-02  -5.129974e-02  1.637159e-01  3.210700e-01  2.666301e-02  -8.292113e-02  -2.426959e-01  2.125406e-01  1.219200e-01  1.789678e-01  -3.629301e-01  -1.400438e-01  -3.240578e-03  -7.919004e-02  2.548811e-01  1.823972e-01  1.117207e-02  5.238669e-02  -2.490372e-01  -2.934447e-01  -6.322830e-02  -4.301211e-02  3.582175e-01  2.944478e-01  2.486928e-02  -7.020268e-02  -1.890086e-01  -1.136021e-01  -2.958561e-02  1.274601e-01  3.885629e-02  1.887474e-01  3.731987e-02  1.059823e-01  -3.130763e-01  8.517867e-02  4.589337e-02  5.713659e-02  -1.911990e-01  2.318271e-01  -3.990317e-02  1.997848e-01  -5.009794e-01  -1.480878e-01  -3.551301e-02  -2.198402e-01  3.894598e-01  -1.973114e-01  -3.306648e-02  -5.567250e-02  2.808930e-01  1.925869e-01  1.396172e-01  1.516622e-01  -1.061279e-01  1.773030e-01  -5.308560e-02  4.653627e-02  -3.390069e-01  2.027643e-01  4.098025e-02  1.036639e-02  -2.849329e-01  3.642429e-01  -4.846240e-02  -1.495788e-02  -3.974447e-01  -2.671095e-01  -2.147463e-02  -9.964989e-02  4.322579e-01  -2.323506e-01  5.029288e-02  1.333523e-01  1.022261e-01  -1.990309e-01  4.416053e-02  -9.779155e-02  3.648887e-01  -1.252992e-02  -8.842993e-02  7.167029e-02  -4.757135e-02  9.567447e-02  5.309324e-02  -6.966068e-02  -1.740242e-01  -1.767789e-01  9.648544e-02  6.442041e-02  1.576357e-01  1.306284e-01  2.566745e-02  9.859896e-02  -2.339619e-01  -2.757237e-01  4.936254e-02  2.349843e-02  2.870856e-01  -9.043177e-02  -8.410037e-02  -1.521201e-01  2.654724e-01  -1.222788e-02  -3.818624e-03  9.857736e-02  -2.542370e-02  2.912584e-01  1.954686e-01  1.717420e-01  -4.180210e-01  9.959084e-03  -2.446370e-02  5.083260e-03  1.813507e-02  1.006455e-02  6.149292e-03  -4.237626e-02  6.732446e-02  3.779281e-01  8.712575e-03  -7.600959e-02  -4.785390e-01  -2.751651e-01  8.959738e-02  1.332118e-01  2.682436e-01  2.579155e-01  5.369242e-02  1.029793e-01  -3.866565e-01  3.302530e-01  -1.638550e-02  -8.181264e-02  -3.788968e-01  -3.070987e-01  -5.019845e-02  -1.057222e-01  4.045389e-01  -2.081734e-01  -4.963921e-02  -8.666745e-02  2.996992e-01  -1.455794e-01  -6.501871e-02  -1.876524e-02  1.962732e-01  3.132750e-01  -4.226486e-02  -1.293390e-01  -3.732987e-01  2.605966e-01  9.981374e-02  -2.763367e-02  -1.681819e-01  3.667922e-01  -4.886600e-02  -7.437197e-03  -3.368985e-01  2.343958e-01  7.392485e-02  1.509351e-01  -4.150344e-01  2.139828e-01  3.521573e-02  1.102736e-01  -3.705514e-01  -3.191584e-01  4.651885e-02  3.231720e-02  3.119002e-01  -4.752509e-02  8.547269e-02  -2.967835e-02  1.003578e-01  3.089024e-01  9.543731e-02  7.828984e-02  -3.390428e-01  3.668631e-01  -7.777304e-02  1.064882e-01  -3.255613e-01  -3.179274e-01  -7.167114e-02  -1.902490e-02  4.435202e-01  2.316315e-01  2.629356e-02  -1.287782e-01  -1.345139e-01  -1.851413e-01  -1.489616e-01  2.516367e-02  4.127600e-01  2.603750e-01  -7.356280e-02  5.559468e-02  -4.198482e-01  -3.040701e-01  -1.006939e-01  9.389434e-02  3.970919e-01  -1.779643e-01  -1.206990e-02  -2.088831e-01  3.923845e-01  2.932715e-01  -4.863782e-02  1.057893e-01  -4.772137e-01  -1.613788e-01  1.318373e-02  1.628423e-02  1.191819e-01  2.694902e-01  -1.553520e-02  9.004647e-02  -3.929708e-01  1.104228e-01  2.828822e-02  -6.124759e-03  -2.627535e-01  -3.430272e-01  -9.702911e-02  4.683197e-02  4.261244e-01  -8.032268e-02  -3.554732e-02  -1.882809e-01  3.169027e-01  -2.297218e-01  4.794363e-02  -1.739660e-01  3.004782e-01  1.952771e-01  1.080075e-01  9.624741e-02  -3.437388e-01  -1.285042e-01  1.501204e-02  -7.648177e-03  3.601968e-01  3.286380e-01  -9.137473e-02  8.716998e-02  -4.526128e-01  2.189268e-01  2.967805e-02  1.723746e-04  -2.818607e-01  1.662957e-01  3.601402e-02  9.799601e-03  -2.978324e-01  1.925055e-02  6.095235e-02  -2.392328e-02  1.541493e-02  1.083651e-01  7.341690e-02  2.419538e-01  -3.483907e-01  -1.756539e-01  -1.554372e-01  -4.522008e-02  3.023842e-01  2.359427e-03  -3.513316e-02  -1.901314e-01  2.177121e-01  1.475787e-01  2.816108e-02  -4.032004e-02  -7.133978e-02  2.163882e-01  6.993596e-02  1.898756e-01  -4.944572e-01  2.895983e-01  2.992861e-02  -4.063541e-02  -2.236210e-01  3.179767e-02  3.500970e-02  -6.507726e-02  4.725662e-02  2.010104e-01  3.947081e-02  6.072716e-02  -3.174342e-01  2.404878e-02  -1.117480e-02  1.452613e-01  -2.097328e-01  2.805872e-01  4.250294e-02  1.314833e-01  -3.377767e-01  -5.740937e-04  6.921652e-02  1.910163e-01  -1.219389e-01  -2.651397e-01  1.615119e-02  1.219548e-01  1.022170e-01  3.430958e-02  -1.386152e-02  -1.220712e-01  1.927352e-03  3.824035e-02  -6.679831e-02  -9.888852e-02  1.321365e-01  -2.370044e-01  -3.627169e-02  -1.055944e-01  3.803937e-01  1.588750e-02  -3.148816e-02  -1.536565e-01  1.208405e-01  2.430739e-01  1.800384e-01  -8.836047e-02  -2.808907e-01  -2.422772e-01  -1.164612e-01  -4.466303e-02  2.380389e-01  1.161660e-01  9.388377e-02  1.862811e-01  -3.480991e-01  9.622511e-02  7.810761e-02  1.374422e-01  -2.281434e-01  3.432021e-01  1.384572e-01  9.334736e-02  -3.808683e-01  -1.319096e-01  3.160033e-02  -3.444148e-02  4.763770e-02  -1.981735e-01  -3.839188e-02  6.614026e-02  3.262760e-01  -1.280879e-02  4.452050e-02  -1.068359e-01  1.274586e-01  2.583644e-01  4.172585e-02  -7.118330e-02  -2.065945e-01  3.084090e-01  8.461138e-02  2.567994e-02  -3.633132e-01  2.524851e-01  -4.416098e-02  -3.066414e-04  -3.974675e-01  -2.013247e-01  -5.153913e-02  -1.237332e-01  3.450214e-01  -2.469208e-01  8.866148e-03  9.175426e-02  1.259761e-01  -2.706994e-01  -5.839508e-02  -4.547910e-02  3.627849e-01  4.032878e-01  -1.467959e-02  8.337655e-02  -4.608683e-01  1.613523e-01  1.129113e-01  1.165062e-01  -2.733199e-01  -1.056885e-01  5.851047e-02  4.420197e-02  -4.095277e-04  1.344347e-01  1.015724e-01  1.699273e-01  -4.118295e-01  -4.817956e-02  -2.237784e-02  -2.487231e-02  6.637998e-02  4.193975e-02  -1.025834e-01  -2.565799e-01  1.780571e-01  -1.788043e-01  -4.073509e-02  -6.556533e-02  3.751985e-01  -3.743239e-01  -6.784891e-02  1.450100e-02  4.248715e-01  5.573579e-02  1.966324e-01  1.863237e-01  -3.389463e-01  2.144938e-02  -1.727655e-02  -2.656652e-02  -3.184466e-02  
      </Weights>
      <Biases Rows="128" Columns="1">
        2.871862e-03  2.072889e-02  3.345214e-02  2.195059e-02  3.486976e-02  2.869458e-02  -6.676388e-03  -9.302107e-03  1.389259e-02  -4.556788e-03  9.760365e-03  -1.381369e-02  -3.246903e-02  -1.197924e-02  9.463465e-03  2.606716e-03  -2.402390e-02  2.114279e-02  1.062733e-02  9.601887e-04  1.521098e-02  -2.379456e-02  2.131174e-02  4.952737e-03  9.353383e-03  2.534206e-02  -1.159375e-02  2.124103e-03  -1.820365e-02  5.686063e-03  -3.980923e-03  1.247303e-02  1.751736e-02  1.642324e-02  -1.501315e-02  -1.333669e-02  3.675487e-03  2.247268e-02  1.582590e-02  5.109619e-03  -1.647123e-02  -2.051442e-03  -1.490200e-02  -5.501321e-03  1.592965e-02  -1.550194e-03  5.448584e-03  -3.996760e-03  -2.059704e-02  6.951672e-03  2.528552e-02  -1.127833e-03  -2.774414e-03  2.638255e-02  -1.853877e-02  1.624943e-02  2.134971e-02  -1.310299e-02  -1.244325e-02  -1.845925e-02  1.280448e-02  1.798103e-02  -7.417033e-04  1.779019e-02  1.628570e-02  -6.490736e-03  3.008534e-02  4.248225e-03  -1.427407e-02  -2.142099e-02  9.389159e-03  -3.266481e-02  9.419553e-03  -3.173316e-02  -8.410016e-03  1.665530e-02  6.304648e-04  7.774185e-03  3.382424e-02  -2.407032e-02  -1.153080e-02  1.361951e-02  1.396274e-02  -2.173905e-02  1.181595e-02  9.887309e-03  1.527837e-02  1.465330e-02  2.438287e-02  -1.940024e-02  -4.468983e-03  6.520404e-03  2.688703e-02  8.345854e-03  8.732591e-03  1.291369e-02  1.473343e-02  1.459034e-03  5.018761e-03  8.712495e-03  1.639592e-02  -3.073600e-02  -8.606517e-03  -4.426313e-03  3.716608e-02  -1.697444e-02  2.364729e-02  1.687652e-02  1.922953e-02  1.605956e-02  -3.421775e-02  5.955427e-04  1.343880e-02  1.600672e-02  2.029099e-02  -1.169216e-02  -2.089262e-03  -1.355272e-02  4.501991e-03  2.159666e-02  8.793179e-03  3.322390e-02  -1.537648e-02  -2.743412e-02  -1.519326e-02  -2.042426e-02  3.314500e-02  -9.717816e-03  
      </Biases>
    </DenseLayer>
    <DenseLayer Width="128" ActivationFunction="3">
      <Weights Rows="128" Columns="128">
        1.452246e-01  1.015441e-01  2.793952e-02  2.466132e-01  -6.820372e-02  1.532207e-01  -5.270048e-03  -7.825659e-02  1.229892e-02  -1.313730e-01  1.913249e-01  -9.418225e-02  -8.318871e-02  1.158778e-01  -8.147033e-02  -1.117121e-01  -1.341146e-01  -5.362705e-02  -5.019184e-02  -4.091837e-02  1.395579e-01  -6.300234e-02  6.323374e-02  -4.887301e-03  -5.066468e-02  3.938885e-02  -2.217089e-02  9.653409e-02  -2.665614e-01  1.184540e-01  -4.188984e-02  1.753846e-01  -1.503823e-02  9.217252e-02  -1.605762e-01  6.643424e-03  2.141050e-02  -1.209494e-01  4.705751e-02  1.433794e-01  -1.050754e-01  1.316839e-02  -1.357436e-01  -7.686426e-02  -5.907896e-02  6.344398e-02  4.985617e-02  -9.691073e-02  2.745774e-02  2.061006e-03  2.734535e-02  -1.497163e-01  -1.919952e-01  3.870420e-02  1.180936e-02  1.161260e-01  2.870445e-01  -1.640964e-01  1.108652e-02  -1.108145e-01  2.568026e-02  2.470830e-02  -3.495762e-02  3.266362e-01  -3.372966e-02  -1.943993e-02  2.399629e-02  5.425654e-02  -1.141088e-01  -1.413610e-01  -1.474852e-01  -1.106217e-01  4.771730e-02  5.295407e-02  -1.666278e-01  1.123346e-01  7.762191e-02  4.346118e-03  -4.492081e-02  -1.859701e-01  -1.299767e-01  9.177543e-02  -7.132588e-02  8.056542e-02  1.834417e-01  1.116569e-01  -1.694469e-01  3.275404e-03  6.363391e-02  -4.111115e-02  -1.106951e-02  5.482040e-02  4.627890e-02  2.054492e-01  1.281800e-01  5.048695e-02  -9.176719e-03  1.495415e-01  -3.620885e-02  -1.449530e-01  9.182899e-02  -1.362485e-01  -1.649204e-01  5.322204e-03  9.097123e-02  1.198255e-01  -3.675292e-02  1.201394e-01  1.147747e-01  -1.014398e-01  1.405983e-01  -7.665242e-02  4.441058e-03  1.194408e-01  -3.657364e-02  -2.897190e-02  -6.526776e-02  2.448594e-02  2.124132e-01  7.296157e-02  -5.055517e-03  -5.281252e-02  -4.244922e-02  1.978405e-01  -1.308713e-01  -2.299888e-01  -5.755621e-02  1.226596e-01  1.417636e-02  -1.575251e-01  -3.933579e-02  -2.148794e-01  -1.275557e-01  -8.155735e-02  4.742480e-03  8.031931e-02  9.882732e-02  1.184739e-01  -1.139276e-01  -1.093839e-02  1.102470e-04  -1.547379e-01  -2.821013e-02  -1.122151e-01  -2.712034e-02  -5.236136e-02  -4.125708e-02  -1.055807e-02  -1.520726e-01  3.377709e-02  -7.287118e-02  2.519614e-03  1.309326e-02  -1.998062e-01  -9.137084e-02  7.908609e-02  -9.094260e-02  -5.732098e-02  -4.519212e-03  -9.462055e-02  1.206616e-01  -1.592118e-01  2.540932e-02  5.136785e-02  1.154961e-01  -1.868770e-01  -1.469657e-01  5.858061e-02  -7.814372e-02  -1.189915e-01  1.882819e-02  1.141293e-02  -3.301711e-02  6.585427e-02  5.309583e-02  -1.724494e-03  -1.446387e-01  6.194065e-02  5.200130e-02  -1.530936e-01  -7.982927e-02  4.880540e-02  4.958068e-03  -2.459603e-01  -1.774047e-01  5.510678e-02  1.192137e-02  8.556661e-02  -4.213763e-02  -7.792298e-02  4.472227e-02  -1.471088e-01  -1.225717e-02  -1.372060e-01  -1.267931e-01  -2.271529e-01  -1.381676e-01  -5.285041e-02  -1.334432e-01  -2.265388e-02  2.161705e-02  -1.386898e-01  -4.171432e-03  -4.786104e-02  2.406743e-02  -4.126490e-02  3.065416e-02  5.447313e-02  -6.040604e-02  4.544267e-02  3.901708e-02  -3.702575e-03  -5.654691e-02  -1.104334e-01  7.700936e-02  7.105739e-03  1.719038e-02  -2.009996e-01  2.104287e-02  -3.156047e-02  5.493784e-02  -1.987697e-01  1.134128e-01  1.013921e-01  -2.193151e-02  -1.230338e-01  1.646894e-02  -6.193122e-02  -1.347928e-01  -2.136801e-02  4.613285e-02  -5.869301e-02  -1.497733e-01  -2.494587e-02  -8.718202e-02  6.801017e-02  3.406336e-03  4.328071e-02  -1.075235e-01  -9.327973e-02  -1.258317e-01  -2.416207e-01  -1.319503e-01  8.835374e-03  1.459319e-01  -3.105375e-02  -2.954050e-01  8.048085e-04  1.915726e-02  -1.176730e-01  -6.249030e-02  1.281370e-01  2.155430e-01  1.599165e-01  -1.731687e-01  -9.109761e-02  -1.686692e-01  9.107935e-02  -7.878167e-03  -1.432122e-01  -1.617569e-01  -1.082655e-03  -5.626376e-02  3.529611e-02  -2.219603e-03  8.640078e-02  6.274561e-02  1.330385e-02  9.472572e-02  4.087604e-02  -2.574062e-02  -3.701411e-02  1.689335e-02  -2.174429e-01  -4.621117e-02  -1.875566e-02  -6.299677e-02  7.298853e-02  -4.605648e-03  -1.683488e-01  -8.943400e-03  -1.275279e-01  -1.125610e-01  9.678448e-03  1.887275e-01  5.727059e-02  3.529210e-02  -4.676419e-02  1.956390e-02  -1.908747e-01  2.677332e-01  3.325001e-02  1.519111e-01  -1.982468e-03  1.328751e-02  -1.529572e-01  1.499250e-01  -1.418471e-01  -1.502280e-03  -5.544104e-02  -7.688881e-02  1.322111e-01  -1.574751e-01  -1.985613e-02  9.869439e-03  1.257681e-01  3.611124e-02  -9.641645e-02  -2.834307e-02  -8.167334e-02  -7.964727e-02  -1.095955e-01  -2.878832e-01  1.620677e-02  1.458168e-01  -8.598098e-02  -1.502782e-01  -1.999054e-01  -6.898171e-02  -9.566742e-02  2.864674e-02  -1.322505e-03  -1.734728e-02  -9.089345e-02  -1.168624e-02  -4.138433e-02  -9.843343e-02  -2.545723e-02  -1.055474e-01  1.583544e-01  1.643579e-01  -2.176684e-01  -3.188813e-02  2.237548e-02  -1.214554e-01  6.032740e-03  7.890733e-02  3.770716e-02  -1.162662e-02  1.255106e-01  -5.405556e-02  -1.305763e-01  -5.149860e-02  -5.555377e-02  7.285941e-02  1.130865e-01  1.962347e-01  -1.765033e-01  -1.566607e-01  -8.945806e-02  1.934432e-02  -1.594823e-01  4.938362e-02  -1.760040e-01  -1.192010e-01  6.213244e-02  1.340597e-01  9.713203e-02  1.369191e-02  1.284356e-01  -8.367638e-02  1.196717e-02  -2.423603e-03  -9.731479e-02  -1.201663e-01  6.945290e-03  8.609473e-02  -3.358819e-02  5.917517e-02  -9.291168e-02  9.657846e-02  3.058338e-02  7.256145e-02  -6.434815e-03  -5.754096e-02  -1.378596e-02  -1.690964e-01  7.476655e-03  1.028058e-01  -5.823072e-02  -2.637562e-02  1.618263e-01  -1.251632e-01  -5.089407e-02  -2.714070e-01  -1.154833e-01  9.817223e-02  -2.033790e-01  -1.679256e-01  -1.525237e-01  -4.989346e-02  -2.888551e-02  5.359581e-02  -5.920418e-02  -4.418540e-02  3.902072e-02  -3.793871e-02  -1.393266e-01  -1.158748e-01  2.845948e-02  1.032053e-01  -1.093551e-01  9.671662e-02  7.333302e-02  -2.387788e-01  2.687672e-03  8.368538e-02  1.341320e-01  -1.656538e-01  -2.645204e-01  -1.053808e-01  -9.022397e-02  3.747199e-01  -1.796613e-01  -2.016047e-02  1.740668e-03  -1.487033e-01  -1.928790e-01  1.399169e-01  1.344458e-01  -1.164911e-01  -5.273801e-02  -1.000796e-01  -1.310005e-01  3.053132e-01  8.620236e-02  1.674050e-01  -1.129163e-01  -1.117646e-01  9.634165e-02  -3.882560e-02  1.194663e-01  1.018670e-01  -2.825462e-02  -1.839582e-01  4.942856e-02  6.515447e-02  -1.158235e-01  1.144993e-01  -1.619077e-01  -2.678397e-01  3.758958e-02  2.144349e-01  -1.440445e-01  -1.154938e-01  -1.049766e-01  -2.284662e-01  -1.260635e-01  4.187485e-02  1.059204e-01  4.923038e-02  -1.822423e-01  -8.982056e-02  1.632986e-01  9.894982e-04  -1.006528e-01  -5.259215e-02  -2.528534e-02  2.443367e-01  -1.708736e-01  -1.081264e-01  2.902719e-02  -1.628584e-01  1.299236e-01  1.766935e-01  7.221370e-02  -1.459003e-01  1.012668e-01  -1.419915e-01  -5.522370e-02  -1.597865e-01  1.318357e-01  7.045778e-02  1.382217e-01  2.183865e-02  -7.323725e-02  -1.971804e-01  -1.703453e-01  -1.209419e-01  4.097621e-02  -7.132583e-02  -1.013905e-01  1.382161e-01  3.302949e-02  6.783047e-02  -8.307474e-02  1.793409e-01  9.439750e-02  -1.008050e-01  6.319046e-02  -2.266075e-01  -2.971206e-02  -4.230694e-02  -4.891523e-03  6.004082e-02  4.410007e-02  -1.603006e-01  -3.372220e-01  -1.325220e-01  2.144041e-01  2.085469e-01  9.441492e-02  -3.951725e-01  -1.984816e-01  9.822767e-02  -2.820126e-02  3.849242e-02  -8.971135e-02  2.124235e-01  3.046095e-01  -3.774996e-02  2.127333e-02  -1.209690e-01  4.812912e-02  -3.801159e-02  -1.522743e-01  -1.961009e-01  -5.195344e-02  -2.281623e-01  1.274978e-01  5.726687e-02  -4.843843e-02  -2.452122e-01  5.801656e-02  1.405062e-01  5.220016e-02  -9.572110e-02  -8.900892e-02  4.591251e-02  -2.023217e-01  -1.205671e-01  -9.471048e-02  -2.291239e-01  2.234164e-01  -1.409817e-01  -6.018226e-02  -3.532033e-02  -2.487935e-01  -1.026428e-01  1.260621e-02  1.841411e-01  -9.765564e-02  -6.411748e-03  4.642048e-02  -1.187849e-01  -1.506037e-01  8.943036e-02  2.157164e-02  -5.600231e-02  -1.328126e-01  5.447622e-02  -7.100964e-02  2.220556e-01  4.783446e-02  2.280276e-03  1.254434e-02  -1.571372e-01  -1.000414e-01  8.205166e-03  1.195028e-01  -1.041696e-01  -5.039692e-03  -1.048301e-01  1.391316e-01  6.920047e-02  -2.884263e-01  8.424133e-02  -3.414951e-01  -2.171485e-01  -7.120160e-03  3.388259e-02  1.123246e-01  -2.261622e-01  6.683281e-02  -2.255816e-01  -2.501467e-01  -5.811239e-02  -5.630147e-02  1.262454e-01  -1.521252e-01  -2.245339e-02  1.792934e-01  -1.675965e-01  -4.342452e-02  6.864011e-02  1.428145e-01  2.824464e-01  -2.065493e-01  4.605135e-02  -9.982765e-02  -6.452247e-02  1.746937e-01  1.777944e-01  9.611660e-02  -1.858557e-01  9.442873e-02  -1.513013e-03  -2.116488e-01  -1.639389e-01  8.873420e-02  -2.177500e-01  6.374393e-02  -1.534276e-01  4.987689e-02  -3.366283e-01  1.236547e-02  6.059539e-02  -5.237520e-02  1.381148e-01  -4.722423e-02  -1.443271e-01  9.035075e-02  5.664589e-02  -4.455235e-02  1.048463e-01  1.668248e-02  4.063937e-02  1.430227e-01  2.548672e-02  -1.803688e-02  -4.040021e-02  1.216908e-02  2.671883e-02  -6.693381e-02  -1.563969e-01  -2.742805e-01  -1.505582e-01  7.031947e-02  1.615949e-01  2.209416e-01  -3.815572e-01  9.457368e-03  -7.603138e-02  -1.545440e-02  -8.704067e-02  4.746916e-02  7.857808e-02  1.588386e-01  1.199858e-01  -3.560517e-02  -1.114593e-01  -4.351621e-02  -6.499110e-02  -1.880853e-01  -1.429729e-01  -4.743199e-02  -1.745173e-01  6.533641e-02  1.781279e-01  2.493366e-01  2.822412e-02  -8.334314e-03  1.825678e-01  3.479126e-02  3.968470e-02  2.676814e-02  1.473199e-01  -2.577530e-01  -3.726991e-02  5.653507e-02  -1.885166e-01  4.140150e-02  -6.302074e-02  9.684151e-02  8.145700e-02  1.011479e-01  9.792657e-02  -1.104682e-01  2.794545e-01  8.319660e-02  -1.547451e-01  -6.033187e-02  -4.291511e-02  -1.518997e-01  1.756771e-01  -2.573740e-02  3.144728e-02  1.842636e-02  5.319464e-02  1.129496e-02  1.548863e-01  -1.405285e-01  2.882104e-02  -6.966671e-02  -5.309371e-02  7.461487e-02  2.903322e-02  -1.373764e-01  -8.889462e-02  2.068774e-01  2.703816e-02  9.280568e-02  -4.396416e-02  2.161324e-02  2.566881e-02  -2.414285e-01  -7.868789e-02  7.096660e-02  1.378751e-01  1.949096e-03  -2.374412e-02  1.139516e-02  1.528183e-01  -3.509721e-01  -1.834493e-01  6.705681e-02  -1.543182e-01  -1.836009e-01  -1.778165e-01  2.189855e-01  -1.645700e-01  1.706780e-01  -1.398772e-02  1.119778e-01  2.469134e-01  -5.749362e-02  8.757712e-02  -6.339812e-02  -9.960799e-02  3.083082e-02  2.261024e-02  1.824363e-01  -1.083309e-01  -9.163027e-02  -1.723435e-01  -2.732376e-02  2.063391e-02  -1.723630e-02  5.831126e-02  1.200494e-01  2.281850e-01  -1.511845e-01  -1.451382e-01  3.747481e-02  -1.769733e-01  -1.996890e-01  -9.747176e-02  2.586769e-02  -1.423199e-02  7.450298e-02  -1.364419e-01  -1.354516e-01  -1.853157e-02  -2.140283e-02  1.067693e-01  -5.889831e-02  -1.330388e-01  4.901757e-02  1.685698e-01  -1.132600e-01  -1.610680e-01  -7.273432e-02  -7.448021e-02  -2.232879e-01  -1.091674e-01  1.259370e-01  -9.046246e-02  2.309799e-01  -1.347086e-01  3.882927e-02  -1.373614e-01  7.462768e-02  -8.865195e-02  -1.344324e-01  1.997112e-01  1.977856e-01  -3.025214e-02  5.388077e-02  1.104971e-01  -4.704005e-02  2.578465e-02  -2.219506e-02  -1.094667e-02  3.105831e-02  -2.517289e-02  6.145988e-03  4.382630e-02  1.312527e-02  -8.117804e-02  -3.191272e-02  1.056085e-01  1.375041e-03  1.014587e-01  1.771132e-01  2.036926e-01  -2.481197e-02  4.023063e-02  6.209485e-02  -6.301149e-02  -7.447858e-02  6.207895e-02  -6.716809e-02  -9.403139e-02  1.156526e-01  1.256602e-01  2.854786e-02  3.060274e-02  -1.015922e-01  6.457826e-02  1.402677e-01  -1.137138e-01  -2.209716e-01  -1.631467e-02  -3.090483e-04  7.431898e-02  5.127084e-04  7.736704e-02  -1.530305e-02  -1.418057e-01  -1.503237e-01  1.345187e-01  6.241809e-04  1.641355e-01  -1.002613e-01  9.461337e-02  -8.527058e-02  -1.106833e-01  -5.381396e-02  -1.701602e-01  1.727111e-01  -7.748763e-02  3.181304e-03  6.245779e-02  -6.757324e-02  -1.151834e-01  1.222393e-01  2.795068e-02  -1.228800e-01  -1.723888e-01  6.280305e-03  8.295169e-02  -1.862680e-01  -5.680266e-02  1.076747e-01  -1.125537e-01  -1.778488e-01  3.901113e-03  -6.153329e-02  2.110358e-01  -1.268616e-01  1.427003e-02  9.334125e-02  1.848404e-01  5.238265e-02  -1.354590e-01  1.496901e-02  1.034641e-01  5.598728e-02  -1.809723e-01  -6.383539e-02  1.214491e-01  1.447519e-01  -8.054444e-02  -1.654864e-01  7.756142e-02  1.065985e-01  -5.233916e-02  -1.444535e-01  -1.373640e-01  6.625823e-02  -3.147040e-03  -9.802206e-02  -5.901798e-03  -8.902247e-03  -2.559008e-02  -1.013850e-01  8.335046e-02  -4.449355e-02  -1.384062e-01  -1.220731e-02  9.205177e-02  -1.336243e-01  -1.000906e-01  -6.836183e-02  7.359477e-02  -9.519873e-03  -5.844842e-02  9.751470e-02  1.738790e-02  5.604010e-02  3.621425e-02  -1.918129e-01  -1.609396e-02  -8.602635e-02  1.193428e-01  1.095316e-01  1.921938e-02  -5.538346e-02  -5.176302e-02  -1.569591e-02  -1.482720e-01  -2.017036e-01  7.242998e-02  2.118821e-01  -1.953235e-01  -6.436030e-02  -2.781371e-01  -4.431700e-02  7.712154e-03  1.941282e-01  -1.494642e-01  -2.005491e-02  -3.542420e-02  9.360702e-02  1.939976e-01  -1.304663e-01  2.236900e-01  -7.431387e-02  -1.151127e-01  9.665314e-02  -2.946780e-02  -5.143192e-02  -1.344257e-01  -8.011161e-02  1.307532e-01  -5.153501e-02  -1.737847e-01  -7.246806e-02  3.342191e-02  1.533235e-01  -3.808970e-02  1.117967e-01  1.621300e-01  -1.611406e-01  -1.446367e-01  1.132681e-01  1.773935e-02  -2.110035e-01  -9.307116e-02  -1.062060e-01  -1.209638e-01  3.800355e-02  -7.800368e-02  -7.025696e-02  -1.405297e-02  -8.147297e-02  9.687155e-02  3.779946e-02  1.392156e-02  -3.904333e-02  -1.667666e-02  2.289147e-02  1.936172e-01  -8.314202e-02  1.128915e-02  -1.280600e-01  1.272643e-01  2.121235e-02  3.997222e-02  -8.223572e-02  -2.170463e-01  2.686883e-03  -1.043331e-01  -1.300764e-01  -1.217590e-01  3.986456e-02  9.550915e-02  -2.181179e-02  7.390274e-02  2.816665e-01  -7.857591e-02  3.767421e-02  8.824337e-02  -5.157009e-03  1.496978e-01  3.296484e-02  -1.548567e-01  1.038216e-01  1.644581e-01  1.975451e-02  -1.245376e-02  4.207469e-02  -2.249305e-01  1.651182e-01  1.483032e-01  -1.574075e-03  -2.239329e-02  1.152702e-02  6.213745e-02  -9.957682e-03  5.423200e-02  -8.966770e-02  3.681810e-02  1.933896e-02  -7.292800e-02  4.682156e-02  1.734988e-01  -1.165172e-01  -1.988180e-01  1.582191e-01  -4.183263e-02  -9.505644e-02  -6.549215e-02  -1.662306e-02  -5.310778e-02  2.674354e-02  2.702592e-02  1.526240e-01  -3.354127e-02  -4.741433e-02  2.172929e-01  2.688963e-02  -6.144915e-02  3.679800e-02  -2.560422e-02  9.711377e-02  1.604525e-01  5.480401e-02  -1.227810e-01  9.317446e-02  8.015816e-02  8.120780e-02  -1.630884e-01  1.081547e-02  5.671616e-02  -1.637697e-01  5.134432e-02  1.214408e-01  1.630241e-01  -2.438527e-02  -4.428382e-02  -2.083117e-01  -4.926338e-02  -8.215706e-02  -2.511119e-01  -6.798449e-03  2.361265e-01  -1.496904e-01  -5.416137e-04  -8.736153e-03  -2.152307e-01  -4.336582e-03  -8.428281e-02  1.466436e-01  -1.035646e-01  6.500240e-02  4.545587e-03  -1.541370e-02  -4.817163e-02  -5.109392e-02  5.858988e-02  -1.172447e-01  -1.378540e-01  -5.424599e-02  1.732181e-02  -2.075566e-02  -1.528132e-01  -3.062523e-02  1.786874e-01  7.418456e-05  9.223796e-03  -7.397476e-02  2.152145e-01  -1.902403e-01  -1.307096e-02  -8.615053e-02  -1.184257e-01  -1.633104e-01  1.756661e-01  1.626387e-01  9.256594e-04  -9.614572e-02  -4.301456e-02  -6.983344e-02  -9.363138e-02  -1.400899e-02  -1.028429e-01  -6.916967e-02  -2.062835e-02  -2.517632e-02  -1.534628e-02  2.082519e-01  5.997770e-02  1.233087e-01  -1.244927e-01  1.297848e-01  7.865438e-02  -9.263510e-03  5.849248e-02  -2.501355e-01  -2.040028e-01  2.032151e-01  1.163000e-03  1.629144e-01  -4.138767e-02  -1.559442e-01  -4.381014e-02  -2.036093e-01  -4.197066e-02  1.441381e-01  -1.777090e-02  -2.612959e-01  -1.319147e-02  6.516109e-02  4.653521e-02  -2.699487e-02  -5.520203e-02  1.065486e-01  1.397091e-01  -1.212924e-01  -6.029731e-02  3.315909e-03  6.419354e-03  4.775250e-02  2.374151e-02  -3.703791e-02  1.344968e-01  1.106376e-01  4.718632e-02  8.171293e-02  9.319946e-03  -6.231599e-02  7.035679e-03  -5.325267e-02  1.908582e-01  5.669983e-02  -1.919225e-01  -2.563545e-01  9.510861e-03  -3.639978e-02  2.837401e-02  -9.965736e-02  -7.789240e-02  6.461094e-02  8.970936e-02  -1.516214e-01  2.523089e-02  -1.473059e-01  -1.041785e-01  2.514977e-02  -6.986146e-02  3.787844e-02  -9.472624e-02  9.556293e-02  -8.615176e-02  6.962593e-02  2.925436e-02  -5.634225e-02  -8.637684e-02  -9.749982e-02  -1.472711e-01  -6.658199e-02  -6.343553e-02  -2.137333e-01  -6.119838e-02  7.663006e-02  -1.525932e-01  -1.246315e-01  1.549149e-01  1.247590e-01  1.440851e-01  -2.253200e-02  -9.024791e-02  -5.143754e-02  -5.451484e-02  6.001400e-02  -1.881745e-01  1.059328e-01  -1.138877e-01  -8.381153e-04  -4.418956e-02  1.314854e-02  1.919924e-02  1.519698e-01  7.341599e-03  1.790058e-01  1.882261e-02  -3.573582e-01  6.382976e-02  -2.486236e-03  1.191874e-01  -1.093342e-01  -2.743363e-02  -3.719955e-02  -1.633712e-01  1.578711e-01  -5.009979e-02  -7.754066e-02  -1.007674e-01  7.558012e-02  -1.077924e-01  -7.022727e-02  7.707645e-02  -4.728070e-02  -5.680273e-02  -2.107484e-01  9.900060e-02  -1.522607e-02  -5.529281e-02  -1.329728e-01  2.569516e-02  -6.167967e-03  4.504009e-02  -1.513044e-01  1.299213e-03  -1.386044e-01  -1.075312e-01  -1.710030e-02  1.279839e-03  1.134386e-01  -6.431556e-02  9.265570e-02  1.197491e-01  1.116304e-01  6.525631e-02  -2.671110e-02  1.676880e-01  -1.648555e-01  -2.030409e-01  -8.653318e-03  -5.950017e-02  4.540513e-02  8.129909e-02  8.677743e-02  -2.214988e-01  -1.099200e-02  -1.568917e-02  7.622740e-02  7.190417e-02  -1.031900e-01  4.331366e-02  1.524935e-02  4.014949e-02  8.093531e-03  -5.785909e-02  -1.247064e-01  -4.758478e-02  8.239321e-02  -1.335449e-01  5.750260e-02  -1.099308e-01  9.547428e-02  1.556949e-01  1.777284e-01  1.416373e-01  -4.433148e-02  7.925586e-02  -8.829945e-02  1.735426e-02  -1.103142e-01  -8.045176e-02  -5.466405e-02  2.700301e-02  7.407232e-02  -2.966546e-01  8.626878e-02  -4.607607e-02  -2.466658e-03  4.857863e-02  9.118517e-02  3.127089e-02  -1.382761e-01  -9.512068e-02  8.698924e-03  -1.988426e-02  6.218575e-03  1.599474e-02  1.536110e-01  -1.976567e-01  -1.479419e-01  7.907539e-02  -4.094457e-02  5.556152e-02  2.068569e-02  1.454107e-02  -1.495161e-02  -5.021318e-02  1.107915e-01  6.911653e-02  1.503593e-01  -3.287122e-01  8.921374e-02  4.334211e-02  3.134433e-02  2.109016e-01  4.772563e-02  2.597609e-02  -4.163317e-02  9.795961e-02  5.965210e-02  -3.851658e-01  2.551384e-03  -1.244838e-01  -3.140979e-01  -1.209671e-01  -8.562737e-02  -1.032973e-01  6.494644e-02  7.600967e-03  -9.492780e-02  -1.144157e-02  9.818154e-02  2.101873e-02  -1.652515e-01  1.506318e-01  5.426467e-02  -7.010464e-02  -9.702121e-02  3.629763e-02  1.273599e-01  -6.811833e-02  1.048571e-01  -7.729415e-03  7.907863e-02  7.226975e-02  -1.820517e-01  -7.900097e-02  1.474649e-01  5.769348e-02  3.496531e-02  4.001804e-02  -2.123423e-02  3.282998e-02  -1.985790e-01  1.090100e-01  1.006578e-01  -6.208447e-02  2.647819e-02  -4.054068e-02  -9.661469e-02  3.494484e-02  7.361087e-02  2.178456e-03  -8.643156e-02  -7.952550e-02  1.935414e-03  8.206734e-02  1.443816e-01  -1.619284e-01  1.600232e-01  5.708995e-03  -6.651629e-02  -3.042145e-02  -2.175113e-01  8.234751e-02  -7.041542e-02  -2.647764e-01  -4.630601e-03  -1.020132e-01  -1.278526e-01  -7.827684e-02  -2.272693e-03  -7.841457e-02  -1.865643e-01  5.242702e-02  9.611338e-02  -7.735465e-02  -1.202038e-03  1.524252e-01  2.644727e-01  -3.058023e-02  -4.413494e-02  -1.363519e-01  5.976466e-02  1.657760e-02  -3.099530e-02  3.925795e-02  -3.428955e-02  4.444779e-02  5.029887e-02  -6.420700e-02  3.011010e-02  -7.516158e-02  3.416983e-02  -9.215418e-02  1.739560e-02  -1.057585e-01  9.680948e-02  1.535512e-02  9.836665e-02  -8.220250e-03  1.304792e-01  -2.272536e-01  -1.619155e-01  7.124735e-02  -1.928921e-01  -1.059727e-01  -2.222904e-01  -8.271872e-02  -6.487157e-02  -1.924578e-01  9.309880e-02  1.573605e-02  -1.100827e-01  -5.167905e-02  1.728892e-01  8.249990e-03  -1.057542e-01  -6.743389e-02  -5.294729e-02  9.788404e-02  -5.162188e-02  6.318868e-02  -2.528359e-01  7.080721e-02  2.486334e-01  -8.206894e-02  1.849064e-01  -1.705067e-01  5.507139e-02  -5.853145e-03  -5.119058e-02  1.680823e-01  -2.111092e-01  -1.864680e-02  1.655997e-01  -3.773320e-02  1.751707e-01  2.285072e-01  4.545967e-02  2.569043e-02  6.121647e-02  -6.005585e-03  1.452463e-02  1.532368e-01  -1.019740e-01  3.290444e-02  -4.603789e-02  2.207290e-01  -2.871625e-02  6.065942e-03  -2.205065e-02  -2.840632e-02  -3.099060e-02  2.819740e-02  2.387068e-02  3.209614e-02  5.943113e-02  1.866784e-01  2.884176e-02  7.233652e-02  1.073636e-01  7.229691e-02  2.814702e-01  -1.295593e-01  1.623851e-02  -3.992638e-01  -3.872760e-02  -9.725377e-02  -3.736693e-02  2.410926e-02  3.894957e-02  1.295978e-02  -1.057856e-02  4.180390e-02  2.527598e-02  -3.329299e-02  8.521671e-03  -1.864157e-01  1.046724e-01  -2.029273e-01  -7.422969e-02  1.414237e-02  -5.094242e-03  3.100041e-02  -2.336720e-01  -2.217221e-02  5.535773e-03  3.793895e-02  -5.505486e-02  -8.361788e-02  6.561229e-02  -1.301560e-02  2.595653e-01  -2.779914e-02  -3.041186e-01  -1.931753e-01  -3.176729e-02  2.115403e-01  1.224455e-01  2.267263e-01  9.857699e-02  8.626229e-02  -1.813379e-01  -1.257130e-01  2.042549e-01  9.051945e-03  -4.523473e-02  -7.692003e-02  -9.447970e-02  8.288698e-03  -1.064523e-01  -3.513406e-01  2.491266e-01  -2.747563e-02  1.714066e-01  1.373374e-02  -1.690851e-01  -6.798215e-03  -1.793681e-01  -3.049457e-03  -1.413635e-01  2.524419e-01  -1.090950e-01  -1.319813e-01  -8.700216e-02  9.967789e-02  1.527230e-01  -3.808539e-02  1.230510e-01  2.356119e-01  1.014377e-02  7.418752e-02  9.061781e-02  6.087563e-02  9.941564e-02  1.174366e-02  -8.338713e-02  7.347056e-02  -2.631067e-02  -3.009602e-01  -1.032765e-01  7.578444e-02  -9.111810e-02  1.106819e-01  4.351685e-02  6.532821e-02  5.789563e-02  -8.837190e-02  5.511877e-02  -9.310205e-03  1.232326e-02  2.108325e-01  -2.186096e-01  8.812932e-02  -1.361092e-01  1.720720e-01  -8.851749e-02  1.519976e-02  2.750074e-02  -5.523092e-02  -7.791972e-02  6.356256e-02  -2.302296e-01  -1.797814e-01  -5.605589e-02  4.729754e-04  -9.341855e-02  -2.676655e-02  7.849211e-03  1.470469e-01  7.225118e-02  -1.015889e-01  3.683230e-02  -1.861922e-01  -6.490105e-02  -1.547306e-01  1.497889e-01  7.498202e-02  -5.723779e-02  -1.060927e-01  -2.203236e-01  -1.912065e-01  9.300420e-02  5.098254e-02  3.864346e-02  -9.591124e-02  -1.344955e-01  1.115241e-01  -1.763222e-01  8.687127e-03  -2.439664e-01  -1.020527e-01  -5.708634e-03  -2.280230e-01  -3.485988e-02  7.658184e-02  8.056371e-03  1.890990e-02  9.867042e-02  4.938640e-02  1.977983e-02  4.871261e-02  -8.888912e-02  2.675895e-01  -1.122965e-01  -7.969914e-02  1.110604e-01  -1.039718e-01  -1.291336e-01  1.466109e-01  4.173241e-02  -1.732835e-01  2.544667e-02  1.981450e-01  4.315523e-02  6.648707e-02  -4.630009e-02  6.580549e-02  2.939408e-03  7.738010e-02  1.346034e-01  -4.632360e-02  1.192032e-01  8.942347e-02  1.562416e-01  -6.840402e-02  -9.138419e-02  -7.686933e-02  8.794530e-02  7.764282e-02  -3.292137e-02  -1.352506e-02  9.372078e-02  -1.465829e-01  -1.296474e-01  9.974903e-02  -1.091549e-01  8.971445e-02  -1.942137e-01  -4.826788e-02  -8.648299e-03  5.964193e-02  -8.664194e-02  -1.411773e-01  3.069424e-02  -4.337861e-02  5.367297e-02  -5.041956e-03  1.151268e-01  9.961157e-02  4.914345e-03  -4.889933e-02  4.909546e-03  7.235021e-03  2.171335e-02  -1.966451e-01  1.013945e-01  -8.412453e-02  -4.702396e-02  -1.052701e-01  1.384640e-02  -1.248490e-01  -1.622762e-01  8.567036e-02  -2.667161e-01  -4.263804e-02  -1.079030e-01  4.244738e-02  3.985739e-02  8.280157e-02  1.372385e-01  7.616670e-03  -3.045700e-02  -5.036490e-02  6.034300e-02  -2.221259e-02  1.169125e-01  4.495304e-02  7.872064e-02  4.370026e-02  1.591750e-01  3.163284e-01  4.386697e-02  -1.054940e-01  7.491794e-02  -1.147406e-01  3.848086e-02  -1.337117e-01  -8.595544e-03  -4.921128e-02  1.604979e-01  -2.242229e-02  -1.108108e-01  -2.424025e-02  -7.258805e-02  9.903613e-03  -2.464786e-02  6.409135e-02  -1.067468e-01  3.918505e-02  5.234216e-02  -1.759795e-01  7.558744e-02  -8.317599e-02  1.598495e-01  -6.456674e-02  -2.010562e-02  7.866295e-02  -1.045540e-01  -7.186539e-02  -2.600036e-01  -1.305408e-01  4.418480e-02  8.700233e-03  1.502429e-01  -5.046527e-02  -6.874477e-02  -2.024018e-01  -8.018152e-02  -5.848845e-02  -6.243717e-02  2.532350e-01  -3.767182e-02  -5.923523e-02  -2.276980e-01  5.505555e-02  -3.253241e-01  -4.126135e-02  7.491272e-03  -1.494279e-01  -1.933300e-01  -4.368867e-02  -7.936615e-02  1.393425e-02  -1.989257e-02  9.860341e-02  -4.026134e-03  7.140668e-02  7.703003e-02  -9.863391e-03  -3.208363e-02  1.044388e-01  8.299063e-02  3.289982e-02  1.055733e-01  -1.567769e-01  5.438590e-02  1.026731e-01  -3.267094e-04  -4.133229e-02  1.774514e-01  2.095337e-02  7.811437e-02  -9.390023e-02  4.806362e-02  1.994419e-02  -2.164383e-01  9.834575e-02  -1.890069e-01  3.171607e-02  -2.714922e-01  -1.165990e-01  2.190020e-01  -1.002299e-01  2.006100e-02  -7.930148e-02  -1.019822e-01  1.952437e-01  -2.732753e-01  -2.092693e-02  -2.312608e-01  1.267366e-01  8.759086e-02  7.048693e-02  1.682333e-01  2.780145e-02  9.945145e-02  -6.571811e-03  2.734246e-02  1.186350e-01  9.007704e-02  1.932638e-01  2.549535e-02  -2.003676e-01  -7.371422e-02  -1.230597e-01  -8.347441e-02  -2.381396e-02  3.657744e-02  3.792253e-02  5.358965e-02  1.601506e-01  6.216806e-02  -1.649403e-01  -3.367663e-02  1.847428e-01  1.168538e-01  -1.003593e-02  -9.455541e-02  -1.525309e-01  2.407456e-02  6.182180e-02  -4.700030e-02  -8.999620e-02  1.214047e-01  -7.009470e-02  -2.164659e-01  1.670199e-02  2.542445e-02  5.372571e-02  2.124417e-01  -7.133415e-02  -1.132773e-01  1.154094e-01  -1.582845e-01  -6.639237e-02  1.133581e-01  7.975947e-02  2.822994e-01  1.005316e-01  5.901076e-02  1.930686e-01  1.711347e-01  -1.670346e-01  2.668988e-01  -3.313678e-02  1.015586e-01  -1.539379e-02  -1.787005e-01  -3.349409e-02  -8.995859e-02  -8.106399e-02  -2.732062e-01  -1.873110e-01  7.931682e-02  1.250336e-01  1.447047e-01  -1.532150e-01  5.726901e-02  8.369123e-02  -7.875175e-02  1.166788e-01  -5.268356e-02  4.847981e-02  -6.363542e-02  3.411981e-03  7.792163e-02  8.626693e-02  9.461229e-02  -8.293524e-02  1.492239e-01  9.177545e-03  -3.133981e-02  -1.050691e-01  1.839381e-01  -1.504838e-02  -3.255108e-02  1.617365e-01  -5.804769e-02  1.649560e-02  2.512176e-01  -9.348737e-02  -2.654434e-02  -1.895405e-01  -8.128031e-02  7.536057e-02  1.458456e-02  -1.091091e-01  -9.503494e-02  4.619355e-02  -5.049326e-02  5.120791e-02  4.628526e-03  6.143556e-02  1.304968e-01  -1.631304e-02  1.821365e-01  -5.232442e-02  -2.970298e-02  -1.113853e-01  1.448887e-02  1.004535e-01  -6.508064e-02  1.536509e-01  1.860779e-01  1.629929e-01  2.136236e-01  -1.593177e-01  1.140990e-01  1.170137e-01  -7.192489e-02  -6.042088e-02  -9.056204e-02  1.257440e-02  -9.660404e-02  -1.255924e-01  5.279479e-02  4.702548e-02  7.530526e-02  -1.031125e-01  -9.383675e-02  1.361787e-01  4.051005e-02  1.554317e-01  -1.400117e-01  3.073760e-01  5.330723e-02  8.616302e-02  8.277553e-02  3.558039e-02  7.140993e-02  7.992757e-02  -6.166418e-02  1.064696e-01  1.467917e-01  -1.380115e-01  -5.331844e-02  1.041537e-03  4.354766e-02  4.535310e-02  -2.274290e-02  -4.474829e-02  2.194281e-01  7.924213e-02  -8.357647e-02  6.554440e-02  8.566677e-02  1.481839e-02  1.690128e-01  7.101718e-02  3.129699e-02  8.177173e-02  2.909449e-02  1.436823e-01  1.317509e-01  -1.132761e-01  -9.676119e-03  -8.487363e-02  3.059112e-03  1.250465e-01  -2.042440e-02  -6.261284e-02  1.037071e-01  -1.584359e-01  -1.136987e-01  -1.427407e-01  -7.548229e-02  5.420054e-02  -3.893456e-02  -2.946351e-01  -1.403299e-01  -3.340540e-02  -8.798509e-02  -1.016429e-01  -2.983451e-02  -6.116540e-02  7.687066e-02  7.427274e-02  1.159319e-01  -1.549210e-01  9.539218e-02  3.417251e-02  -6.310473e-02  1.105597e-01  -9.695149e-02  1.379190e-01  -1.114246e-01  2.183652e-02  -1.617818e-01  -1.751104e-01  7.676555e-02  8.213785e-02  -1.255732e-01  -6.500065e-02  -9.981874e-02  1.606457e-01  5.069699e-04  1.998129e-01  -1.098214e-01  4.487084e-02  -1.425334e-02  9.312233e-02  -6.347999e-02  1.070010e-01  8.258148e-02  -8.897404e-02  -2.980325e-02  -8.646310e-04  -9.239158e-02  2.510298e-01  -1.024920e-01  3.726598e-02  4.876782e-02  -7.675331e-02  -1.880806e-01  8.734904e-02  8.995435e-02  1.365929e-01  -2.037239e-02  -1.617251e-01  -3.892319e-02  1.311762e-01  -6.048986e-02  1.376265e-01  -3.392143e-01  -2.637231e-01  1.738899e-01  4.144097e-02  6.581040e-02  -1.331408e-01  -7.730718e-03  4.978536e-02  -2.870255e-01  -2.051221e-01  9.293976e-02  2.649960e-02  -7.874684e-02  -1.520641e-01  1.145481e-01  -1.944460e-01  1.701176e-01  -3.877500e-02  -3.369837e-02  2.675543e-01  -1.133246e-01  7.896860e-02  -8.336420e-02  6.733810e-02  1.764872e-01  2.820279e-02  6.096315e-02  -1.624551e-01  1.833256e-01  -1.916847e-01  -9.908546e-02  8.327883e-02  -6.593642e-02  6.687529e-02  1.340450e-01  6.649135e-02  8.539832e-02  -3.662651e-01  -9.638246e-02  2.096487e-02  5.729375e-02  -8.558603e-02  -1.480929e-01  -4.231124e-02  1.067255e-01  -1.539013e-01  4.509937e-02  8.354775e-02  -1.429719e-01  -1.971774e-02  -1.104232e-01  -6.299061e-02  -1.525896e-02  -1.516304e-01  -2.656901e-02  -6.634506e-02  7.795557e-02  -1.429976e-01  -2.749504e-01  -8.414882e-02  3.739946e-02  1.088018e-01  2.769575e-01  -1.815959e-01  1.840011e-02  -5.919079e-02  -9.658974e-02  7.177558e-02  -1.673677e-01  3.199863e-02  3.673613e-01  -1.044920e-01  -8.018286e-02  2.532164e-01  1.908603e-02  9.334786e-02  1.538979e-01  -4.943465e-02  4.747014e-02  2.309749e-02  -3.222912e-03  -1.031102e-01  8.620929e-03  7.897096e-03  -2.950558e-01  -1.976522e-01  1.677193e-01  -2.489543e-02  -5.578895e-03  -2.230287e-01  1.043561e-01  1.910528e-01  -1.079912e-01  2.221587e-01  3.685174e-02  9.438989e-02  7.183841e-02  1.667656e-02  2.610652e-01  -4.277820e-02  1.673556e-01  -2.787601e-01  -3.211861e-02  1.330901e-01  2.200105e-01  2.413705e-02  -1.503552e-03  -1.786368e-01  -2.016795e-01  1.135479e-01  1.232182e-01  1.773435e-01  1.883106e-01  -1.321426e-01  -5.885173e-03  -9.348106e-02  1.121020e-01  9.734122e-02  2.106673e-02  1.302183e-01  -6.387365e-02  9.773784e-02  -1.385317e-01  -1.858048e-02  1.495819e-02  1.177700e-01  2.018766e-01  -9.814780e-03  1.974657e-01  1.026480e-01  -2.347573e-01  -1.435261e-02  7.415608e-02  1.097233e-01  7.710668e-02  2.376175e-01  2.677801e-01  -2.538140e-02  -1.684360e-01  1.100810e-01  1.510991e-01  5.989435e-02  -2.106734e-01  1.226471e-01  3.710561e-02  1.196234e-01  -1.621164e-01  -2.693986e-01  1.843183e-01  -1.432877e-01  2.752041e-02  6.878122e-02  1.956760e-02  3.328720e-02  -9.843075e-02  -4.085067e-02  1.688937e-02  8.394431e-02  -1.202936e-01  1.061938e-01  1.129107e-02  9.843545e-02  -1.004123e-01  1.555110e-01  -6.873959e-02  2.189403e-01  -2.566626e-02  -3.314115e-02  5.663050e-02  1.737559e-02  4.093122e-02  5.446654e-02  1.092468e-01  1.218159e-01  -4.186428e-02  -6.128836e-02  -8.031213e-02  1.667740e-01  -2.482503e-01  -5.272733e-02  5.003348e-02  1.610972e-02  -1.201907e-01  -5.082775e-02  5.204773e-02  1.308419e-01  2.392879e-01  1.188731e-01  -2.134363e-01  -1.954057e-01  -2.770622e-01  2.595450e-01  -4.933423e-02  6.468812e-02  1.342407e-01  -3.602760e-02  -9.572244e-02  -9.450067e-02  -1.788598e-01  -2.022617e-01  -3.669955e-02  2.398408e-01  1.498203e-01  -1.805506e-02  1.569373e-01  1.155695e-01  -4.284338e-02  2.859526e-04  9.168534e-02  5.270593e-03  -1.710771e-01  -4.300384e-02  -3.483732e-02  -1.835253e-01  -1.617699e-02  -7.718764e-02  9.456205e-02  -5.673545e-02  -1.613170e-02  -8.456871e-03  -4.823562e-02  1.015022e-01  -1.984737e-02  4.194240e-02  1.327468e-02  1.967806e-01  3.042582e-02  -1.555499e-01  9.322048e-03  -3.029815e-01  2.034481e-03  5.103858e-02  8.068908e-02  8.448636e-02  2.906630e-01  -1.599052e-01  3.066755e-02  3.083417e-02  1.548704e-01  -1.173283e-01  5.537794e-02  -1.582442e-01  8.300082e-02  -6.149318e-02  -1.102186e-01  6.107775e-02  -2.628096e-02  1.238725e-01  -1.754297e-01  -3.782829e-02  9.529693e-02  8.648920e-02  8.906151e-03  4.503046e-02  2.254167e-01  9.322230e-03  2.588930e-01  1.985580e-01  -3.881624e-02  6.990241e-02  -1.103643e-01  -7.952075e-02  9.782735e-02  1.498020e-02  3.743729e-01  1.002186e-01  -9.662605e-02  -1.042359e-01  2.731904e-01  -1.204417e-01  -2.314755e-01  1.319573e-01  -1.058392e-02  3.716167e-02  -1.652800e-01  -4.333004e-02  3.034099e-01  -8.689406e-02  1.693534e-01  1.682307e-01  -2.254161e-01  -9.611185e-02  -3.356421e-02  -8.709553e-02  3.984084e-02  2.922167e-02  5.024882e-02  -8.593820e-02  1.457096e-03  1.795064e-01  -1.846480e-01  -6.636570e-02  7.306030e-02  1.936227e-01  5.512376e-02  -4.306131e-02  -2.391104e-02  1.210898e-01  1.300412e-01  3.576776e-02  -1.025604e-01  7.534392e-02  -1.743874e-02  -9.663878e-02  -2.334755e-02  1.673162e-01  6.403960e-02  1.254752e-01  5.347137e-02  8.318488e-02  8.648579e-02  -5.695339e-02  -9.258279e-02  4.028830e-02  1.908848e-01  1.153120e-02  -3.690046e-02  -1.661727e-01  -1.425380e-01  2.674689e-01  -6.644969e-02  -2.574879e-02  6.279747e-02  -7.944406e-02  -6.380897e-02  -1.405915e-01  -3.380719e-01  9.038915e-03  1.049408e-01  -3.312177e-01  -1.134105e-01  -4.017456e-03  -1.991773e-01  -3.167495e-02  -4.757534e-02  -2.205723e-01  1.449553e-01  -1.263412e-01  -6.962021e-02  -1.914444e-01  4.805437e-02  -3.098376e-02  1.208782e-01  -9.480558e-02  -1.137475e-01  1.477372e-01  -2.254307e-01  1.433704e-02  1.253433e-02  -2.023515e-01  2.202759e-02  2.244825e-02  -1.407359e-02  -3.145807e-02  -2.956920e-02  -7.174883e-02  -1.365750e-01  2.875847e-01  -1.968270e-01  -9.061793e-02  -5.453778e-02  3.090474e-03  1.338268e-02  5.320749e-02  1.659598e-01  -6.289194e-02  -9.457076e-02  -1.614418e-01  -2.295846e-01  3.375720e-01  1.872751e-02  7.332350e-02  -1.128505e-01  3.995002e-02  -4.043252e-02  -1.216984e-01  1.290914e-01  1.327916e-01  8.613411e-03  -6.249179e-02  -2.580577e-02  4.323925e-02  -1.104330e-01  -2.204989e-02  -1.422153e-01  -2.519690e-01  1.161096e-01  1.367016e-02  -1.355467e-01  -3.172831e-02  2.105589e-02  7.381269e-02  -4.640878e-01  -6.712420e-02  -3.704851e-02  -8.183163e-02  -1.913336e-01  4.045872e-02  3.021921e-01  -6.425266e-02  1.282026e-02  -1.640147e-01  1.089084e-03  2.553245e-01  -3.124205e-01  -5.396960e-02  -2.000249e-01  -2.830279e-02  3.471900e-02  1.724333e-01  1.068253e-01  2.308192e-03  8.163789e-02  3.299170e-02  -6.429230e-02  6.134570e-02  1.227477e-01  -1.848986e-01  5.670978e-02  -2.574451e-02  -1.096735e-01  -3.158626e-01  -2.520550e-01  -4.698147e-02  -2.010276e-01  1.319752e-01  1.934717e-03  -5.067469e-02  8.162481e-02  -1.152978e-01  -1.159533e-01  1.296164e-02  1.367031e-01  2.947555e-02  -1.445871e-02  -6.200161e-02  -5.418088e-02  -1.498517e-01  3.813947e-02  -7.385603e-02  1.511914e-01  1.145571e-01  -2.916319e-01  -1.529052e-01  5.894056e-02  8.235385e-02  2.244469e-01  -1.469168e-01  1.068084e-01  -1.385641e-01  -1.087035e-01  1.129570e-01  9.358485e-02  -1.944873e-02  2.423820e-01  8.197892e-02  4.346758e-02  2.922429e-01  -1.132621e-01  -2.074992e-02  1.878148e-01  4.223956e-02  -9.159632e-03  1.238156e-01  -8.393206e-02  -1.569457e-02  3.137420e-02  -2.192885e-02  7.964720e-02  4.947729e-02  -6.175769e-02  6.563215e-02  5.941719e-02  -1.225526e-01  2.368964e-01  -8.486389e-02  9.243755e-03  3.022036e-02  3.215523e-02  -8.873568e-02  -4.592562e-02  3.171666e-02  1.257114e-01  -1.108292e-01  -4.126162e-02  -2.925120e-01  -1.015050e-01  -1.311020e-01  1.909375e-02  -8.394218e-02  2.805007e-02  2.031856e-02  -1.574904e-01  1.352859e-01  -4.900628e-02  5.248123e-02  2.450316e-01  -3.754912e-02  -9.573028e-02  -1.186867e-01  -6.166594e-04  1.229248e-01  -9.188005e-02  -4.261387e-02  -2.817119e-01  -4.955983e-02  9.314042e-02  -5.216610e-02  5.935355e-02  5.791932e-02  2.678979e-01  -1.321384e-01  2.170756e-01  3.885289e-02  -1.868651e-01  -1.187515e-01  -5.080289e-02  9.860517e-02  4.698298e-02  2.564100e-01  2.971749e-01  1.836863e-01  -4.857954e-02  7.971765e-02  6.802190e-02  9.471659e-02  -3.110975e-01  -6.072573e-02  3.616250e-02  1.963364e-01  -1.983868e-01  -1.148837e-01  2.179717e-01  -8.025587e-03  1.649343e-01  -1.064780e-01  -1.271341e-01  -1.402121e-01  -2.064536e-01  7.368073e-02  -1.461193e-01  2.471804e-02  -9.289706e-02  -1.417008e-01  8.762826e-02  1.412159e-01  -2.051871e-01  1.027753e-02  -7.683790e-02  4.032999e-01  1.930404e-01  4.789006e-02  1.467425e-01  -7.847447e-02  2.262917e-02  1.308120e-01  -6.837634e-02  -6.201071e-02  8.037213e-02  -5.796128e-02  1.457706e-01  2.392350e-01  -8.324194e-02  1.693821e-01  -8.047593e-02  1.379337e-01  3.099195e-02  -2.540581e-02  9.881765e-02  3.605828e-02  7.169053e-02  -1.796806e-02  -1.321176e-01  -5.508592e-02  -2.218216e-01  2.321021e-01  5.475429e-02  -5.509580e-02  3.567142e-02  2.720138e-02  9.228128e-03  2.530314e-02  -1.077430e-01  -1.183208e-01  1.073412e-01  -1.269687e-01  2.533254e-02  4.636461e-02  -2.337803e-01  -4.387844e-02  -1.160057e-01  -1.032504e-01  -1.213945e-01  -1.805049e-01  -4.052598e-02  -8.800986e-02  8.871888e-02  1.298899e-01  -7.085619e-02  -5.799670e-02  2.363174e-02  -4.371197e-02  -7.983047e-02  1.117960e-01  -1.141206e-01  -9.145937e-02  4.282957e-02  1.172888e-02  -7.953174e-02  1.118988e-01  -5.946224e-02  -5.751456e-02  -3.257873e-03  1.225526e-01  1.334837e-02  5.278763e-02  -1.038572e-02  -1.642156e-01  -3.449396e-02  -8.466449e-02  5.968255e-02  -2.523548e-02  -1.146905e-01  8.522450e-02  -1.477920e-01  8.808134e-02  -8.336502e-02  1.008467e-01  -1.215989e-01  6.153101e-02  -3.747016e-02  1.577823e-01  5.056775e-02  3.334342e-02  -1.853878e-02  -8.709127e-02  1.151764e-01  -1.759426e-01  3.582495e-02  7.810920e-02  -6.439382e-02  2.639920e-02  7.278319e-02  6.466264e-02  5.361581e-02  1.196472e-02  -2.486571e-02  3.902294e-02  -2.179604e-01  -1.081809e-01  -1.143067e-01  -1.114826e-02  -1.390211e-01  -4.930622e-02  1.446268e-01  -1.262101e-01  8.883443e-02  -7.994901e-02  1.448622e-01  1.319139e-01  -1.413127e-01  2.083576e-01  -1.193279e-01  -7.231060e-02  9.908822e-02  -4.744478e-02  -3.716448e-02  1.758649e-01  -9.975519e-03  -1.984415e-01  8.660331e-03  -5.957364e-03  5.864798e-02  -1.480583e-01  7.179427e-02  4.422063e-02  -2.756677e-02  -1.804976e-01  -6.921639e-02  1.120561e-02  -1.169388e-01  -6.972662e-02  8.759090e-02  1.455308e-02  9.872183e-02  8.067872e-02  -2.470433e-02  -1.427221e-02  9.582588e-02  -1.146488e-01  -1.158483e-01  1.787093e-01  -9.153315e-02  6.266870e-02  -2.646975e-02  -1.613760e-01  1.774115e-01  2.941708e-02  -1.352572e-01  1.057976e-01  -9.908942e-02  -8.571795e-02  -3.573992e-02  -1.664565e-01  -8.299947e-02  -7.058166e-02  1.631394e-01  1.453359e-01  -7.150067e-02  1.373776e-01  1.966674e-01  -4.769881e-02  -1.290407e-01  -7.254694e-02  -6.886477e-02  -1.331425e-01  -2.217962e-01  -2.294002e-01  6.090616e-02  -7.459191e-02  1.604066e-01  -9.891378e-02  3.638662e-02  1.098037e-01  8.248286e-02  9.398140e-02  2.112757e-01  -5.783321e-02  -1.096840e-01  -1.142398e-01  1.685693e-02  9.266629e-02  6.044879e-02  -1.264855e-01  -4.107662e-02  2.216374e-01  -2.616243e-02  -6.148271e-02  -2.222684e-01  -3.578637e-02  -1.974093e-01  -6.810853e-02  -2.345423e-02  -1.499048e-01  -1.677076e-01  -3.099643e-02  -1.135069e-01  -1.774358e-01  -1.720653e-01  -9.956478e-02  1.121643e-02  -4.940883e-02  -9.954843e-02  4.370886e-02  9.088341e-03  -1.320154e-01  -1.185516e-01  2.023409e-01  1.035169e-01  4.078091e-03  2.342479e-01  -6.922130e-02  -6.715438e-03  1.819236e-01  1.908969e-02  -1.765649e-02  2.946462e-02  7.968789e-02  -2.369944e-01  -1.166142e-01  4.279008e-02  1.498933e-01  -6.743324e-02  -1.352429e-02  4.579582e-02  -2.251565e-01  5.397561e-02  -1.961988e-01  1.509231e-01  -6.172077e-02  8.205772e-02  9.290513e-02  -1.335126e-01  5.517647e-04  1.958336e-02  1.089135e-01  1.328301e-01  4.787476e-02  -1.247127e-01  9.492540e-04  -1.268823e-01  9.177478e-02  -9.996255e-02  1.923369e-01  1.253524e-01  -4.233002e-02  2.331637e-01  -2.295023e-02  1.252525e-01  7.524340e-02  -5.323830e-02  -4.233352e-02  -1.099533e-01  -6.393041e-02  2.571130e-02  -2.284539e-01  -9.924571e-02  2.956924e-02  -8.085299e-02  8.205542e-02  -1.134072e-02  1.229845e-01  -2.110012e-01  -1.410497e-01  4.799671e-02  -8.922413e-02  -5.510839e-02  2.247308e-01  4.153521e-02  2.205234e-01  -1.112796e-01  1.987021e-02  5.776814e-02  -3.521189e-03  9.038994e-03  6.776422e-03  1.774413e-01  4.094934e-02  4.097076e-02  1.320997e-01  6.691954e-02  -9.618577e-02  -9.257182e-03  -2.185250e-01  6.092348e-02  1.132230e-01  7.977708e-02  -1.503003e-01  1.088728e-01  6.121384e-02  7.297494e-02  -8.341696e-02  -1.134724e-01  -3.391756e-02  -2.899116e-01  4.006156e-02  -1.190773e-01  -2.157538e-01  1.217737e-01  3.862358e-02  8.390309e-02  -1.666267e-01  6.599124e-02  7.343710e-02  9.728507e-03  8.103041e-02  -1.480963e-01  7.013834e-02  -1.491783e-01  -1.332648e-01  -5.404234e-02  -1.237951e-01  1.170078e-01  -1.500594e-01  1.427310e-01  -2.034015e-01  -2.719918e-01  5.790695e-02  -1.665557e-01  3.241665e-01  5.703214e-02  6.880070e-02  -1.412497e-01  5.383775e-02  -2.027753e-01  1.196658e-01  2.029079e-01  -1.034619e-01  -1.376211e-01  4.429116e-02  -2.614014e-01  1.326049e-01  1.072612e-01  1.294085e-01  -5.529813e-03  -6.175115e-02  -9.714825e-02  -1.245306e-01  8.692057e-02  1.275048e-01  2.484914e-02  -1.156575e-01  -4.881382e-02  -3.751263e-02  -2.078981e-01  2.132249e-01  -5.574807e-02  9.716795e-02  1.428221e-01  -5.171705e-02  4.115842e-02  -1.338689e-01  -5.553152e-02  -2.360140e-03  -8.752418e-02  -1.457885e-01  1.400340e-01  4.863128e-02  -1.025751e-02  1.489292e-01  -4.651987e-02  -1.693983e-02  2.017733e-02  8.652952e-02  -7.087877e-02  1.220918e-01  -1.526246e-01  -4.839385e-02  -1.682018e-01  -1.217261e-01  4.623694e-02  -1.225037e-01  6.915275e-02  8.010934e-02  1.170896e-01  -1.698029e-01  1.156867e-02  5.059112e-02  4.985082e-02  -4.827649e-02  3.412795e-03  -6.750959e-02  3.679268e-03  -5.981575e-02  3.076771e-02  9.654828e-02  2.857327e-02  -2.021976e-04  -2.152955e-01  1.484685e-01  -1.326980e-01  -2.261503e-02  -4.467015e-02  8.406356e-02  7.600380e-02  -1.051128e-01  1.634063e-01  9.080096e-02  3.150832e-02  -2.611523e-02  -1.008288e-01  1.323829e-01  2.903772e-02  9.132402e-02  -2.691092e-01  -6.038059e-02  2.275439e-01  4.159148e-02  -4.262646e-02  -4.200585e-01  6.660349e-03  1.138344e-01  -6.156159e-02  -8.553592e-03  -1.198159e-01  -1.887993e-02  3.276957e-01  6.416984e-04  1.020427e-01  -1.165683e-01  6.761524e-02  1.895297e-02  -5.720893e-02  -4.484178e-02  -9.240548e-02  -1.766113e-01  1.278840e-02  1.878715e-01  7.260788e-02  -1.021437e-01  8.499045e-02  2.801799e-02  -1.050774e-01  -1.254969e-02  1.347497e-01  2.713649e-01  -1.697307e-01  -7.991125e-02  5.029593e-02  3.982904e-02  1.493715e-01  6.031902e-02  1.392357e-01  -9.868549e-03  -7.459612e-02  -5.410409e-02  -5.466498e-02  7.636860e-02  -1.728886e-01  -4.196909e-03  -5.295841e-02  -1.042879e-01  -2.871363e-01  1.950733e-01  -8.015595e-02  2.648611e-02  -2.575349e-02  1.053455e-02  -4.936109e-02  1.548656e-01  1.455799e-03  4.669692e-02  8.556446e-02  -1.595768e-01  -1.405377e-01  -1.119559e-01  -6.337478e-02  1.675832e-01  -7.299553e-03  6.794537e-02  9.221123e-02  -9.083764e-02  -6.857773e-02  -9.726632e-02  -2.376488e-01  -1.109202e-01  -1.277306e-02  3.263007e-02  -1.054769e-01  -1.137517e-01  -1.535773e-01  -4.300421e-02  -1.297964e-01  -9.899311e-03  1.755383e-01  1.093986e-01  -2.355076e-01  -8.613294e-02  -1.259237e-02  -9.033255e-02  6.710088e-02  -9.997905e-02  -9.455393e-02  6.205614e-03  -1.231445e-01  -2.193878e-01  -1.716285e-01  8.391078e-03  1.414095e-01  5.668014e-02  -3.926080e-02  5.988669e-02  9.772640e-02  -5.854478e-02  -1.024714e-01  5.348071e-02  8.496551e-02  8.713987e-02  5.478366e-02  5.257967e-02  -1.214246e-02  -8.753531e-02  -2.156788e-01  -4.002124e-02  -7.670685e-02  1.457020e-01  -1.525753e-01  3.393836e-02  -2.396194e-02  3.333619e-03  -8.605874e-02  3.347360e-01  2.994783e-02  -1.455746e-01  -2.332669e-01  -8.520601e-02  -6.093984e-02  -1.763998e-01  7.556003e-02  1.366067e-01  -1.060001e-02  6.223341e-02  -3.560442e-01  5.869660e-02  -1.559665e-01  -6.169797e-02  -5.570476e-02  1.755524e-01  -2.903125e-02  3.153715e-02  -4.240947e-02  -1.555426e-01  5.714031e-02  6.743696e-02  2.981990e-01  4.722429e-02  -1.082813e-02  3.694250e-01  1.310962e-01  6.062474e-02  1.957379e-02  1.609478e-01  1.837156e-01  8.926961e-02  9.445922e-02  3.107006e-02  -1.886672e-01  1.767674e-01  -1.244693e-01  -1.017245e-01  -8.495233e-02  -1.629548e-01  9.325952e-02  -8.391456e-02  1.892246e-01  -5.956614e-02  -4.490196e-02  2.242689e-01  4.951823e-03  2.424322e-02  -1.767682e-04  -9.312405e-03  2.913487e-01  6.361575e-02  -1.815440e-02  -2.997766e-01  9.901024e-02  5.654617e-03  1.792485e-01  -1.466409e-02  3.429123e-02  7.428104e-02  1.334280e-01  7.521325e-02  1.915199e-01  7.447351e-02  4.929188e-02  -1.735908e-01  2.459486e-02  -2.469992e-02  1.298595e-01  2.843891e-03  -3.190310e-04  1.143592e-02  -2.911219e-02  -8.079313e-02  -4.193642e-02  4.473250e-02  -5.121366e-02  -7.239736e-02  1.791040e-01  -1.782420e-01  3.011872e-01  8.949874e-02  -9.949189e-02  -9.979299e-02  -1.610112e-01  1.126110e-02  -2.260431e-02  1.472855e-01  1.162549e-01  3.728344e-02  2.200942e-02  -6.007120e-02  5.537795e-02  1.135508e-01  -2.281495e-01  1.847926e-01  1.115551e-02  3.178140e-02  1.234285e-01  -3.753764e-01  4.822611e-02  -3.983792e-02  9.718305e-02  -1.236010e-01  -1.709901e-01  -2.375823e-01  -1.405712e-01  -1.027991e-01  -4.884186e-02  8.055572e-02  2.947515e-02  -1.138894e-02  -1.226204e-01  1.268988e-01  1.410366e-01  -4.868576e-02  1.052098e-01  4.329194e-01  1.574450e-01  -1.789713e-01  1.026270e-02  1.143879e-01  4.619705e-02  1.648773e-02  2.438546e-01  -1.371145e-01  6.649695e-02  -2.197569e-02  -1.684961e-01  2.356362e-02  -1.558736e-01  7.198044e-03  9.974426e-02  1.548892e-01  8.418133e-03  -3.042519e-02  -1.444020e-01  6.229019e-02  3.070966e-01  2.462551e-01  -2.081617e-01  -3.195792e-02  -2.578059e-03  2.779572e-01  7.867979e-02  -1.183373e-01  1.364785e-02  9.537133e-02  -1.863697e-01  -1.226873e-01  -2.382758e-01  -9.360223e-02  6.297383e-02  1.300751e-01  -4.653338e-02  6.648772e-03  1.440748e-03  -6.408868e-02  1.301710e-01  -9.343529e-02  6.691243e-02  -1.067377e-01  6.485304e-02  8.340058e-02  1.528901e-02  5.394291e-02  -1.348317e-01  -6.042427e-02  -6.414506e-02  1.097389e-01  -9.961606e-02  -5.082655e-02  -3.265940e-02  -6.976531e-02  -1.215757e-01  1.278335e-02  -1.253700e-01  -6.685769e-02  -9.142468e-02  -4.055609e-02  -3.924350e-02  1.086215e-01  1.284007e-01  -3.349250e-02  -1.693870e-01  2.913618e-02  -2.498602e-01  -3.002864e-02  1.430397e-02  1.230326e-01  8.991273e-02  1.489443e-01  -1.428518e-01  1.862821e-01  3.647507e-02  -1.593682e-03  -1.820211e-02  2.231741e-01  1.805111e-02  1.018641e-02  -5.542822e-02  8.089688e-02  1.303640e-01  -1.357752e-03  9.788218e-02  -8.740677e-02  -3.808454e-02  1.405878e-02  -2.030684e-02  -1.443103e-01  -1.305241e-01  -1.959400e-02  -6.701055e-02  -7.316823e-02  -7.677236e-02  -4.125675e-02  -2.390627e-01  -1.578102e-01  4.352886e-02  2.154713e-02  -9.419849e-02  3.731782e-02  6.286129e-02  -2.960241e-03  -6.540579e-02  -1.105466e-02  6.840804e-02  1.836431e-01  -1.241554e-01  8.500019e-02  4.883565e-02  2.202442e-02  6.461364e-02  -1.251878e-01  8.937649e-02  1.492006e-01  -6.656436e-02  -1.549162e-01  -1.146815e-01  -4.045758e-02  -1.004441e-02  1.003614e-01  5.127438e-02  1.115720e-01  9.170303e-02  1.008757e-02  4.240711e-02  -1.563311e-01  -1.670207e-02  4.564824e-02  -2.153151e-01  -9.390420e-02  1.984355e-01  8.389946e-02  1.924386e-01  1.597457e-01  5.051695e-02  1.033066e-01  1.111950e-01  3.092272e-02  -1.579165e-03  -7.208860e-02  -1.043339e-01  -1.379014e-02  9.055834e-02  -4.074813e-04  4.555929e-03  -1.909738e-01  6.376506e-02  3.828238e-02  7.159436e-03  3.968035e-02  -3.399037e-02  -1.345222e-01  -2.569796e-02  1.537089e-02  3.429733e-02  -1.179187e-01  1.598151e-01  -3.328277e-02  -1.136670e-01  -6.028637e-02  -5.030813e-02  2.959578e-02  2.901571e-02  -7.073138e-02  -1.626394e-01  2.537970e-01  -9.200682e-02  -4.670843e-02  1.119918e-01  2.377390e-02  1.007991e-01  -6.210687e-02  9.801794e-03  9.510986e-02  -1.213077e-01  1.699722e-01  -1.265689e-01  -5.786606e-02  9.128345e-02  -6.787127e-02  1.420515e-01  -1.908075e-02  4.267727e-03  1.049636e-01  -7.956953e-02  -2.642918e-02  1.035808e-01  -2.051002e-01  -2.144381e-01  1.548477e-01  -1.085843e-01  1.605541e-02  2.804409e-01  -5.105636e-02  2.692282e-02  5.986160e-02  -1.808208e-01  1.106394e-01  1.034336e-01  -3.515861e-02  -1.196280e-01  4.322386e-03  4.169842e-02  6.285547e-02  1.120536e-01  -3.933977e-02  9.893917e-02  5.204517e-02  7.519827e-02  7.027246e-02  1.210345e-01  1.030813e-01  2.166692e-02  -1.665414e-03  1.904463e-01  -4.198616e-02  -1.810239e-01  5.632376e-02  1.339978e-01  2.591666e-02  -4.572105e-02  5.902490e-02  -7.689522e-02  4.593609e-02  1.635751e-01  -8.262876e-02  1.310950e-02  1.197368e-01  5.992651e-02  -1.767789e-01  9.738496e-03  -1.413499e-01  -7.986375e-02  -1.459084e-01  -1.317524e-02  -1.334966e-01  -6.018339e-02  -2.038847e-02  5.443077e-02  1.073377e-01  -2.982859e-02  -7.836898e-02  4.746338e-02  5.260029e-03  1.299277e-01  -1.036627e-01  -1.085814e-01  -1.257549e-01  3.173605e-02  2.115892e-02  -3.226941e-02  -4.710443e-02  -2.447320e-01  8.362319e-02  -4.093001e-02  -1.036212e-01  1.071254e-01  7.405845e-02  9.497494e-02  -1.108330e-01  7.322012e-02  -1.622661e-01  1.917602e-01  -5.130788e-02  5.416515e-02  6.902989e-02  2.449901e-01  3.617828e-02  1.979175e-02  4.018805e-02  -8.404200e-02  -8.510234e-02  2.339899e-01  -2.905969e-02  7.545011e-02  1.457841e-01  -3.712369e-02  3.330011e-01  -4.286110e-02  6.178700e-02  8.072925e-02  3.725626e-02  4.650959e-02  1.743827e-02  2.545726e-03  1.293588e-01  8.022258e-02  3.287653e-01  -9.735181e-02  -1.361825e-01  1.239307e-01  1.457719e-01  3.864815e-02  -5.263069e-02  1.894757e-02  3.323602e-02  9.670234e-02  2.296532e-01  -1.902061e-01  5.203612e-02  1.003197e-01  -4.494895e-02  1.296704e-01  -9.308694e-02  1.232821e-01  -5.964572e-02  -9.806035e-02  2.201908e-01  -6.907535e-02  -3.365746e-02  -1.210069e-01  9.708811e-02  2.750559e-01  -4.179301e-02  1.410143e-02  -3.346584e-01  2.559497e-02  -1.172585e-01  -1.097026e-01  1.102592e-01  1.817730e-01  -1.367515e-01  7.167164e-02  2.173386e-02  3.016639e-02  5.460441e-02  1.216569e-01  -4.550070e-02  4.533413e-02  -2.923557e-02  7.464066e-02  -4.666887e-02  4.085843e-02  -1.071193e-01  -1.315398e-01  -1.059082e-01  1.338020e-01  1.422202e-02  3.279523e-02  1.246013e-01  2.456789e-01  1.677687e-02  2.747410e-01  2.976089e-01  -1.271602e-01  -1.300874e-01  -7.510764e-02  -1.737297e-03  1.080499e-01  -1.629867e-02  3.291351e-01  -9.460551e-02  -1.309313e-02  1.013443e-01  2.730373e-01  -3.162846e-02  -1.181737e-01  1.261497e-01  3.555472e-02  -1.795064e-02  -2.173930e-01  -3.104994e-01  2.591745e-01  3.475630e-02  6.766320e-02  2.124637e-02  -2.285003e-01  1.386339e-02  -2.275725e-02  2.796484e-02  -1.240283e-01  3.189919e-03  1.474762e-01  1.664639e-01  -1.758977e-01  7.576873e-02  8.856940e-02  6.256454e-02  1.021115e-01  1.469248e-01  -2.903118e-02  -1.008725e-01  9.934826e-02  4.667692e-02  -5.541446e-02  -4.092728e-03  -9.099329e-02  7.250418e-03  2.417404e-02  -1.678174e-01  -1.510632e-01  -7.564809e-02  -1.369779e-01  1.661829e-01  8.234247e-02  1.682590e-01  4.087217e-02  5.678319e-02  -7.404636e-02  -3.777926e-02  3.155944e-01  1.576472e-02  -2.262003e-01  -2.108786e-02  -8.176013e-02  1.343873e-01  1.301002e-01  -1.265491e-01  -4.174149e-02  6.808620e-02  5.650597e-02  -1.106529e-01  -1.270334e-01  -9.530664e-02  -1.472163e-01  1.118837e-01  -4.757528e-02  -3.251785e-02  1.855565e-01  5.044035e-02  -6.400413e-03  8.771655e-02  9.660115e-03  7.869828e-02  -8.175924e-02  1.249276e-01  -1.237150e-02  3.933384e-02  1.138240e-02  1.821766e-01  2.517255e-01  8.248745e-02  7.427025e-02  1.111971e-01  -4.729849e-02  2.052684e-01  -4.638514e-02  -3.421026e-02  -5.792083e-02  -1.299756e-02  1.179238e-01  3.405452e-02  4.396250e-03  -1.334988e-01  -2.652761e-02  1.221282e-01  1.089369e-01  4.964288e-02  2.385849e-01  9.102982e-02  2.649268e-02  9.837420e-02  3.717240e-02  4.815170e-02  -4.117475e-02  -9.451044e-02  1.663436e-02  -6.147864e-02  -1.199921e-02  1.725421e-01  -1.296323e-01  -8.292510e-02  -1.290757e-02  -1.519749e-01  -1.334868e-01  1.036459e-01  9.459963e-02  1.368955e-02  3.184839e-02  -1.417151e-01  3.719694e-01  1.382811e-01  -8.035910e-03  -1.655668e-01  -1.095073e-01  2.117662e-01  9.320287e-02  5.426351e-02  1.426827e-01  1.737305e-01  -1.614478e-01  -5.611894e-02  2.224393e-01  -7.431857e-03  -2.369037e-01  -5.660455e-02  3.609398e-02  -4.604928e-02  -1.638163e-01  -3.571895e-02  9.851496e-02  -6.311575e-02  7.990112e-02  -3.686571e-02  -6.683606e-02  -1.377671e-01  -1.330874e-01  1.370880e-01  -5.735546e-02  8.930387e-02  6.949119e-02  5.174010e-03  -3.504418e-02  -1.165958e-01  5.826901e-02  -2.065356e-02  3.897000e-03  2.524373e-01  9.691551e-02  2.658482e-02  4.212701e-02  4.077571e-02  9.705041e-02  7.240178e-03  -6.187172e-02  -9.630019e-02  -5.115225e-04  -3.407305e-03  -6.083860e-02  1.558673e-02  1.417573e-02  1.391891e-01  1.005855e-01  2.150885e-01  -3.623436e-02  -5.025527e-02  1.558074e-01  -4.230187e-02  2.201552e-01  6.360757e-03  4.021414e-02  -1.398680e-01  -2.136504e-01  2.188497e-01  -6.449156e-02  1.987924e-02  -8.003739e-02  -4.547030e-02  -1.242989e-01  -2.002379e-01  -3.064386e-01  -6.584972e-02  -1.204944e-02  9.444248e-03  1.010857e-01  1.693922e-02  5.224603e-02  -1.270119e-01  1.129053e-01  -1.172065e-01  -3.083193e-02  4.610704e-02  1.836172e-01  -8.730441e-02  -2.600360e-01  5.925052e-02  6.245154e-03  1.151570e-02  9.955320e-03  1.961174e-01  -1.367328e-01  1.253049e-01  -1.322112e-01  -3.133821e-02  1.062328e-01  1.068105e-01  -1.258745e-01  3.202828e-02  6.880805e-02  -7.016580e-02  -9.852435e-02  6.157291e-02  -1.209744e-01  -6.570900e-02  -1.350725e-01  5.245946e-02  3.386551e-02  1.503934e-01  9.734756e-02  4.076621e-02  -7.096870e-02  -1.637140e-01  5.983984e-02  -1.067573e-01  1.538993e-01  1.182494e-01  -1.213147e-01  -5.598332e-02  -3.705990e-02  -1.133635e-02  -1.074326e-01  1.031671e-01  1.114524e-01  -7.939339e-02  1.543092e-01  -1.242925e-01  -3.656760e-02  -7.181826e-02  4.540972e-02  1.150100e-01  -4.276751e-02  -1.405588e-01  -3.972447e-02  -1.548838e-02  -3.781383e-03  1.765520e-01  4.246707e-02  -7.133719e-02  -8.214953e-02  -6.539921e-02  6.229908e-02  -7.822564e-02  1.878464e-01  6.930795e-02  -2.162495e-03  1.685892e-01  -1.612111e-01  7.847006e-02  1.352016e-01  -1.012266e-01  -6.340900e-02  -3.196755e-02  1.168235e-01  5.978562e-02  -1.248738e-01  -1.016648e-01  5.006038e-02  -8.905798e-02  -1.836855e-01  -1.434903e-02  -4.899098e-02  1.925502e-01  1.582168e-01  -9.620589e-03  8.366428e-02  1.655072e-01  1.330501e-01  -1.521865e-01  -1.043695e-01  2.476317e-02  -1.863488e-01  1.130927e-01  1.025107e-01  1.382769e-01  1.105090e-01  1.900490e-01  -1.108656e-01  -5.762498e-02  -5.234198e-02  2.537101e-02  -3.381431e-02  1.504020e-02  -9.007473e-02  2.631227e-01  -1.009273e-01  -1.762376e-01  7.690256e-02  -1.487284e-01  -1.817898e-01  -1.709478e-02  -1.236020e-01  -8.195166e-03  -5.643791e-02  -1.288415e-01  -1.045635e-01  -5.500486e-02  1.148258e-01  6.091939e-02  -1.067778e-02  3.122222e-02  3.169105e-02  3.643252e-01  4.248762e-02  7.248205e-02  1.383289e-01  -6.468489e-02  -7.218125e-02  1.497610e-02  -4.027327e-02  1.196521e-01  -2.044723e-01  7.093304e-02  -1.325878e-01  -1.917962e-01  -4.560640e-02  -9.735245e-02  1.077314e-01  4.144174e-02  2.023448e-01  1.028900e-01  -5.227146e-02  3.141891e-02  -1.290585e-01  1.106606e-01  1.470770e-01  5.639676e-02  1.907478e-01  1.029483e-01  1.678340e-01  -1.655934e-01  1.423196e-01  -1.399220e-01  1.581576e-01  -7.984760e-02  -1.852876e-02  -1.031401e-01  -4.850927e-02  -2.114522e-02  7.344822e-02  -4.636568e-02  1.421127e-01  -2.989126e-01  1.346989e-01  6.624800e-02  -1.079315e-01  -6.796308e-02  1.466447e-01  6.362964e-02  -2.782542e-01  -1.404245e-01  6.193802e-02  5.454428e-02  1.583621e-01  5.613630e-02  1.780055e-01  -2.846585e-01  2.052780e-01  1.851166e-01  -1.754729e-01  -1.527335e-01  -5.920525e-03  -6.860006e-02  -4.483020e-02  1.495755e-01  3.073879e-01  6.215179e-02  -1.226924e-01  7.340658e-02  1.348200e-01  -9.802184e-02  -1.599716e-01  2.870579e-02  -5.729768e-02  1.812356e-01  5.768660e-02  -1.027019e-01  3.247255e-01  -1.013124e-01  1.094376e-01  -1.068269e-01  -1.704927e-01  -3.817942e-02  -9.403141e-02  1.244277e-01  1.253696e-03  2.322923e-01  1.713466e-01  -1.375633e-02  4.089186e-02  -5.000015e-02  -1.532051e-02  -5.261371e-02  -1.255410e-01  3.366669e-01  -1.887595e-02  1.275935e-02  6.134219e-03  8.714573e-02  1.400457e-01  8.559727e-02  1.257697e-01  6.214778e-03  -6.635063e-02  -2.649181e-01  -7.296931e-02  -2.892907e-02  -1.038706e-01  3.841726e-02  6.267171e-02  1.070061e-01  -2.746728e-02  -1.730078e-01  -1.219428e-01  2.709342e-02  3.397167e-01  1.664194e-01  -2.475544e-01  -1.456046e-01  -2.235714e-01  2.357821e-01  1.341862e-01  -1.000514e-01  -4.283316e-02  -8.527882e-02  4.381939e-02  -1.639028e-01  -2.192992e-01  -1.034152e-01  1.832738e-01  2.937571e-01  9.380045e-02  -4.758959e-02  1.802355e-01  1.568639e-01  8.700228e-02  5.854994e-02  4.807169e-02  1.113263e-01  -1.098232e-01  2.152252e-02  -1.347159e-01  2.321080e-02  6.418927e-02  -1.956401e-02  4.140765e-02  -1.358056e-01  3.356224e-01  -4.938809e-02  1.215494e-01  2.004640e-01  -2.449187e-01  -3.697453e-02  1.887665e-01  8.762971e-02  3.840782e-01  3.685664e-02  1.933067e-02  -4.598979e-01  6.000814e-02  -6.283128e-02  1.011737e-01  -4.846850e-02  4.348828e-03  -1.033026e-01  1.475748e-03  3.347592e-02  1.289487e-01  -1.106530e-01  2.517890e-01  -7.533607e-02  6.364703e-02  -2.000236e-01  -2.996800e-03  -1.510429e-01  -2.799008e-03  1.260705e-01  -3.361625e-01  5.040907e-02  1.491639e-01  -3.953993e-02  1.337588e-01  -7.020158e-02  2.088730e-01  -7.730260e-02  2.123825e-01  1.252366e-03  -2.665487e-01  3.620977e-02  -1.021377e-01  8.116357e-02  9.282570e-02  2.839784e-01  1.070193e-01  1.988352e-01  -1.167253e-01  1.066403e-01  2.289564e-01  -5.519695e-02  -2.251215e-01  1.843117e-01  -8.348303e-02  -1.291656e-02  -1.826174e-01  -1.019576e-01  2.935780e-01  -1.041856e-01  2.017068e-01  -1.263673e-01  6.479741e-02  1.352223e-02  -1.557692e-01  5.973331e-02  -1.637759e-01  2.379564e-01  -9.426249e-02  2.324799e-02  -3.217822e-02  1.051976e-01  -1.691308e-02  -1.018693e-01  -1.290420e-01  2.538067e-01  7.848811e-02  1.256461e-01  -1.630347e-02  -6.720866e-02  -2.833501e-02  -5.769155e-02  -1.334299e-01  -8.384215e-02  9.789884e-02  -1.164968e-01  8.843998e-02  -4.477726e-02  -1.552620e-01  -7.834437e-02  3.617256e-02  -9.555276e-03  4.849962e-02  -1.308428e-01  4.875457e-02  5.287642e-02  2.439277e-01  -3.326631e-02  -5.165987e-02  -5.339298e-02  5.550151e-02  1.253033e-01  1.144967e-01  4.950289e-02  1.019156e-01  -1.049708e-01  -5.235799e-02  -1.634652e-01  -1.264646e-01  3.892082e-02  9.459669e-02  -2.507921e-01  -1.405731e-01  1.373776e-02  -3.053603e-01  -2.087927e-01  -2.838865e-02  -2.020691e-01  7.348774e-03  -9.330592e-02  1.446052e-01  -3.308432e-02  2.313529e-01  2.477923e-01  1.159325e-01  -1.529417e-01  9.525909e-02  2.276399e-01  -1.468064e-01  1.073564e-01  1.021774e-02  -1.867383e-01  2.175350e-01  -6.497304e-02  -1.760162e-02  -6.732497e-02  -1.502671e-01  1.496433e-01  -2.051969e-01  1.926558e-01  -9.463566e-02  -2.784951e-02  -1.324196e-01  -6.817242e-02  -2.439458e-01  7.476900e-03  -5.996625e-02  1.109525e-01  -2.949524e-02  -6.369527e-02  -1.473714e-02  1.838429e-01  1.681470e-01  4.285087e-02  -1.377088e-01  -6.211981e-02  -8.689026e-03  5.230017e-02  4.763157e-02  5.660675e-02  -8.551848e-02  -1.378362e-01  -1.437008e-01  2.410339e-02  -1.275736e-01  3.409749e-02  -3.390131e-01  -1.233280e-01  1.515656e-01  7.463478e-02  1.038756e-02  -1.361496e-01  -1.682128e-02  -8.908187e-02  -1.259044e-01  -8.870502e-02  -5.446322e-02  -4.690753e-02  -2.030053e-01  -1.055250e-01  3.085455e-01  -6.215910e-02  1.138989e-01  -1.088701e-01  1.214464e-01  6.766818e-02  -2.613642e-01  -1.183128e-02  -1.359097e-03  6.859181e-03  6.239710e-02  7.699329e-02  1.398341e-01  7.966620e-02  1.048894e-01  -1.937940e-01  -6.367203e-02  -8.032472e-02  -2.232972e-02  -1.202161e-01  1.108671e-01  -7.973049e-03  7.266272e-02  -3.547644e-01  -6.218997e-02  -6.057157e-03  4.288168e-02  -6.411289e-02  -4.648575e-02  9.535700e-02  3.137191e-03  -2.294245e-02  3.171851e-02  1.194893e-01  -1.186439e-01  -2.381652e-01  8.000490e-02  -1.329313e-01  -7.903977e-02  -1.875298e-01  5.923839e-02  7.033554e-02  5.346394e-02  9.594197e-02  -1.532539e-01  -5.191111e-02  7.007777e-02  2.209463e-02  9.237374e-02  -2.173650e-01  -8.654813e-02  9.190696e-02  -7.266196e-02  -8.891083e-02  1.486187e-01  1.706827e-01  3.293212e-01  -1.515904e-01  6.937147e-02  -2.075178e-01  3.543223e-02  1.355137e-01  -1.884684e-01  4.883299e-02  5.376976e-02  -1.814149e-01  8.289943e-02  3.862149e-02  -5.925618e-02  -1.527175e-01  -1.027560e-03  1.301856e-01  -5.473378e-02  3.896656e-02  -4.591400e-02  9.550517e-02  -3.989168e-02  -9.576733e-02  -5.151715e-02  -1.664921e-01  1.405204e-01  2.273843e-02  1.331088e-01  -1.230055e-01  -2.477657e-01  -5.043104e-02  2.978338e-02  1.977821e-01  2.235185e-02  -2.190628e-03  6.288953e-02  1.005477e-01  -1.021766e-01  2.000030e-01  -6.062584e-02  1.308907e-01  9.261930e-02  8.609950e-02  -2.183991e-01  2.610406e-01  3.831011e-02  1.363472e-01  2.857662e-02  7.602844e-02  -5.313548e-02  5.131987e-02  7.220408e-02  -3.391141e-02  -1.040735e-01  4.441748e-02  8.376572e-02  -5.745146e-02  -1.749679e-01  1.137255e-01  -2.378588e-01  -2.292993e-01  1.378098e-01  2.439664e-02  -1.155698e-01  -7.358032e-03  -1.468742e-01  -1.778704e-01  -3.938143e-01  -1.015365e-02  3.640803e-02  -1.277092e-01  -1.428623e-01  -1.195892e-01  1.813980e-01  -2.106109e-02  9.504337e-02  2.656346e-02  3.684240e-02  2.589224e-01  -2.552364e-01  9.485452e-02  -4.136577e-02  -1.458165e-01  2.610380e-01  1.301140e-01  -3.046277e-02  -1.687078e-01  1.931516e-01  -2.825308e-02  -1.980272e-01  -1.788488e-02  -1.477744e-01  -5.483193e-02  1.953010e-01  -1.407735e-01  -4.366370e-02  -7.033490e-02  -1.033861e-01  5.916754e-02  -6.054810e-02  -8.479697e-03  -8.775958e-02  -6.005092e-02  -5.995880e-02  8.639564e-02  7.674680e-02  6.206959e-02  1.232735e-01  -4.812076e-02  -4.049012e-02  -9.132991e-03  -1.970701e-01  -8.809444e-02  2.778530e-02  1.036686e-01  7.288134e-02  -3.356845e-02  -2.219508e-01  -1.231791e-01  9.907595e-02  7.071580e-02  1.426239e-01  -3.973405e-01  -4.973776e-02  1.055072e-01  4.987029e-02  -1.170768e-01  -2.008710e-02  1.370924e-01  3.189334e-01  2.148923e-03  -4.379968e-02  3.023739e-01  -2.956131e-02  -1.270158e-02  1.964645e-01  -8.564795e-02  2.165274e-01  5.202900e-02  6.988747e-02  6.938823e-02  -9.778714e-02  1.349322e-01  -2.424821e-01  -2.934169e-01  -8.636028e-02  5.154329e-02  6.387457e-03  -1.568150e-01  1.948456e-01  9.574458e-02  1.798651e-01  7.443722e-02  -1.187335e-01  1.401796e-02  1.697333e-01  -4.329461e-02  1.312128e-01  -1.325012e-02  1.279022e-01  -3.376037e-01  1.612541e-01  -1.249159e-01  -4.728644e-02  -1.007924e-01  -1.551628e-04  -1.810119e-01  -1.721644e-01  8.699819e-02  2.141558e-01  -1.064862e-01  2.240455e-01  -2.755195e-01  4.910614e-02  -1.875401e-01  -1.080764e-01  -9.361765e-02  1.315669e-01  1.729757e-02  -2.107311e-01  -2.690141e-02  1.408504e-01  -5.287689e-03  -2.822937e-02  3.796409e-02  -6.368324e-03  -1.521210e-01  2.839667e-01  2.241041e-01  -2.089521e-01  -2.591233e-01  -1.652836e-01  1.304415e-01  -3.372481e-02  5.102675e-02  3.293462e-01  2.159883e-01  -3.787583e-02  -1.826897e-01  3.013575e-01  2.065797e-03  -1.055736e-01  -6.723837e-02  -1.384300e-01  1.522126e-01  -1.232438e-01  -2.046668e-01  3.386656e-01  8.188313e-02  2.337774e-01  -4.079322e-02  -2.275637e-01  -9.402212e-02  1.534888e-03  5.514726e-02  5.382728e-03  5.836854e-02  1.870121e-01  7.156215e-02  -5.601914e-02  2.246246e-01  1.240020e-01  -9.014384e-02  5.985345e-02  3.159702e-01  2.465436e-01  -2.046019e-01  1.704793e-01  1.188823e-01  -9.481952e-02  1.311084e-01  -5.926220e-02  -1.493262e-01  -5.058838e-02  -1.232037e-01  6.846945e-02  6.573243e-02  -4.539660e-02  5.351720e-02  -8.792532e-02  8.138111e-02  2.092380e-02  4.485587e-03  -1.218104e-01  2.702185e-02  1.335849e-01  2.074376e-01  7.704975e-02  -7.935235e-02  -1.352316e-01  1.440934e-01  1.731879e-01  4.695791e-02  1.220104e-01  1.026293e-01  -7.848668e-02  -1.476008e-01  -3.384319e-01  -2.892249e-03  -1.330445e-01  1.285023e-01  1.369093e-01  1.677310e-01  6.943457e-02  4.209691e-02  -3.742485e-02  1.529693e-01  -5.305857e-02  -5.500958e-02  -1.578603e-01  8.700609e-02  4.219030e-02  -1.774908e-01  -9.027097e-02  -4.404651e-02  5.767174e-02  -1.105757e-01  4.252052e-02  2.162881e-02  6.512451e-02  1.879259e-01  -5.140391e-02  1.382372e-02  9.751652e-02  2.442877e-01  1.607986e-01  -5.815805e-02  -1.893093e-02  -3.494822e-01  -9.032376e-02  -5.811867e-02  7.246189e-02  8.401616e-02  2.303995e-02  -1.551365e-01  -1.835019e-01  -7.555507e-02  1.380777e-01  4.746834e-02  1.272047e-01  -1.854156e-01  9.014865e-02  -1.484387e-01  -5.312669e-02  1.821548e-01  1.500759e-01  1.565920e-01  -1.604199e-01  -3.332172e-02  -1.573788e-01  -1.921904e-02  -1.177954e-01  1.392001e-01  3.623300e-02  -1.596001e-01  1.486094e-01  4.512925e-02  -3.531171e-02  -1.532126e-01  -1.463014e-01  1.687379e-01  -4.761852e-02  1.227687e-02  1.723121e-01  8.444444e-03  1.545685e-01  -1.401310e-01  9.911970e-02  1.183653e-01  -2.947056e-01  1.911584e-01  -1.318374e-01  7.442657e-02  -6.436794e-02  -4.615290e-02  2.450580e-01  5.321484e-02  9.843437e-03  1.501754e-01  -2.365227e-01  -5.658466e-02  -7.234815e-02  6.338652e-02  -6.748429e-02  1.172154e-01  1.200873e-01  1.116344e-01  1.400474e-01  2.392422e-02  5.493797e-02  -1.466812e-01  -5.713455e-02  4.136736e-01  1.461389e-01  -1.081465e-01  2.661218e-02  -5.597838e-02  -6.691659e-02  2.170828e-02  2.221535e-02  7.504366e-02  6.137262e-02  -1.421125e-01  -5.890189e-02  1.432642e-01  9.796388e-02  1.191887e-01  1.571346e-01  -2.492036e-02  3.795528e-02  -4.759272e-02  3.668262e-02  9.759168e-02  3.139848e-01  -2.851103e-02  -7.168631e-02  -5.671830e-02  -7.598409e-02  2.405627e-01  6.161357e-02  5.384592e-02  -4.635940e-02  -8.636452e-02  -1.337407e-01  -8.547818e-02  -2.695989e-01  -6.716166e-03  9.707387e-02  2.058382e-01  -1.483640e-01  -6.877406e-02  1.569766e-01  3.924989e-02  1.130102e-01  2.134655e-01  -1.040907e-01  8.567348e-02  -1.525018e-01  6.676696e-02  4.509185e-02  4.486496e-02  4.026267e-02  -1.402944e-01  -1.117862e-01  -1.081670e-01  -9.539348e-03  7.747520e-03  9.387694e-02  -2.879073e-02  -7.127559e-02  2.030369e-01  -6.854217e-02  1.469728e-01  1.242474e-01  -3.227990e-02  -1.121536e-01  -8.308746e-02  -6.033747e-02  -5.910908e-02  1.387223e-01  -5.227630e-02  2.069176e-01  -7.284908e-04  -7.982898e-02  2.561071e-02  1.145687e-01  -7.306485e-02  2.012164e-02  -2.395985e-01  3.528101e-02  -5.846947e-02  -6.840288e-02  8.538289e-02  -2.502036e-03  6.875514e-02  -3.783296e-02  3.024836e-02  1.256505e-01  1.012910e-01  -4.962417e-02  5.667684e-02  2.627405e-01  -2.019159e-01  2.378917e-01  8.250588e-02  -2.918227e-02  -1.716208e-01  1.231138e-01  1.580958e-02  6.643818e-02  -6.729076e-02  4.323843e-01  1.711703e-01  -2.618268e-02  -7.268476e-02  1.293700e-01  -1.118856e-01  -1.487363e-01  -5.765450e-02  -2.448340e-02  6.594110e-02  -1.815366e-01  -2.084738e-01  2.110720e-01  -2.471287e-02  9.975573e-02  -7.727844e-02  -1.275116e-01  -1.165089e-02  5.854028e-02  -3.787490e-02  1.778902e-03  4.989026e-02  1.297099e-02  1.435653e-01  -9.146711e-02  1.624782e-01  6.743467e-02  -1.931139e-01  -2.817095e-02  3.184032e-01  9.348027e-02  3.126329e-02  -1.025122e-01  -1.166273e-01  3.677715e-02  -8.102114e-02  -6.951159e-02  -1.299933e-01  -7.584579e-03  -9.233899e-02  -2.878480e-02  1.310773e-01  3.163887e-02  2.520520e-02  1.763101e-01  1.311290e-01  -6.755306e-02  1.046922e-01  7.516772e-02  -1.538031e-01  2.877091e-01  2.025402e-01  2.527129e-02  1.482181e-01  -2.846680e-01  3.646994e-01  1.025357e-01  -5.686947e-05  1.247420e-01  4.091814e-03  4.826365e-02  -9.116711e-02  -3.529375e-01  1.328688e-01  -6.273728e-02  -1.196118e-02  -7.949137e-02  3.047380e-01  -1.686521e-01  -1.263543e-01  2.611796e-03  -8.443290e-04  -1.251155e-03  -1.133807e-01  7.819548e-02  -7.959969e-03  1.134939e-01  -3.948618e-02  -4.940326e-02  -5.143527e-02  1.598188e-01  8.987415e-02  -8.136816e-02  2.242083e-02  6.150171e-02  7.088990e-02  1.424707e-01  -7.927846e-02  3.710207e-02  -2.013592e-01  -1.102791e-01  3.754319e-02  3.533459e-02  1.984030e-01  5.944805e-02  1.016644e-01  -1.082293e-01  -3.719454e-02  -9.206991e-02  6.724881e-02  -1.964214e-02  -1.051117e-01  6.173107e-02  4.920420e-02  -9.341077e-02  3.091815e-03  5.604318e-02  1.350792e-02  -7.279127e-02  -1.170435e-01  -4.294780e-02  9.964367e-02  2.732264e-02  -9.600669e-02  6.638864e-02  -1.509763e-01  6.878528e-02  6.891369e-02  -1.909290e-01  5.175150e-03  -1.287622e-01  -4.778890e-02  1.271787e-01  -2.520970e-03  -4.511619e-02  -2.300282e-01  2.697350e-02  9.608560e-04  -1.830747e-01  2.274147e-02  -7.735959e-02  -7.807791e-02  -1.909002e-01  1.221223e-01  2.296903e-02  1.917163e-02  9.997050e-02  -7.073212e-02  1.184082e-01  1.601528e-03  -1.909831e-01  -9.192532e-02  -1.492682e-01  9.081818e-02  5.491222e-02  -6.037312e-02  1.164774e-01  -6.315908e-02  -1.145735e-01  -2.862007e-01  6.469359e-02  4.442628e-02  7.251570e-02  -2.565249e-04  -1.366832e-01  1.527497e-02  7.861342e-02  -1.773010e-01  -1.048611e-01  8.342030e-03  -2.683917e-02  -8.785882e-02  -1.518418e-01  -1.319490e-01  3.879432e-02  -4.512509e-02  -1.213269e-01  2.005731e-01  -4.901712e-02  -1.361708e-01  7.917752e-02  -5.944493e-02  1.286935e-01  2.245632e-02  -9.390476e-02  -1.256589e-02  1.218685e-01  1.567061e-01  1.996290e-02  -2.272477e-02  1.610433e-01  2.028689e-01  6.994592e-02  -1.569189e-01  -3.521109e-02  2.535037e-01  1.160378e-01  -7.363747e-02  5.720382e-02  5.380044e-02  1.765096e-01  4.918967e-02  5.112708e-02  1.349438e-02  -6.936464e-02  -1.376790e-01  6.004560e-02  -1.394837e-02  5.100621e-03  -6.409967e-02  -1.202540e-01  -2.937862e-02  -2.646478e-02  -1.655979e-02  -1.231276e-01  -1.490622e-01  -2.349565e-01  2.896062e-02  8.165742e-02  2.042230e-01  -3.513909e-02  1.212515e-01  -2.870367e-02  1.433071e-01  1.260458e-02  -1.183228e-01  1.500575e-01  -3.823955e-02  -6.296754e-02  1.468544e-01  -2.339544e-02  -2.704269e-02  -7.539090e-02  -7.885104e-02  1.025555e-01  1.172312e-01  -3.263431e-02  4.106818e-02  1.906823e-01  2.339154e-02  5.751395e-02  -2.293502e-02  9.497025e-02  1.109319e-01  1.051430e-01  6.748127e-02  -1.360197e-02  6.834383e-02  -2.044407e-01  4.371116e-02  -1.241785e-01  -1.789639e-01  -5.424407e-02  1.098594e-01  1.031934e-01  3.213067e-03  2.061078e-02  -1.273864e-01  -8.383961e-02  -8.265724e-03  -4.047069e-02  -3.025167e-03  -2.012413e-01  -1.055664e-01  1.834593e-01  -1.116184e-01  2.821882e-01  6.745044e-02  6.973785e-02  1.118448e-01  2.029171e-02  1.722656e-01  1.513784e-01  1.230568e-01  -7.605428e-03  1.383593e-01  3.915630e-02  7.889111e-02  -1.066682e-01  1.315125e-01  8.658008e-02  -1.254423e-01  -1.592667e-01  -3.509970e-02  1.370409e-01  -4.872892e-03  6.009559e-02  -1.095730e-01  -8.917921e-02  1.514768e-01  -6.735679e-03  -5.328600e-02  3.472583e-02  6.104023e-02  -1.456773e-01  -2.289423e-01  1.823958e-01  8.258384e-02  4.536135e-02  -9.672291e-02  -1.752997e-01  7.778316e-02  2.704219e-01  -3.343149e-02  1.967114e-01  1.505842e-01  5.252862e-02  -1.118999e-01  -7.394868e-02  -3.298922e-02  1.197592e-01  1.177243e-01  -1.615937e-01  8.557951e-02  5.157494e-02  1.376117e-01  7.244805e-02  -5.341562e-02  7.971545e-02  1.207905e-01  3.584654e-03  3.421159e-02  -6.868241e-02  -9.295097e-02  -9.184615e-02  1.819663e-01  7.800995e-02  -9.245272e-02  -1.536108e-03  8.258510e-02  1.301910e-01  1.483663e-01  4.376770e-02  -1.167164e-01  1.938414e-01  -2.054556e-02  2.965768e-02  2.202997e-01  -3.426526e-02  3.025972e-02  -1.264640e-01  1.856060e-01  3.675646e-03  -4.597155e-03  6.191854e-02  6.693684e-02  6.815002e-02  -1.247273e-01  2.553030e-01  3.620014e-02  2.471404e-02  1.188595e-02  -2.087141e-01  -7.839481e-03  -1.683090e-02  2.253760e-01  2.298202e-01  7.900747e-02  1.099971e-02  -3.399534e-01  -1.663718e-02  1.041537e-01  -1.293483e-02  8.772513e-02  1.139340e-01  -4.262190e-02  -8.058178e-02  -7.543264e-02  1.397659e-01  1.856428e-01  2.262951e-01  -2.175400e-01  1.018074e-01  8.118492e-02  1.171116e-01  8.795003e-03  2.816162e-02  -1.508828e-02  -1.955541e-02  -8.472983e-03  -9.516958e-02  3.902775e-02  1.087270e-01  -6.943090e-02  6.332204e-02  -4.541536e-02  1.988435e-01  -2.253462e-02  3.177942e-02  -4.222474e-02  -1.002691e-01  -4.280840e-02  4.671139e-02  1.473687e-01  2.108642e-01  2.663287e-02  4.454587e-02  1.291541e-01  4.458764e-02  -7.460450e-02  -2.315485e-01  1.435540e-01  -1.041938e-01  1.465562e-01  1.086458e-02  -1.095514e-01  8.558548e-02  -4.260422e-02  9.713146e-02  3.479324e-02  -2.162296e-01  7.200173e-02  3.355043e-02  -4.615223e-02  -2.168231e-01  2.690083e-01  1.367863e-01  -9.411145e-02  -8.858477e-02  -2.500091e-02  -7.186020e-02  -2.191585e-02  1.672139e-02  3.032736e-01  1.252361e-01  1.046262e-01  1.768748e-01  -1.626448e-01  4.172442e-02  3.381335e-02  -6.631567e-02  1.807104e-01  1.603694e-01  -1.322834e-01  -9.877814e-02  1.752803e-01  4.032955e-02  7.160643e-02  1.464599e-01  -4.407887e-02  7.474688e-02  -2.591832e-02  5.882337e-02  1.297817e-01  3.170359e-01  -2.758962e-03  -1.997193e-01  -3.092660e-03  -9.047937e-02  1.463305e-01  1.533283e-01  -1.628508e-01  8.611108e-02  -1.690802e-01  -6.782728e-02  5.114907e-02  -1.299065e-01  7.045262e-02  1.048980e-01  -2.312878e-01  -4.648731e-03  6.467533e-02  -1.191030e-01  -1.254696e-01  -2.131679e-02  -1.105115e-01  1.301848e-01  -2.997530e-02  1.976709e-01  -1.242447e-01  2.093433e-01  1.266923e-01  2.102222e-02  -8.561069e-02  8.041251e-03  2.744968e-01  -2.035045e-01  1.130148e-01  7.065724e-02  -9.804785e-02  -1.505258e-02  9.510905e-02  -1.009387e-01  6.423232e-02  -6.711912e-02  -1.003544e-01  -1.694852e-01  4.018062e-01  -1.130233e-01  6.624125e-02  7.053781e-02  1.368995e-02  -1.815758e-01  -4.211104e-02  1.856949e-01  -6.040877e-02  -1.243486e-01  -1.694839e-01  -2.721397e-01  -3.371451e-02  -1.018631e-01  1.347024e-01  1.301976e-01  3.187395e-02  -9.535048e-02  -4.867025e-02  2.532709e-01  -1.427234e-01  5.752948e-02  -1.268673e-01  4.681194e-02  -3.141133e-02  -5.282759e-02  2.491182e-02  -1.772046e-01  -2.410121e-01  1.201803e-01  1.413446e-01  -8.930936e-02  5.021079e-02  -1.071713e-01  -9.343043e-02  -1.598845e-01  6.516325e-02  9.358294e-02  -8.695579e-02  -2.842217e-01  7.350770e-02  -2.754629e-02  6.564869e-02  1.378416e-01  -2.646918e-01  1.454802e-01  1.309196e-01  -1.065271e-01  6.975332e-02  -1.278358e-01  -6.383581e-02  1.000472e-01  -7.629789e-02  9.479672e-02  1.460403e-02  1.008259e-01  -1.904059e-01  -8.878932e-02  -1.716223e-02  8.028688e-02  -9.033947e-02  9.442027e-02  -1.103003e-01  1.305080e-01  -1.040562e-01  -7.578544e-02  -3.358414e-02  1.478119e-02  -5.641911e-02  5.412798e-02  1.486129e-01  5.983088e-02  9.064033e-02  -5.575699e-02  1.196463e-01  8.169970e-02  -2.300906e-01  1.887538e-02  -7.483073e-02  1.491441e-01  -2.179948e-01  1.278586e-01  4.905198e-03  -1.538572e-01  -2.111041e-01  -2.474206e-01  2.353235e-02  1.376701e-01  6.860404e-02  1.744141e-01  -4.845052e-02  6.317901e-02  1.889426e-01  -1.376964e-01  -1.957873e-01  8.993029e-02  4.974208e-02  3.881973e-01  1.240096e-01  -5.581189e-02  1.000260e-01  -5.243368e-02  -2.173738e-02  2.484713e-01  4.884968e-02  -7.390843e-02  9.880479e-02  -7.818399e-02  1.328052e-01  -1.722771e-01  1.933277e-01  -5.030718e-02  -1.320956e-01  -1.229278e-01  1.502657e-01  -3.913715e-02  -1.636773e-01  3.536841e-02  6.306592e-03  -1.102016e-02  4.663482e-02  -1.012799e-01  1.221065e-01  -7.316754e-02  -7.341765e-02  1.185698e-01  -1.624233e-02  -6.844542e-02  -2.667892e-01  1.272067e-01  -3.834985e-02  -3.296252e-02  9.717379e-02  1.133993e-01  -2.279473e-01  -1.391720e-01  6.614286e-04  1.452341e-01  1.899174e-01  1.725478e-01  -2.095823e-01  -7.414761e-02  -5.033516e-02  -1.917830e-02  -7.349820e-02  2.735286e-02  -5.205697e-03  -1.837556e-01  -1.053619e-02  2.869259e-02  1.447066e-01  7.425087e-02  9.976739e-02  2.669738e-01  -1.251006e-01  2.323524e-01  1.477320e-01  -8.068553e-02  -1.467284e-01  9.441406e-02  9.180808e-02  9.394116e-02  1.670994e-01  3.369187e-01  1.492627e-01  2.273306e-02  -1.497251e-01  4.074092e-02  -9.345015e-02  -7.650866e-02  7.478495e-02  9.284186e-02  2.232732e-01  -1.054912e-01  -5.507795e-02  2.278518e-01  9.652209e-02  -6.103502e-04  1.016412e-01  -8.492054e-02  -7.960057e-02  8.861123e-03  5.814040e-02  -1.680489e-01  2.515486e-01  1.583949e-01  1.772141e-02  5.715783e-02  7.689983e-02  -1.137071e-01  -1.565671e-02  3.659723e-03  2.036081e-01  1.301996e-02  -1.660481e-01  1.584373e-01  1.078079e-01  9.664653e-02  8.560219e-02  5.159128e-02  -9.001084e-02  -5.610213e-03  -2.199212e-01  -2.021526e-02  1.347287e-01  1.021529e-02  1.610411e-01  1.066286e-01  2.445264e-01  -7.293757e-02  -6.766325e-02  -3.440588e-02  -5.595955e-02  1.388562e-01  2.100095e-01  -1.068188e-01  -1.767898e-01  -8.769802e-02  1.191550e-01  1.206274e-02  -1.895437e-01  -7.359377e-02  -7.521783e-02  -1.318458e-01  1.726891e-02  -2.711691e-01  1.114566e-01  4.747378e-02  1.323193e-02  -6.031677e-03  -4.857156e-02  -2.148568e-02  5.784547e-02  -1.726032e-02  -7.426899e-02  9.541743e-02  -1.393461e-01  -2.756145e-02  6.126779e-02  7.044627e-02  7.278559e-02  2.477773e-02  1.280919e-02  -1.683812e-01  -1.304835e-03  9.320508e-02  -2.389673e-02  2.245715e-01  -5.768835e-03  -1.131280e-01  2.743612e-01  -8.811892e-02  2.492745e-01  -9.191408e-02  -1.403039e-01  2.849013e-03  6.365968e-03  1.420034e-02  -8.464449e-03  5.659776e-02  -1.661728e-01  -4.680061e-02  1.788599e-01  1.196027e-02  2.466614e-01  1.379831e-02  2.029153e-01  -4.817177e-02  2.298636e-02  2.039034e-02  5.042487e-02  -2.093435e-02  1.640000e-01  4.021727e-01  -2.966495e-02  2.141164e-01  7.283129e-02  -1.121889e-01  7.552852e-02  -1.013197e-01  -2.885004e-02  -8.675095e-02  -9.691466e-02  1.332132e-01  1.745314e-02  2.049525e-01  1.645681e-01  4.058271e-02  1.121298e-01  -2.855988e-01  5.873797e-03  -1.147192e-02  1.545548e-01  8.353386e-03  1.494235e-01  -2.238150e-02  4.811232e-02  -2.339578e-01  -2.417638e-02  -9.845880e-02  4.291393e-02  -1.997948e-01  -4.566155e-02  4.510674e-02  1.719413e-01  -4.283292e-02  1.425922e-01  8.989444e-02  2.876022e-02  5.064147e-02  8.665088e-02  1.428450e-01  5.822095e-02  -4.827641e-03  7.111575e-02  7.076572e-02  3.683306e-04  -7.317387e-02  -5.244850e-02  7.090305e-03  1.833751e-01  -1.116173e-01  1.328183e-02  3.075628e-02  1.093003e-01  1.248004e-01  -7.531890e-02  -3.331219e-01  7.691419e-02  -2.549231e-01  -3.016233e-01  2.012242e-01  1.520473e-01  2.044559e-01  3.785883e-01  -2.591619e-01  1.609069e-02  1.954104e-01  -2.204860e-01  -9.698966e-02  -2.100902e-01  3.926362e-01  2.663863e-03  -1.545151e-01  3.561532e-02  -9.522443e-02  -1.900768e-01  -6.712404e-02  1.123125e-01  5.129199e-02  1.891613e-02  1.895227e-01  -7.993223e-02  -8.887558e-02  -9.637198e-02  -8.823244e-02  1.141894e-01  -1.510889e-01  1.716989e-01  8.836631e-02  8.878677e-02  7.225418e-02  6.095944e-02  -1.367977e-01  1.988153e-01  2.019322e-02  -6.115649e-02  -6.556571e-03  -1.126466e-01  -1.073741e-01  -1.863265e-01  1.579468e-02  4.915740e-02  1.410814e-01  -1.003582e-01  6.255632e-02  9.337217e-02  2.254395e-02  8.963759e-02  -1.066271e-01  -4.961529e-02  2.579103e-01  -1.200822e-01  1.524180e-01  -3.262865e-01  -1.165579e-01  7.494721e-02  1.518669e-01  5.225272e-02  1.355484e-01  4.559221e-02  -7.644526e-02  3.012515e-02  -5.535927e-02  -1.591828e-02  4.098959e-02  -2.515492e-01  -5.616194e-02  -1.174323e-01  -1.044953e-01  2.626235e-02  6.470698e-02  -9.269186e-02  -3.877858e-02  1.257804e-01  7.500876e-02  3.591160e-03  1.024078e-01  -9.717171e-02  1.878892e-01  -2.264240e-01  9.044883e-02  4.429058e-02  3.131701e-02  2.964978e-02  -1.087271e-01  9.707408e-02  -8.720723e-02  -3.822251e-02  1.301193e-01  -6.207547e-03  1.310848e-02  -1.129115e-01  4.276236e-02  5.615637e-02  -4.688009e-02  6.494147e-02  -1.060346e-01  3.611091e-02  -1.804681e-01  -5.892453e-02  2.914659e-02  3.856289e-02  -2.845646e-02  6.489617e-02  3.884620e-02  -3.905708e-02  -9.397047e-02  -3.219690e-02  9.060499e-03  6.831994e-02  -1.331118e-01  -1.001108e-01  6.714114e-02  -6.401148e-02  -4.472561e-02  1.469299e-01  3.917095e-02  3.417808e-01  1.316754e-02  -9.272843e-02  1.256400e-01  7.682659e-02  -4.282033e-02  -1.834098e-02  6.522931e-02  -7.522993e-02  -5.164477e-02  9.091601e-03  -9.562782e-02  -1.031168e-01  -1.426161e-01  -9.446604e-02  -8.384314e-02  1.197600e-01  1.426099e-01  4.500804e-02  3.821658e-02  5.269672e-02  8.566757e-02  1.037859e-01  -1.805523e-01  -1.287371e-01  5.247653e-02  2.483255e-01  4.040545e-02  5.384513e-02  9.519196e-02  2.885861e-02  3.207466e-02  5.898542e-03  -1.050941e-01  -2.106738e-01  1.552743e-02  1.770404e-01  5.148407e-02  -5.086224e-02  -3.698979e-02  -3.013752e-01  -1.166342e-02  7.882017e-02  -3.996237e-02  6.151937e-02  2.184099e-02  -4.422012e-02  -1.229845e-01  -1.747839e-02  1.903384e-01  2.330405e-01  -1.328466e-01  2.771021e-03  6.909965e-02  1.681791e-02  -5.484741e-03  -2.144690e-02  -7.703920e-02  1.380456e-02  5.096712e-02  1.848680e-02  1.197092e-02  4.516515e-02  5.064576e-02  1.967909e-02  3.347227e-02  -1.066505e-01  -4.362070e-02  1.517193e-02  -9.023391e-02  1.044785e-01  -1.744217e-01  4.096368e-02  3.279901e-02  -1.069487e-01  -2.813081e-01  -1.089033e-01  -1.448374e-01  2.736962e-02  6.304018e-04  -2.622825e-02  7.737543e-02  1.434797e-01  -4.494688e-02  8.231587e-02  8.178840e-02  1.694416e-01  1.778824e-01  -1.098097e-01  -2.204419e-02  1.226099e-01  -2.524969e-02  -4.702643e-02  -1.090800e-01  -1.938896e-02  8.825871e-02  -1.058697e-01  -4.238163e-03  1.381086e-01  7.494836e-02  -5.515483e-02  -7.084385e-05  -1.956749e-01  -3.603982e-02  -1.237489e-01  4.526192e-02  1.931853e-02  4.500727e-02  1.690872e-01  1.729636e-01  9.220245e-02  1.988020e-01  -1.358549e-01  4.577466e-02  1.335932e-01  -8.624493e-02  -1.667760e-02  1.171898e-01  -1.755553e-01  9.622395e-03  8.209875e-02  -2.166114e-02  -3.833291e-02  1.866370e-02  5.376666e-02  -4.433502e-02  -9.429991e-02  -9.019050e-04  -2.041034e-01  -5.353856e-02  4.619165e-02  4.077120e-02  -7.403750e-02  -3.999015e-02  8.209825e-02  -1.650857e-01  -1.586699e-01  -7.455355e-03  -1.330733e-01  7.144275e-02  4.346609e-02  -1.169036e-01  3.204855e-02  -1.555963e-02  1.416994e-01  -6.725556e-02  1.540097e-01  -2.005765e-01  -1.270349e-01  -1.264964e-01  -1.090017e-01  5.047268e-02  3.692168e-02  1.154193e-01  -2.247480e-02  -1.011981e-01  2.126769e-01  -4.425522e-02  -3.170876e-02  1.136801e-01  9.836371e-02  -1.535115e-01  7.158265e-02  3.086053e-02  3.852716e-02  1.482589e-02  1.915613e-01  -2.034875e-01  -1.896851e-01  -1.984042e-02  -2.078321e-02  7.897810e-02  -2.186126e-02  2.260731e-02  -1.769002e-01  1.525488e-01  8.023954e-02  9.258610e-02  1.310833e-01  6.966209e-02  -1.061349e-01  -3.603867e-02  1.182882e-01  -3.927712e-02  6.931236e-02  -3.953798e-02  -6.328663e-02  8.889478e-02  1.392225e-01  -1.244753e-01  9.379501e-02  8.530395e-02  1.237478e-01  2.161290e-02  -6.914832e-02  -7.297555e-02  2.722987e-02  1.611562e-01  3.867822e-02  3.836654e-02  -2.617317e-01  1.420406e-01  1.586521e-01  -1.214139e-01  1.005769e-01  1.051128e-01  -5.014588e-02  6.436596e-03  2.401439e-01  2.908698e-02  -1.202492e-01  5.995655e-02  -2.330263e-02  -1.239437e-01  1.818258e-01  6.038535e-02  -2.132156e-02  -1.252062e-01  1.583143e-01  1.058692e-01  -2.050162e-02  6.192987e-02  -3.819828e-02  -8.706038e-02  -1.826253e-01  6.650709e-02  -2.683749e-01  -2.939470e-02  -1.172513e-01  2.196812e-01  6.321598e-02  -9.643787e-02  6.495018e-03  5.403443e-02  1.436720e-01  -1.383755e-02  3.893736e-03  4.521567e-02  1.035156e-01  -1.939383e-01  1.104000e-01  2.122818e-02  -7.823158e-02  -8.698449e-02  9.918310e-02  1.973859e-03  6.175292e-02  -7.160449e-02  1.044095e-01  -7.001331e-02  8.201521e-03  2.804557e-02  -1.374001e-01  1.763986e-01  1.021389e-01  -4.983419e-02  -7.789756e-03  2.781804e-01  8.254638e-02  -3.091794e-02  6.329960e-02  9.609351e-02  -8.559381e-02  1.079670e-01  1.152522e-01  -8.736720e-02  -2.612347e-01  6.575245e-02  1.248505e-01  1.134341e-02  6.797393e-02  9.790028e-02  -1.386662e-01  6.986217e-02  -3.335202e-02  