<?xml version="1.0"?>
<MethodSetup Method="MLP::MLPBNN">
  <GeneralInfo>
    <Info name="TMVA Release" value="4.2.1 [262657]"/>
    <Info name="ROOT Release" value="6.28/02 [400386]"/>
    <Info name="Creator" value="boltzman"/>
    <Info name="Date" value="Wed Jun 21 23:45:09 2023"/>
    <Info name="Host" value="Linux root-ubuntu-2004-3 5.4.0-128-generic #144-Ubuntu SMP Tue Sep 20 11:00:04 UTC 2022 x86_64 x86_64 x86_64 GNU/Linux"/>
    <Info name="Dir" value="/home/boltzman/Documents/Clases/MFS734/Proyectos/Tarea-ML"/>
    <Info name="Training events" value="2000"/>
    <Info name="TrainingTime" value="2.07893801e+00"/>
    <Info name="AnalysisType" value="Classification"/>
  </GeneralInfo>
  <Options>
    <Option name="NCycles" modified="Yes">60</Option>
    <Option name="HiddenLayers" modified="Yes">N+5</Option>
    <Option name="NeuronType" modified="Yes">tanh</Option>
    <Option name="RandomSeed" modified="No">1</Option>
    <Option name="EstimatorType" modified="No">CE</Option>
    <Option name="NeuronInputType" modified="No">sum</Option>
    <Option name="V" modified="Yes">False</Option>
    <Option name="VerbosityLevel" modified="No">Default</Option>
    <Option name="VarTransform" modified="Yes">N</Option>
    <Option name="H" modified="Yes">True</Option>
    <Option name="CreateMVAPdfs" modified="No">False</Option>
    <Option name="IgnoreNegWeightsInTraining" modified="No">False</Option>
    <Option name="TrainingMethod" modified="Yes">BFGS</Option>
    <Option name="LearningRate" modified="No">2.000000e-02</Option>
    <Option name="DecayRate" modified="No">1.000000e-02</Option>
    <Option name="TestRate" modified="Yes">5</Option>
    <Option name="EpochMonitoring" modified="No">False</Option>
    <Option name="Sampling" modified="No">1.000000e+00</Option>
    <Option name="SamplingEpoch" modified="No">1.000000e+00</Option>
    <Option name="SamplingImportance" modified="No">1.000000e+00</Option>
    <Option name="SamplingTraining" modified="No">True</Option>
    <Option name="SamplingTesting" modified="No">False</Option>
    <Option name="ResetStep" modified="No">50</Option>
    <Option name="Tau" modified="No">3.000000e+00</Option>
    <Option name="BPMode" modified="No">sequential</Option>
    <Option name="BatchSize" modified="No">-1</Option>
    <Option name="ConvergenceImprove" modified="No">1.000000e-30</Option>
    <Option name="ConvergenceTests" modified="No">-1</Option>
    <Option name="UseRegulator" modified="Yes">True</Option>
    <Option name="UpdateLimit" modified="No">10000</Option>
    <Option name="CalculateErrors" modified="No">False</Option>
    <Option name="WeightRange" modified="No">1.000000e+00</Option>
  </Options>
  <Variables NVar="4">
    <Variable VarIndex="0" Expression="var1+var2" Label="myvar1" Title="myvar1" Unit="" Internal="myvar1" Type="F" Min="-9.33803940e+00" Max="7.69307804e+00"/>
    <Variable VarIndex="1" Expression="var1-var2" Label="myvar2" Title="Expression 2" Unit="" Internal="myvar2" Type="F" Min="-3.25508261e+00" Max="4.02912045e+00"/>
    <Variable VarIndex="2" Expression="var3" Label="var3" Title="Variable 3" Unit="units" Internal="var3" Type="F" Min="-5.27774286e+00" Max="4.64297915e+00"/>
    <Variable VarIndex="3" Expression="var4" Label="var4" Title="Variable 4" Unit="units" Internal="var4" Type="F" Min="-5.60070276e+00" Max="4.67435789e+00"/>
  </Variables>
  <Spectators NSpec="2">
    <Spectator SpecIndex="0" Expression="var1*2" Label="spec1" Title="Spectator 1" Unit="units" Internal="spec1" Type="F" Min="-9.91655540e+00" Max="8.70301723e+00"/>
    <Spectator SpecIndex="1" Expression="var1*3" Label="spec2" Title="Spectator 2" Unit="units" Internal="spec2" Type="F" Min="-1.48748331e+01" Max="1.30545254e+01"/>
  </Spectators>
  <Classes NClass="2">
    <Class Name="Signal" Index="0"/>
    <Class Name="Background" Index="1"/>
  </Classes>
  <Transformations NTransformations="1">
    <Transform Name="Normalize">
      <Selection>
        <Input NInputs="4">
          <Input Type="Variable" Label="myvar1" Expression="var1+var2"/>
          <Input Type="Variable" Label="myvar2" Expression="var1-var2"/>
          <Input Type="Variable" Label="var3" Expression="var3"/>
          <Input Type="Variable" Label="var4" Expression="var4"/>
        </Input>
        <Output NOutputs="4">
          <Output Type="Variable" Label="myvar1" Expression="var1+var2"/>
          <Output Type="Variable" Label="myvar2" Expression="var1-var2"/>
          <Output Type="Variable" Label="var3" Expression="var3"/>
          <Output Type="Variable" Label="var4" Expression="var4"/>
        </Output>
      </Selection>
      <Class ClassIndex="0">
        <Ranges>
          <Range Index="0" Min="-4.3359384536743164e+00" Max="6.3994679450988770e+00"/>
          <Range Index="1" Min="-3.2098844051361084e+00" Max="4.0291204452514648e+00"/>
          <Range Index="2" Min="-2.6063573360443115e+00" Max="3.8698983192443848e+00"/>
          <Range Index="3" Min="-2.1695792675018311e+00" Max="4.5351858139038086e+00"/>
        </Ranges>
      </Class>
      <Class ClassIndex="1">
        <Ranges>
          <Range Index="0" Min="-9.3380393981933594e+00" Max="7.6930780410766602e+00"/>
          <Range Index="1" Min="-3.2550826072692871e+00" Max="3.3650035858154297e+00"/>
          <Range Index="2" Min="-5.2777428627014160e+00" Max="4.6429791450500488e+00"/>
          <Range Index="3" Min="-5.6007027626037598e+00" Max="4.6743578910827637e+00"/>
        </Ranges>
      </Class>
      <Class ClassIndex="2">
        <Ranges>
          <Range Index="0" Min="-9.3380393981933594e+00" Max="7.6930780410766602e+00"/>
          <Range Index="1" Min="-3.2550826072692871e+00" Max="4.0291204452514648e+00"/>
          <Range Index="2" Min="-5.2777428627014160e+00" Max="4.6429791450500488e+00"/>
          <Range Index="3" Min="-5.6007027626037598e+00" Max="4.6743578910827637e+00"/>
        </Ranges>
      </Class>
    </Transform>
  </Transformations>
  <MVAPdfs/>
  <Weights>
    <Layout NLayers="3">
      <Layer Index="0" NNeurons="5">
        <Neuron NSynapses="9">
          4.9933915586843208e-01 1.9732337022473223e+00 8.3585049782087306e-01 3.7071513903807102e-01 -3.3244780544242025e+00 -1.0051561605448671e+00 -9.0351746969133440e-01 1.6809530079664288e+00 -1.8086188219695956e+00 
        </Neuron>
        <Neuron NSynapses="9">
          -4.6978753368903631e-01 -1.4730843782155456e+00 -5.4898537676287096e-01 -1.0835274776734305e+00 -7.0672884663973079e-01 -9.7339162288009373e-01 6.5957270726735118e-01 -3.1695950236766035e-01 2.4093761098386972e+00 
        </Neuron>
        <Neuron NSynapses="9">
          3.5591350948039763e-01 1.4036136658330922e+00 -2.1074395978966057e-01 -9.7812720587470503e-01 -1.0194996334768480e+00 8.9782690486083450e-01 -1.2560041049805557e+00 -7.4324145488344562e-01 1.4893141103764462e+00 
        </Neuron>
        <Neuron NSynapses="9">
          -2.1745007998591297e+00 -1.6020788542035136e+00 5.5298836108497695e-01 2.2807526398525693e+00 4.0045219692129290e+00 1.3366112021344454e+00 8.0655145362735506e-02 -5.2355294474062397e-01 9.2513064959808300e-01 
        </Neuron>
        <Neuron NSynapses="9">
          -5.6515461800708833e-01 2.3660171665103658e+00 -1.0535313294024204e+00 -1.6350284912264662e-01 -1.9407916079096899e-01 9.8449705780042018e-01 1.9250180795563954e+00 1.6170386843656428e+00 -6.8665729965617794e-01 
        </Neuron>
      </Layer>
      <Layer Index="1" NNeurons="10">
        <Neuron NSynapses="1">
          -2.2374200337189114e+00 
        </Neuron>
        <Neuron NSynapses="1">
          2.7746422242637475e-01 
        </Neuron>
        <Neuron NSynapses="1">
          -2.0336371503414366e-01 
        </Neuron>
        <Neuron NSynapses="1">
          1.5720514289178114e+00 
        </Neuron>
        <Neuron NSynapses="1">
          5.9468935229475246e+00 
        </Neuron>
        <Neuron NSynapses="1">
          1.1556692063739857e+00 
        </Neuron>
        <Neuron NSynapses="1">
          1.2645389399300853e+00 
        </Neuron>
        <Neuron NSynapses="1">
          -1.3499665129059517e+00 
        </Neuron>
        <Neuron NSynapses="1">
          1.5306856981513128e+00 
        </Neuron>
        <Neuron NSynapses="1">
          -1.7128873155141964e+00 
        </Neuron>
      </Layer>
      <Layer Index="2" NNeurons="1">
        <Neuron NSynapses="0"/>
      </Layer>
    </Layout>
    <InverseHessian NElements="3025" NRows="55" NCols="55">
      <Row Index="0">
        6.2707013699911592e+01 3.3071719311446242e+02 1.5885472142026006e+02 6.0054427570614921e+00 -2.0815945355227836e+01 -1.1397828529243696e+00 -6.3647089119409145e+01 1.1339058996193528e+02 -1.5330354675803708e+01 -6.4418418129486055e+00 -2.0037178733124026e+02 1.6645529571790195e+02 1.2287951299162739e+01 -3.4192267681924977e+00 2.4890186481884740e+01 5.2476028473068204e-01 -2.1408990689830080e+01 -1.0966932875745132e+00 -3.7176058632979401e+00 2.2466260587407351e+01 5.0178157562480175e+02 1.2863068634820132e+00 -4.1405774967386382e+00 -2.9717926874921201e+01 -3.2647577204585998e-01 1.1681845872831778e+02 -2.2576320395902303e+00 -5.8668202383470671e+01 -8.0968635708985630e+01 -6.1045627521111692e+02 -2.3723590650035863e+01 2.3057461316974134e+01 -2.8147438933441325e+01 3.6172421872704007e+01 -2.4866604300888702e+02 1.8756432109138899e+01 -2.2538943096259190e+00 -1.1964749832267125e+02 2.4736419617871053e+02 2.9880275409022361e+00 -1.3734689285009247e+00 -1.8451929671945432e+01 2.6426121664200107e+01 1.4593568206197648e+02 -8.3419339798822723e-01 3.2796707092135051e+01 -1.5089545944278228e+02 -5.5189482606081455e+01 4.5373857630301359e+01 -8.8495377852616670e+01 5.1226650309618307e+01 -2.8930811973888730e+01 -2.9680393808495114e+02 2.8505587490527518e-01 4.3187089515781724e+02 
      </Row>
      <Row Index="1">
        3.3071719373292888e+02 1.8724739713510312e+05 4.3252649938388322e+03 -1.7114059101195903e+02 -1.5590571356632100e+02 1.0962335025315957e+04 -8.7750751599568810e+02 6.4909188365103564e+03 4.6648318681224532e+02 2.9240021321316209e+02 -6.6087601487138279e+04 -2.5613193959008890e+02 8.3541358850486951e+00 -6.5116246496886234e+01 1.2205285820795018e+03 -3.6083961629608535e+02 -1.3370716383228273e+03 4.2722362096635770e+01 5.8909508601329435e+01 6.7376871087427004e+04 7.3072777211080393e+03 -1.4303261479753462e+02 -5.4007232128280322e+01 -1.2125190602266357e+03 7.6941259804825484e+02 -1.0766054303639435e+03 1.2200672025186624e+02 -4.1014531158562590e+02 -1.7222931822098556e+05 -1.6429952063713637e+04 4.0636561622657837e+02 1.6905070760724595e+02 -1.2442005094108514e+04 8.7852879769243884e+01 -3.2061440876410893e+03 -5.6438406439960818e+02 8.6337733588553078e-01 3.3215012552395892e+04 7.0376521719759912e+03 -5.9208185401954452e+01 1.0420219294175856e+01 2.1935035143753112e+03 5.5330269510232029e+01 3.4129424537788245e+03 3.8138817837792118e+01 -5.9209991222140138e+02 -4.1354731493478102e+04 -1.3344448487438863e+03 -1.5044795743082614e+02 -9.2726778906556683e+02 1.2931590335855808e+04 1.4878244549742692e+02 1.1326751870202443e+03 -5.5407077820656923e+01 2.7885094381640687e+04 
      </Row>
      <Row Index="2">
        1.5885472120875457e+02 4.3252650032946840e+03 8.0612356471825842e+04 -2.6565637424835791e+03 -6.9465839750893576e+02 -3.1496452099521171e+03 4.5659507155890860e+03 5.8965972490389922e+03 -5.5320387863548092e+01 1.1010112478361309e+02 8.0976317698889561e+03 -1.2592043567168381e+04 -1.6576567829984372e+03 -1.4714422698905901e+02 -1.5111847135091662e+03 -4.7834563325818976e+02 3.3768492172934680e+02 1.1017905787004531e+02 4.1216314232745162e+02 -7.8060388056641787e+03 -5.7231266571445576e+02 -2.1001975875538506e+03 -7.7335419136423326e+01 -9.6557254001705792e+02 1.4101224563576588e+03 2.0217074369125091e+03 8.3428810365437442e+00 -5.2336449946652772e+02 -5.9350910019202474e+03 -3.2197171909041168e+04 5.8893346208997700e+03 7.4945932961665312e+02 5.1265362303305665e+03 -2.9646884263896045e+03 -5.8247275514387011e+03 3.8889453848697073e+01 5.6391164159189103e+01 5.6900280517204901e+03 -5.5821519030686170e+04 1.1708264161842187e+02 -6.8074013658499268e+01 9.7179259266881309e+02 -1.8876322280386999e+03 -5.2098479518430331e+03 -1.2007519352284580e+01 1.8171510227470702e+02 6.0249642219541938e+03 1.0875696298878796e+04 -5.9122999640595053e+03 -2.9242729929087509e+03 -6.2322067955384682e+02 2.2340763123845190e+03 9.2919412348771257e+03 -1.6170543156809424e+02 -1.4632017486088780e+04 
      </Row>
      <Row Index="3">
        6.0054427608984042e+00 -1.7114059222489595e+02 -2.6565637419504992e+03 1.9386693352136510e+02 2.4762421582302341e+01 4.4037693813835141e+01 -4.9520756846009562e+01 -8.7316786224348823e+02 2.1569402507734092e+00 2.0654733391531890e+00 -6.9926149424300263e+02 3.2363278005244320e+02 5.5457798988883710e+01 3.6124460214042609e+00 5.4673290407091372e+01 1.7404534826476883e+01 1.8384311924971055e+02 -9.0653910853725528e-01 -8.3987833777762013e+00 6.2369630983051570e+02 4.3438920134706473e+02 4.4157458221916080e+01 3.0808773114810069e+00 7.9099755526018711e+01 -3.1600015543550075e+01 1.9247225007001083e+02 1.8295423547881107e+00 -2.7711943473600282e+00 4.4173996548904012e+02 8.4197765029199218e+02 -2.7432768246814203e+02 -2.5233205592796772e+01 -1.7977049117837129e+02 -1.2157538579771604e+01 3.2463247968875345e+02 -3.8419197536733756e+00 -8.8063912318095150e-01 -4.6630781643395915e+02 1.5620654465983159e+03 6.0842418128071314e+00 3.0382937053656205e+00 -6.9588210912478601e+01 6.2006861372253596e+01 -1.5426103548429282e+01 8.0470170538396513e-01 -5.1057460508118666e+00 -4.9464897500342198e+02 -3.1777634510431500e+02 1.8377707695902922e+02 1.0390117954012931e+02 -7.4564994603426186e+01 -8.4141419328596243e+01 -1.0193160571083181e+03 1.8456554686243152e+00 1.4876945237810794e+03 
      </Row>
      <Row Index="4">
        -2.0815945353338293e+01 -1.5590571347932564e+02 -6.9465839752774571e+02 2.4762421589675697e+01 5.3030138315375964e+01 1.2003485041119264e+02 1.0883314151292961e+02 -4.6633252598592964e+02 -1.6039020453822315e+00 -2.2242158490535644e+00 -2.9701684657722325e+02 -4.1692956805562693e+02 -5.2294670840394977e+00 8.7866437825929591e+00 -3.1988907945385133e+01 -3.5051098721515783e-01 -1.7260515790484742e+01 1.4789624928371764e-01 -8.0532670692873047e+00 2.2247047305966211e+02 -6.1225838326816006e+02 3.3693871269734038e-01 1.0345037151851194e+01 1.1777976849136527e+02 -4.5342520099257960e+01 -2.0138145550086077e+02 1.6248822773581042e+00 2.7009451040237721e+01 1.7877639544734279e+02 1.5366345905193366e+03 -6.9041939076321732e+00 -5.8602034724228417e+01 -1.4484303232480627e+02 -4.4890094678866085e+01 5.2469587794314248e+02 1.2705932831558053e+00 -1.1958141198183039e+00 4.2797985766512932e+02 -7.7169812791596053e+02 2.4261598226298613e+00 3.8384961658803372e+00 2.1806078422735077e+01 -1.9768394143452515e+01 -1.8047896791426385e+01 3.6346879895092554e-01 -8.6368543421522972e+00 -1.3175448086093953e+01 4.5341965869881953e+01 -5.7859931517927357e+01 1.9718209463610003e+02 -9.5934563108992279e+01 -2.7106463959418974e+01 -1.3256354931884445e+02 -1.4247191954693932e+00 1.8759473233008782e+02 
      </Row>
      <Row Index="5">
        -1.1397828096105513e+00 1.0962335024464002e+04 -3.1496452106407451e+03 4.4037693903192775e+01 1.2003485040344343e+02 2.3033996620687253e+03 -6.8122958552356067e+01 -1.2470304491594704e+03 9.6435204443834657e+00 2.2127363200886290e+01 -6.6450365632195544e+03 1.3152883384712635e+02 8.9245614402251263e+00 2.3748913135812543e+01 1.3537421194028744e+02 3.5447955213919592e+01 -4.3592429375384381e+02 -1.4898068576660989e+01 -6.3948032854004415e+00 5.8216921714602495e+03 -1.7924273960063420e+03 3.1294207365427383e+01 -3.1438162853956237e+00 -1.6740135306220175e+01 8.9320383645962309e+01 -2.6513952328032696e+02 -7.8960471942087507e-01 1.2113941751365006e+01 -9.7334706500139437e+03 2.3597931784037105e+03 -2.5350411576609822e+01 -1.2022558717355702e+02 -2.2301916782447079e+03 -1.2568261920044085e+02 1.8487471200583984e+03 -5.9803203091498460e+00 -3.8909511651836688e+00 5.6932069755928260e+03 2.2254931682129918e+03 -2.8356262542249258e+01 1.5798892910974640e+01 9.9480529991268014e+01 5.0748054994549676e+01 2.9428732654198166e+02 3.3637520120312310e+00 -9.9109377342576209e+01 -2.6663452902560466e+03 -1.9406903190553942e+02 -6.8208874948850848e+00 4.1301060987020719e+02 1.1795538898126681e+03 3.0763631233171452e+01 -3.1220510041875241e+02 1.0124721506129557e+01 1.9357733970053841e+03 
      </Row>
      <Row Index="6">
        -6.3647089156233960e+01 -8.7750751833309187e+02 4.5659507174233986e+03 -4.9520756952948588e+01 1.0883314149810138e+02 -6.8122958731271837e+01 1.0890083473566572e+03 -2.0809232554593946e+03 -1.3359178174334669e+01 -1.9706665978763116e+00 -5.3230067957914613e+01 -2.6280082708650534e+03 -1.6818247042965626e+02 1.5407714112528998e+01 -3.1154202819583827e+02 -8.6307134160155769e+01 2.8721664033650922e+02 1.1012208870643917e+01 1.8425764941941566e+01 4.1000555766519329e+02 -2.4228361305814628e+03 -1.9300580472044203e+02 3.1705779355276292e+01 3.9287103939493937e+02 -5.3203387765079828e+00 -4.2604858897576827e+02 6.5367116965503325e+00 4.3239749820722309e+01 3.8315517328534042e+02 2.9650958991942139e+03 4.1807100718251036e+02 -1.1981879417070114e+02 1.3106948141316190e+02 -5.9042639869744039e+02 1.6897927574533080e+03 7.7215973965043947e+00 7.1342039644574973e-02 1.9094372202705836e+03 -8.3673450180849850e+03 2.8902574826607413e+01 6.1692360022112753e+00 1.9308161217385015e+02 -3.6030603611267907e+02 -1.0873601891558963e+02 8.3628066745774587e-01 4.5184356576370845e+00 5.5521832420469866e+02 1.2026427598273865e+03 -7.4803341286490559e+02 4.5886110187674785e+02 -5.7604372974349280e+02 2.1878994356023088e+02 -1.8731680791272947e+03 -1.7844904108476044e+01 1.4739812544791064e+03 
      </Row>
      <Row Index="7">
        1.1339059068835923e+02 6.4909189786016941e+03 5.8965971856568940e+03 -8.7316785971079162e+02 -4.6633252544807067e+02 -1.2470304387192180e+03 -2.0809232607402664e+03 3.2608640934520248e+04 1.2485020690235089e+01 -1.0717236358275428e+00 6.0242947239446239e+03 7.9963143212300465e+03 1.7497468835216813e+02 -5.5367547197947545e+01 3.5464089263494685e+02 2.3249989305232177e+02 -4.9868640115610324e+03 -4.7193197033717297e+01 -4.3356307788047303e+01 -5.9801293608325068e+03 1.1850040371263981e+02 5.3909627721519792e+02 -3.4894587347845736e+01 -1.0642502683394339e+03 9.7078470045908807e+02 -8.7669700727358049e+03 -2.0056019784433485e+00 -2.9175718401718996e+01 -7.6009657759229340e+03 -1.9496465238840698e+04 1.7164465163245484e+02 4.5233343699867203e+02 1.6588043321417269e+03 6.2221795414766859e+02 -1.4774333657569572e+04 -1.7500807833907587e+01 8.5389435735233707e+00 -3.2762213909854472e+03 2.1816457159355894e+04 -1.3010465458208171e+02 -2.9306919683291405e+01 1.2756465353899051e+02 4.2958579585717825e+02 -1.7600530095420549e+04 -8.4841096471792774e+00 -7.8961136947630223e+01 1.8172154586029819e+03 -2.0003392658203943e+03 1.1892683749626158e+03 -1.6942149078357033e+03 1.6506390099268017e+03 8.2835748054578289e+02 8.1824442480813479e+04 7.3370580818771487e+01 -8.2579002347566435e+04 
      </Row>
      <Row Index="8">
        -1.5330354676410160e+01 4.6648318664498220e+02 -5.5320387805402333e+01 2.1569402477995188e+00 -1.6039020459504274e+00 9.6435204329228554e+00 -1.3359178169812971e+01 1.2485020679350622e+01 3.3248677497436624e+01 -1.6765131970176115e+00 -4.4648028271147219e+01 6.0286868860338949e+01 2.2181167224297158e+00 -1.3853927299586024e+00 2.3163572784696242e+00 -1.6867475364821880e+00 4.5944200702143689e+01 -8.4808552276204097e+00 -3.1849699336648261e+00 1.0269532751044608e-01 9.2631333354039285e+01 2.7884955415392199e-01 -3.5209219203274322e-01 -1.6170775445609191e+01 1.7357368336674469e+01 8.6661576319676030e+01 -4.8183565448684531e+00 1.9535285673748600e+01 -3.7723740201187616e+02 -8.2106313672861958e+01 -9.0564729550754706e+00 1.6869112682420249e+00 -1.8310331688156751e+01 -3.4174613965083145e-01 -7.9277638180928761e+01 -2.9926497734694824e+01 -4.6368446778684302e-01 9.2837005331566559e+01 1.5638346480286515e+02 4.7927846071226132e-01 3.2017381597864902e-01 3.7996911263552278e+00 -4.9639412478319933e-01 -2.7327812736075771e+01 1.9435540123162749e+00 -1.1372465804843859e+01 -2.5061128035103099e+01 -2.6495538628873678e+00 1.7054963330542332e+01 -9.7587794137933201e+00 4.2125608335409552e+01 1.3627838592930145e+01 -7.0022830118675500e+01 1.3303959467818217e+01 4.4617839695186532e+01 
      </Row>
      <Row Index="9">
        -6.4418418110308400e+00 2.9240021330913947e+02 1.1010112470117109e+02 2.0654733432184189e+00 -2.2242158493152377e+00 2.2127363211071895e+01 -1.9706666010678986e+00 -1.0717239132837082e+00 -1.6765131965330293e+00 1.2201838862285200e+01 -1.9279476729078260e+02 -3.2588959068380547e+01 -6.8712626434491275e+00 -5.5126179329883873e-01 4.9160502480318877e+00 -2.5769893020589261e+00 1.4679294057604437e+01 2.7403331719737674e+00 2.2391680678386141e+00 2.5748353745356712e+02 1.0169939331149398e+02 -1.2668169655031164e+01 -2.3625469204026159e-01 -5.8515083327493933e+00 2.8686430201533240e+00 1.3082144867470364e+00 3.5491369082549857e+00 4.4792202354507928e+00 -3.5174091648188875e+02 -2.1857724166840273e+02 1.5063085386567559e+01 1.9488495493011351e+00 -3.4020053506341867e+01 -2.9234487854419151e+00 -1.3503403888927572e+00 -3.1877045672250688e+00 3.1019896895134029e+00 6.6253449451950615e+01 -1.7266482107303204e+01 -1.9128318022050226e+00 -3.6196857597846716e-02 -4.2189513089533541e+00 1.1836234646033930e+00 -4.0627348965712052e+01 3.7670173706556415e-01 -2.4876832502057603e+01 -1.1660979583090950e+02 -2.7554885966671101e+00 -2.2296424916030904e+01 -1.1798307145957127e+01 2.6395100244461304e+01 -3.8232237225892303e+00 8.3619162445498532e+01 -4.4968559283986487e+00 -2.7656480445803981e+00 
      </Row>
      <Row Index="10">
        -2.0037178800744368e+02 -6.6087601514631882e+04 8.0976317817808585e+03 -6.9926149560267822e+02 -2.9701684648169129e+02 -6.6450365658421470e+03 -5.3230069681354507e+01 6.0242948571071638e+03 -4.4648028451892557e+01 -1.9279476729731311e+02 6.4256470287527889e+04 3.6634776228799769e+03 9.3987991610738835e+00 -4.5940243266580950e+01 -1.0832917272350737e+03 4.1551516142328688e+02 -1.6602031954858685e+03 7.5119362875586376e+01 -2.2035577560418005e+02 -6.4559970757933334e+04 -3.1313954984707252e+03 2.0398862552554056e+02 1.5350528781462831e+01 -7.0660099551104940e+02 4.4671393326331969e+02 4.0893865852122794e+03 -1.2929144849149070e+01 3.4940596711376611e+02 5.3600680933680836e+04 -4.3523398348448045e+03 4.4713757830485264e+02 3.1284019026544428e+02 8.7118220669971233e+03 -2.6942477196850308e+02 -7.7894779396652348e+03 6.1831166922678641e+01 -9.6920375845922990e-01 5.4260786999631782e+03 2.9058871531980694e+03 -1.9704005050760003e+01 -4.6514388024190630e+01 6.2061672133352363e+02 3.7920298248814277e+01 2.7499927853573495e+03 -2.5452522531441382e+01 6.2412078990894884e+02 4.4121947256065614e+04 1.2379567210291200e+03 3.6383195506955184e+02 -8.2708184009644901e+02 -3.6151569105147260e+03 8.0764286316458981e+02 -7.0016958224003447e+03 -6.3720904194478180e+01 -3.3034306541716018e+04 
      </Row>
      <Row Index="11">
        1.6645529575449109e+02 -2.5613193105254322e+02 -1.2592043571192589e+04 3.2363278017249672e+02 -4.1692956801642799e+02 1.3152883435835579e+02 -2.6280082712939529e+03 7.9963143259857225e+03 6.0286868853564712e+01 -3.2588959062008023e+01 3.6634776135687716e+03 1.4855389460151089e+04 4.9837992495953591e+02 -7.0645109261253396e+01 2.4766619310386096e+02 4.5885712238238222e+02 -9.3009593362404848e+02 -9.1426106174796587e+01 3.7652274975189215e-01 -4.8059150800798088e+03 3.6993463885346714e+03 8.8221563590586084e+02 -1.1621360646716485e+02 -1.3805431224561471e+03 6.3066336191133166e+02 1.4665896418139182e+03 -7.0374776476692205e+01 -9.0167319091619419e+01 1.6288321996045697e+03 -1.7986779679504736e+04 -1.6058410626648008e+03 4.8083877309094106e+02 8.0208185692902123e+02 7.9566299806301618e+02 -5.9520010134332470e+03 -5.5874287904184001e+00 -1.9961400429274656e+00 -1.9313344060012978e+03 3.6371249990776887e+04 -1.1408005808249219e+02 -2.4852128385748038e+01 -3.3117649702853515e+02 7.4661791358517246e+02 7.7722779949199139e+02 -2.6557778523327986e+00 -7.4281532184176257e+01 1.8885311479610768e+03 -4.1343765053714324e+03 2.8483770289192880e+03 -1.7477251969413410e+03 1.3266131396001583e+03 3.6928725632945452e+02 6.0090325732120891e+03 1.3889046366433479e+02 -8.3934833481368441e+03 
      </Row>
      <Row Index="12">
        1.2287951308837478e+01 8.3541372112231329e+00 -1.6576567836128661e+03 5.5457799019703486e+01 -5.2294670791551656e+00 8.9245615323578527e+00 -1.6818247046101919e+02 1.7497468770084370e+02 2.2181167230545764e+00 -6.8712626419268910e+00 9.3987978822260629e+00 4.9837992487006261e+02 7.0923348627096317e+01 -1.2941359738939515e+00 3.7765295762295565e+01 4.2419000142413097e+00 -5.9380425971776276e+01 -1.0389031462589173e+00 -5.9543595539093328e+00 -1.7466222316958010e+01 3.6112588034370560e+01 8.7074256855027443e+01 -3.3158956489607490e+00 -2.1190524213570825e+01 1.6399884022754875e+01 1.7829428495534671e+01 -9.3867213705289032e-01 -6.9741604811215048e+00 1.4156485936922286e+02 1.9010929618308933e+02 -2.0837928695060114e+02 6.9136733527915668e+00 -4.0620865939308779e+01 9.6147093056938104e+01 -1.0040443316417344e+02 -5.7396909275411612e-01 -2.9023906292312116e+00 -1.0521507662919936e+02 2.0988360974738916e+03 -1.7823846618168326e+00 -1.5081826654132968e-01 -3.2667692421865837e+01 4.0940339624472010e+01 -1.9830422806540821e+02 8.6520814711831845e-02 1.3855301877092838e+01 -5.6909083415222455e+00 -2.8588630265183104e+02 2.5513278791045241e+02 -2.4884755972307630e+01 3.1684785207681827e+01 1.3962823673100189e+01 6.6491546578190446e+02 3.0760254264133775e+00 -6.8627824229315650e+02 
      </Row>
      <Row Index="13">
        -3.4192267674670536e+00 -6.5116246439298038e+01 -1.4714422701814749e+02 3.6124460241569594e+00 8.7866437828893282e+00 2.3748913140392226e+01 1.5407714114745149e+01 -5.5367547341076730e+01 -1.3853927298313109e+00 -5.5126179320909685e-01 -4.5940243322824244e+01 -7.0645109274055869e+01 -1.2941359749786439e+00 2.1351116535128174e+00 -3.5551760869335252e+00 1.2106105303682355e+00 -7.6957821012570662e+00 -6.7205789690600426e-02 -1.0857256165179590e+00 1.9621203511027488e+01 -9.6815412366567060e+01 3.2871853938043927e-01 2.0815226200532817e+00 2.2316877786341820e+01 -1.0534252698004771e+01 -4.8435676922161328e+01 2.2558197090501864e-01 4.0244868117631860e+00 7.0585859563287542e+01 2.9111107300224273e+02 -2.9976198582135910e-01 -1.0186919032824624e+01 -2.9356442071160476e+01 -6.2695236632252120e+00 8.5777475277131799e+01 1.3868782296877016e+00 -1.8526669043226490e-01 5.3172473996026447e+01 -1.3511376095223625e+02 2.8390963590210844e-01 7.8637190691829473e-01 2.8607974942439895e+00 1.1866893817062329e-01 6.4985676544860453e+00 -6.5177877368677084e-02 -1.5518629868078604e-01 -1.3820029203959954e+00 5.2311060143999022e+00 -1.1123806055527652e+01 3.6290711696707703e+01 -1.7156466702928679e+01 -1.0287151336165488e+01 6.2204664404329186e+00 -3.4168004332004642e-01 1.0966448694581798e+01 
      </Row>
      <Row Index="14">
        2.4890186515173127e+01 1.2205285828214546e+03 -1.5111847144486701e+03 5.4673290490000603e+01 -3.1988907942005422e+01 1.3537421202864837e+02 -3.1154202809883384e+02 3.5464088568747258e+02 2.3163572858666268e+00 4.9160502437493960e+00 -1.0832917269318132e+03 2.4766619263664543e+02 3.7765295703748343e+01 -3.5551760881796808e+00 3.1555978735878307e+02 -9.8658229990178370e-01 1.9804399839526013e+01 7.3067871384289447e+00 -2.8903592001309177e+00 9.7865464365071966e+02 1.7060281338332925e+03 -2.1157417524860648e+01 -1.2811648763799612e+01 -1.9441019400246842e+02 -2.9244370255443467e+01 1.4790616166391928e+02 1.0562644790230706e+01 -3.3581621060987793e+01 -1.1956114966286762e+03 -8.9086763458670043e+02 -7.3482988068855192e+01 3.6679463655136459e+01 -3.3865694365411724e+02 1.6905256410715504e+02 -5.4436264549692623e+02 -9.1703054342092933e+00 -5.0647739160670335e-01 -1.9574070209889360e+03 1.3917738219342145e+03 -1.3131320273325426e+00 -1.1714308039390113e+00 -9.4619777732588261e+01 1.3067436226918721e+02 -1.0629474482437985e+02 -5.3438132306098973e-01 2.5639529279871891e+01 -1.3991005560234223e+03 -3.7999154997558503e+02 1.0682848702294906e+02 -1.3206595222823626e+02 4.7285337051258978e+02 -1.9057357668697279e+02 5.3603503791914090e+02 -1.0057383059587551e+01 5.5478987043740358e+02 
      </Row>
      <Row Index="15">
        5.2476028492855420e-01 -3.6083961745282613e+02 -4.7834563320949059e+02 1.7404534837667473e+01 -3.5051098368324241e-01 3.5447955133867858e+01 -8.6307134089646482e+01 2.3249989155960907e+02 -1.6867475362622344e+00 -2.5769893070711021e+00 4.1551516239221201e+02 4.5885712229875662e+02 4.2419000021355515e+00 1.2106105302269810e+00 -9.8658235700190744e-01 9.3755062740319943e+01 -4.4336838916035504e+00 -5.9468762835820144e-02 -8.5829686259053517e+00 -7.0556273742143458e+02 9.1762314697109423e+02 8.6218090506943952e+00 1.6859627960655370e+00 6.0024388120500817e+01 -1.3675362448713977e+02 1.1466130303221001e+02 1.0566686237418423e+00 6.9301159351868389e+00 3.8149085054940065e+02 -8.2309214829603593e+02 -1.8488485544281421e+01 -1.3593731888720508e+00 -4.1844203148188456e+01 -1.2785343157520048e+01 -2.8584471770906043e+02 2.7510432835538516e+00 1.8266362552105805e-01 3.2007068977351361e+02 5.5887720538751728e+02 1.0055230274987121e+00 1.8192284993280370e+00 6.2476204741301231e+00 1.6524175229898191e+02 2.4320447985136036e+02 -1.1712271874197584e+00 3.6989826502715957e+00 4.3126932882239618e+02 -2.6650198732932182e+02 2.8587653387826464e+01 4.7567562254678251e+00 -1.7759608667206560e+01 -2.7828320129857809e+02 -3.6742221905928847e+02 -5.9822505943512283e-01 5.2570082869996021e+01 
      </Row>
      <Row Index="16">
        -2.1408990831139818e+01 -1.3370716699813493e+03 3.3768493534846783e+02 1.8384311873677893e+02 -1.7260515905895616e+01 -4.3592429605347678e+02 2.8721664160869113e+02 -4.9868640165829229e+03 4.5944200704991367e+01 1.4679293991459417e+01 -1.6602031650114805e+03 -9.3009593294460433e+02 -5.9380426162047655e+01 -7.6957821338783106e+00 1.9804398270323873e+01 -4.4336841787735466e+00 1.8831762235244969e+03 -2.3495826219084847e+01 2.3112085128836043e+01 4.1214421801306307e+03 4.0114842468576744e+03 -2.2097144542114984e+02 1.4708479314818832e+00 1.7889927973650629e+02 -3.6813775850012252e+02 1.8401020792694042e+03 -1.6791713599144714e+01 6.5795381127643759e+00 -3.3451233539145539e+02 -5.4006742563466946e+02 7.2777490995720029e+01 1.9799795839387926e+01 6.8109326312988529e+01 -6.4406586007264622e+01 9.9244656928522591e+02 -4.0900621901483895e+01 8.8125990389604514e-01 -2.0545189183357274e+02 -4.6809999516857551e+03 2.7807111098090910e+01 7.8389490405754991e-01 -1.3017199114201145e+02 1.1647861342671091e+02 4.5677785258303074e+03 5.4723992419925409e+00 -5.2080011638769989e+01 -1.2580546209135614e+03 -5.4834806212726370e+00 -3.2769693651871307e+02 -6.8626552643981995e+01 -2.9324000818252267e+02 -5.8596992185547208e+02 -1.7730658810417604e+04 3.7315887601594000e+01 1.8865437252384043e+04 
      </Row>
      <Row Index="17">
        -1.0966932867843155e+00 4.2722362138109020e+01 1.1017905780742147e+02 -9.0653910472208032e-01 1.4789625002064702e-01 -1.4898068572158987e+01 1.1012208871382910e+01 -4.7193197187800060e+01 -8.4808552275355265e+00 2.7403331718446395e+00 7.5119362831930630e+01 -9.1426106185187336e+01 -1.0389031467057777e+00 -6.7205789594282805e-02 7.3067871402561195e+00 -5.9468761613061361e-02 -2.3495826184785074e+01 1.3038520700379820e+01 1.2609923566377859e+00 -7.8100696404144401e+01 7.0187934920703334e+00 -4.7677679123619896e+00 -7.8713549772848135e-01 2.8092082709174520e+00 -1.4139022382051461e+01 1.5094785280135726e+01 9.9637379330490603e+00 -3.8362777904407164e+00 -8.5624311499911499e+01 -4.7000710924137792e+01 8.8627248525906115e+00 7.2253809597277341e-01 1.5573261760241738e+01 -5.0456587678506293e-01 -3.1588283319138331e+00 6.5625640095183302e-01 9.0705002850351013e-01 -3.3395962054806148e+01 -1.7110507298144140e+02 5.8273211062892716e-01 -1.5790196826790298e-01 4.2947231919190330e+00 1.6505889891541958e+00 -6.3444758194086120e+01 -1.0064497104496457e+00 9.8411195829521407e+00 3.2449116989520277e+01 1.9171617528397085e+00 -1.3238472253541872e+01 8.5987900016590402e-01 -2.1856752837823024e-01 -1.6691901995035764e+01 3.0579527123237266e+01 -1.5349951818251400e+01 -7.4267021219295742e+01 
      </Row>
      <Row Index="18">
        -3.7176058621644188e+00 5.8909508769516833e+01 4.1216314233262921e+02 -8.3987833781791732e+00 -8.0532670704349556e+00 -6.3948032721593409e+00 1.8425764937903836e+01 -4.3356307871320169e+01 -3.1849699332114039e+00 2.2391680685115034e+00 -2.2035577566536813e+02 3.7652274223738758e-01 -5.9543595556010018e+00 -1.0857256167225700e+00 -2.8903591942271305e+00 -8.5829686239700322e+00 2.3112085153853513e+01 1.2609923567122792e+00 2.0299131279023584e+01 2.2011349761670135e+02 -2.7645809688409411e+01 2.7391243732880071e+00 -1.7737305361050115e+00 -1.0762239533742104e+01 1.3658992193359525e+01 5.1442576518411798e-01 -5.1547212051834208e+00 -1.5349780887632685e+01 5.8668399462003663e+01 -3.3075814004492810e+02 1.0399282644737788e+01 9.2847533139960614e+00 2.5393088158713198e+01 -1.3697706674076105e+01 6.4897827072192058e+01 6.9089093696077057e+00 4.9011808568159076e-01 -1.5575492852259546e+02 -6.7808060188236823e+01 -3.2303664969322526e-01 -5.7842468083391474e-01 -5.3677484970661640e+00 -1.3159319319910358e+01 -6.9003281246616282e+01 9.1975436889020212e-02 3.5665981123886792e+00 -1.9055641457502696e+02 3.7942685210715041e+01 -9.6077859986335064e+00 -3.2475055368626158e+01 -6.4961615833376207e-01 2.5856645493322915e+01 4.1412549508602197e+01 -2.7054887405014014e+00 1.3779487638682392e+02 
      </Row>
      <Row Index="19">
        2.2466261250723619e+01 6.7376871115020476e+04 -7.8060388169734215e+03 6.2369631111057379e+02 2.2247047294662843e+02 5.8216921741000142e+03 4.1000555923244247e+02 -5.9801294894296807e+03 1.0269550694584240e-01 2.5748353746581415e+02 -6.4559970757173374e+04 -4.8059150889307593e+03 -1.7466223560855724e+01 1.9621203453632916e+01 9.7865464399673510e+02 -7.0556273643311579e+02 4.1214422096410999e+03 -7.8100696442954359e+01 2.2011349754828552e+02 1.0053122354131192e+05 2.1698211910184823e+03 -6.1516561121556151e+02 -1.7267934626793405e+01 -7.5147869079431985e+02 -2.7514064105044474e+02 -6.6728200159544558e+03 -1.6961116251608473e+01 -1.2421019822506145e+02 -8.1665324750261105e+04 5.7184928483099520e+03 1.8303699408328612e+02 -2.1728891450136319e+02 -7.2805276385027028e+03 5.1525372423474460e+02 8.1079794479683651e+03 -8.2812368698199961e+01 -1.1457928858500836e+01 5.0946682528734673e+03 -5.0836614767634310e+03 -9.6265886604376590e+01 1.5775588033034598e+01 -1.1050118605349578e+03 -6.7559608666514725e+02 -8.2983059511446618e+02 6.2847464426416629e+01 -9.0848246019951284e+02 -4.5320519145313679e+04 -9.2739917866865960e+02 -1.1789737936470829e+03 6.1578533411846729e+02 4.2698205625340815e+03 -1.0159796304873271e+02 7.5174717938663543e+03 1.1841106003521270e+02 3.3227367145231343e+04 
      </Row>
      <Row Index="20">
        5.0178157569649920e+02 7.3072776566250250e+03 -5.7231265302776592e+02 4.3438920152135546e+02 -6.1225838332976309e+02 -1.7924274002165178e+03 -2.4228361264647028e+03 1.1850030666554812e+02 9.2631333427125739e+01 1.0169939307453751e+02 -3.1313954295571893e+03 3.6993463839077726e+03 3.6112587022063963e+01 -9.6815412427273259e+01 1.7060281303568045e+03 9.1762314706109464e+02 4.0114842659963761e+03 7.0187934086425230e+00 -2.7645809827430639e+01 2.1698211226798594e+03 4.6239694054756590e+04 -5.8776175207637425e+02 -2.2005627472316466e+01 -1.3416303848498501e+01 -4.4677993023273330e+03 6.9064282112033043e+03 2.9740736951775034e+01 -5.2336884303102636e+02 -7.4761664430897599e+03 -3.4195949453423207e+04 2.3531213675616122e+01 5.8444500889388291e+02 -9.7129238099264808e+02 1.8938942300567492e+03 -1.0421304255368868e+04 -1.2231011363060308e+02 1.4637086481864378e+01 -6.5498487827580302e+03 -7.8337119259472092e+03 1.4650850690600538e+02 -1.4338315043652486e+01 -6.4083604451930989e+02 3.8301826792252709e+03 8.9561625893538221e+03 -6.5528623452959422e-01 1.1645448974023516e+02 -4.3210928469708815e+03 -7.6538909174843857e+03 -5.6352462947464346e+01 -2.3852821901465068e+03 1.8929859295660485e+03 -8.4212440800875229e+03 -2.8529442712091972e+04 -4.0327318391943692e+00 3.1863686631548499e+04 
      </Row>
      <Row Index="21">
        1.2863068794454193e+00 -1.4303261194843799e+02 -2.1001975887373460e+03 4.4157458275658698e+01 3.3693872288984039e-01 3.1294207563279336e+01 -1.9300580480378949e+02 5.3909627681905840e+02 2.7884955463990302e-01 -1.2668169650349682e+01 2.0398862271948019e+02 8.8221563576905965e+02 8.7074256862767925e+01 3.2871854190909744e-01 -2.1157417394839285e+01 8.6218090708734962e+00 -2.2097144523700990e+02 -4.7677679106755022e+00 2.7391243773649876e+00 -6.1516560847696383e+02 -5.8776175029818069e+02 1.7967329896733327e+02 -5.1937802243287070e+00 2.1994341498721042e+00 8.7644178581527434e+00 -9.2294988372725228e+01 -7.7861793937781840e+00 1.1487770005323008e+00 7.9594077224569628e+02 3.2595607215188835e+02 -2.9545120924349578e+02 2.8335074104567131e+00 2.0513314591340045e+01 1.2821698043894224e+02 -7.0191143092124321e+01 7.1041182202010908e+00 -3.0812133871022982e+00 -3.0152262702201233e+02 3.0558137042928538e+03 -5.2235478209226400e+00 4.1850978108584980e-01 -1.2926101088576996e+00 3.6007949751456351e+01 -2.9635597655793100e+02 -2.2984514124765187e-01 1.0564245859171741e+01 1.0429733169086870e+02 -4.1773340319819442e+02 3.6884608804937398e+02 -1.4683438541087526e+00 -3.9651101808432287e+01 4.5155795586735394e+01 1.4121059141683393e+03 8.3822071415043187e+00 -1.4947087775386592e+03 
      </Row>
      <Row Index="22">
        -4.1405774972323783e+00 -5.4007232148793264e+01 -7.7335419114817597e+01 3.0808773110635173e+00 1.0345037151905284e+01 -3.1438162872977280e+00 3.1705779357321994e+01 -3.4894587306999711e+01 -3.5209219211375620e-01 -2.3625469192201365e-01 1.5350528771158679e+01 -1.1621360646657192e+02 -3.3158956487602680e+00 2.0815226200344572e+00 -1.2811648765438804e+01 1.6859627940336424e+00 1.4708479202840863e+00 -7.8713549781907233e-01 -1.7737305357791371e+00 -1.7267934612367753e+01 -2.2005627543923111e+01 -5.1937802235845680e+00 6.2787058710246582e+00 3.1081703891359780e+01 -9.7426493094329505e+00 -5.7213225268670911e+01 -7.7708447114703461e-01 6.4423763560350773e+00 3.7324224586702258e+01 2.8050025392577629e+02 7.2294387804055367e+00 -1.4698871644218624e+01 -8.1744965787335513e+00 -1.6865676822294471e+01 6.0787063181303637e+01 8.8171838375832867e-01 -7.7583758919562790e-02 9.7883913596523925e+01 -2.7391053886723410e+02 1.0260565026248911e+00 8.2864873754818558e-01 9.2034331955497617e+00 -1.6919990524221098e+00 4.0422914338770852e+01 6.3080146294218611e-02 -3.9711108219649982e+00 4.1007733909873934e+01 2.1828565687908750e+01 -2.2673668917200693e+01 4.3390400653797599e+01 -3.4134241140247674e+01 -8.9441188464749253e+00 -4.2207729510510276e+01 7.3640084235580705e-01 2.7876729341013679e+01 
      </Row>
      <Row Index="23">
        -2.9717926868065661e+01 -1.2125190610420541e+03 -9.6557254001844876e+02 7.9099755565536725e+01 1.1777976849613481e+02 -1.6740135353916397e+01 3.9287103953121891e+02 -1.0642502720145021e+03 -1.6170775442959332e+01 -5.8515083365016380e+00 -7.0660099486430408e+02 -1.3805431227324905e+03 -2.1190524246639825e+01 2.2316877785168344e+01 -1.9441019407250678e+02 6.0024388108266066e+01 1.7889928049022274e+02 2.8092082675295842e+00 -1.0762239531502928e+01 -7.5147869139548857e+02 -1.3416303596174231e+01 2.1994340867347546e+00 3.1081703893351062e+01 7.1587218727298932e+02 -3.8945114549221415e+02 -5.6585126095770556e+02 7.1631991153290073e+00 3.4103163106483109e+01 2.2557107120555011e+03 3.1953434004076703e+03 -4.0837106501167987e+01 -1.3564461248000273e+02 -2.8086133735054682e+02 -1.7091429073679350e+02 1.0112426940175195e+03 1.5312930619396608e+01 -2.0075088263342140e+00 1.5306971418866378e+03 -3.8810948178127042e+03 3.0700027263317590e+01 1.2614607635763138e+01 9.9797304126810275e+01 1.2170972865184964e+02 2.4400802270416648e+01 -1.0956589326396884e+00 1.2201620032345026e+00 3.9463874678921053e+02 -5.5711934733740073e+01 -1.8543500760519373e+02 4.9931686063147299e+02 -6.6940212596217452e+02 -5.0433636728905861e+02 -7.6117876888899002e+02 -9.6979416302259551e+00 8.2384470491332115e+02 
      </Row>
      <Row Index="24">
        -3.2647581205355891e-01 7.6941260470368434e+02 1.4101224563134592e+03 -3.1600015687979976e+01 -4.5342520111099248e+01 8.9320384034821473e+01 -5.3203393989965662e+00 9.7078471937212453e+02 1.7357368322406881e+01 2.8686430532170561e+00 4.4671392582508270e+02 6.3066336304390620e+02 1.6399884194007427e+01 -1.0534252691733627e+01 -2.9244369848522183e+01 -1.3675362453207163e+02 -3.6813776240315929e+02 -1.4139022369879058e+01 1.3658992210412180e+01 -2.7514063361240551e+02 -4.4677993053962482e+03 8.7644181869782187e+00 -9.7426493215027676e+00 -3.8945114555837790e+02 1.2212200937981679e+03 -9.3818696571081958e+01 -1.6987338603112221e+01 -1.8595212670586050e+00 -6.0719140592368785e+02 4.0799095023386252e+02 -1.6150446739298427e+01 5.1409226478806872e+01 2.2277533459437802e+02 -3.9619675310270549e+02 -1.7070190042527963e+02 -5.2090782522412411e+00 4.2222523583611760e-01 -2.0272567457492863e+02 4.7384588932553124e+03 -2.5030402168884738e+01 -6.4450965513215914e+00 -2.7565287249305374e+01 -5.5172109176024492e+02 -7.6136299335509216e+02 9.8800094060467236e-01 -3.3790535787699156e+01 1.1731920577660711e+02 1.3552830294600658e+03 1.6522141581252188e+02 -1.9632266165279361e+02 2.2508139727395610e+02 1.6908006452723544e+03 2.8666387299060848e+03 2.1129185567738261e+01 -3.1387063554941451e+03 
      </Row>
      <Row Index="25">
        1.1681845834773412e+02 -1.0766054994799197e+03 2.0217074664325773e+03 1.9247224881067814e+02 -2.0138145573102884e+02 -2.6513952839435660e+02 -4.2604858666557266e+02 -8.7669700639403891e+03 8.6661576299833271e+01 1.3082143464416731e+00 4.0893866483978927e+03 1.4665896446576362e+03 1.7829428289725911e+01 -4.8435676981298457e+01 1.4790615841012914e+02 1.1466130233654985e+02 1.8401020749332383e+03 1.5094785216322634e+01 5.1442571602819953e-01 -6.6728200773373246e+03 6.9064281627674418e+03 -9.2294988349298364e+01 -5.7213225244527166e+01 -5.6585126258409582e+02 -9.3818687610648340e+01 7.2448133263826685e+03 1.9817261234522448e+01 -1.3412924090742911e+02 2.9343792820163071e+03 -6.8395738505609415e+03 -2.0387477960786862e+02 2.3920393732630490e+02 4.2481944532910899e+02 1.0817349857216686e+02 -2.6140338479707617e+02 -9.6965661463631761e+01 6.3046746505487397e+00 -1.1876269354060955e+03 4.8799959804873652e+02 3.4935583873538832e+01 -1.0187303381709421e+01 -1.1788628210455818e+02 3.6948802650053210e+02 8.8850447796631743e+03 -1.5242660215040944e+00 1.1653474078408442e+02 2.6539746789440392e+03 -7.3437580525862757e+01 2.6432586753199149e+02 -9.1325444580795011e+02 2.7343011078802795e+02 -5.1158153040841103e+02 -3.7090902173750612e+04 -6.0055582867760222e+00 3.3659268922353622e+04 
      </Row>
      <Row Index="26">
        -2.2576320384939308e+00 1.2200672026591747e+02 8.3428809709654672e+00 1.8295423595011755e+00 1.6248822781749261e+00 -7.8960471688031930e-01 6.5367117002172819e+00 -2.0056022299054348e+00 -4.8183565447235992e+00 3.5491369079460924e+00 -1.2929144863654074e+01 -7.0374776493735695e+01 -9.3867213837727093e-01 2.2558197098007327e-01 1.0562644790358718e+01 1.0566686254256297e+00 -1.6791713543959759e+01 9.9637379329965086e+00 -5.1547212053399107e+00 -1.6961116242895514e+01 2.9740737061711094e+01 -7.7861793971524662e+00 -7.7708447098921862e-01 7.1631991197332354e+00 -1.6987338617433892e+01 1.9817261343971492e+01 1.6520996867520040e+01 2.2289246147914579e+00 -2.1481623621575636e+02 -4.4074512088194702e+01 7.8947958868141406e+00 -9.9901696690844877e-01 -4.0267104295781859e+00 -1.1904160826459740e+00 -5.2565581890209515e+01 -8.4513627247658292e+00 1.0929677909149780e+00 7.4181954223659005e+01 -8.9063068876521811e+01 4.4121122133532427e-02 2.5245811836034326e-01 4.5156790874274204e+00 5.3456405529267048e+00 -2.5945426773347673e+01 -4.6406611645299356e-01 6.3773903066877242e+00 2.9947865143450823e+01 -1.3778693688152664e+01 -1.0798659389191791e+01 6.6701305059721108e+00 6.9229058765216234e+00 -2.2751775420081707e+01 2.5284435215390786e+01 -1.2230535962455232e+01 -6.6526163955456965e+01 
      </Row>
      <Row Index="27">
        -5.8668202384662550e+01 -4.1014531103690388e+02 -5.2336449968287070e+02 -2.7711943447368412e+00 2.7009451042787617e+01 1.2113941788129068e+01 4.3239749780829811e+01 -2.9175717440681183e+01 1.9535285672708653e+01 4.4792202371415897e+00 3.4940596643160097e+02 -9.0167319036764297e+01 -6.9741604685748371e+00 4.0244868126803226e+00 -3.3581621028533846e+01 6.9301159339388505e+00 6.5795379173650872e+00 -3.8362777895633826e+00 -1.5349780886448343e+01 -1.2421019756162423e+02 -5.2336884308160813e+02 1.1487770226126486e+00 6.4423763556598388e+00 3.4103163114526978e+01 -1.8595212961324705e+00 -1.3412924140361906e+02 2.2289246159436971e+00 8.1110713408146239e+01 8.6507063141820254e+01 8.9664104846789371e+02 1.2613134756226366e+01 -3.1271782179148321e+01 8.6613084805162721e+00 -2.0301103973127191e+01 1.9593275446203762e+02 -2.3490164556412825e+01 2.2164447053140224e+00 2.6393253721400049e+02 -8.9230877730238035e+01 -3.0942827556202461e+00 1.8670921255225974e+00 2.2278760300599579e+01 -2.1025421824454043e+01 -6.1590709682677868e+01 9.3297663516350049e-01 -5.3024318824564240e+01 2.8512710510324791e+02 2.1182728928776832e+01 -2.8326432623381471e+01 1.1118245178582083e+02 -5.6198057850048222e+01 2.4117771168551720e+01 2.9847746318533001e+02 7.9110863884810776e+00 -5.5947939220228261e+02 
      </Row>
      <Row Index="28">
        -8.0968636147164943e+01 -1.7222931820739387e+05 -5.9350909967705957e+03 4.4173996466382960e+02 1.7877639552454457e+02 -9.7334706497859443e+03 3.8315517116736373e+02 -7.6009656632831320e+03 -3.7723740213604901e+02 -3.5174091636485537e+02 5.3600680898812599e+04 1.6288322056707912e+03 1.4156486041576863e+02 7.0585859611657725e+01 -1.1956114955156809e+03 3.8149084960397158e+02 -3.3451236007746775e+02 -8.5624311467174266e+01 5.8668399637463153e+01 -8.1665324715066701e+04 -7.4761664893245470e+03 7.9594077445651055e+02 3.7324224559163895e+01 2.2557107114358805e+03 -6.0719140143422555e+02 2.9343792263465730e+03 -2.1481623620181927e+02 8.6507063490115385e+01 1.8547839788626786e+05 1.5898348418404270e+04 -1.6017100733811667e+03 -2.0163527407586611e+02 1.0407928319950075e+04 1.7953693268108793e+01 4.7394128337439506e+03 5.9680777114040848e+02 -8.0080690912070196e+00 -4.8963826331983793e+04 -2.6274203781818505e+03 1.9864235788529274e+02 1.0607776324973837e+01 -2.0193650933061531e+03 1.6439016951670126e+02 -7.2789067886661405e+03 -5.1196023662682961e+01 6.6357019483639954e+02 3.0733212787687087e+04 9.9218335140704869e+02 1.4364323623778430e+03 8.6919268412199744e+02 -1.3213060996335274e+04 -1.7318562730807068e+02 2.7137726264622688e+03 1.0625409075495668e+02 -2.1477111934781235e+04 
      </Row>
      <Row Index="29">
        -6.1045627532744584e+02 -1.6429952065858524e+04 -3.2197171900398313e+04 8.4197764989476855e+02 1.5366345904205336e+03 2.3597931780626677e+03 2.9650958992449050e+03 -1.9496465219592152e+04 -8.2106313683693088e+01 -2.1857724162482191e+02 -4.3523398360433057e+03 -1.7986779678217088e+04 1.9010929624207347e+02 2.9111107298459137e+02 -8.9086763482794049e+02 -8.2309214874071040e+02 -5.4006743010535138e+02 -4.7000710948945198e+01 -3.3075813997250953e+02 5.7184928508931771e+03 -3.4195949471002139e+04 3.2595607236905198e+02 2.8050025390533779e+02 3.1953433995825471e+03 4.0799095330473210e+02 -6.8395738594768045e+03 -4.4074512125960609e+01 8.9664104856653125e+02 1.5898348421407863e+04 7.6596292563827636e+04 -1.1293043716757174e+03 -1.6721544183915844e+03 -3.2497780812358806e+03 -4.0929624984017886e+02 2.0889375847768013e+04 1.4734987862224369e+02 -6.0968365297465589e+01 2.1061464895727186e+03 -2.2895464753954737e+04 5.0904685455707295e+01 9.7160756578069027e+01 3.8519776508589757e+02 -2.2350552119516074e+03 4.3491034185107355e+02 6.3322905569699923e+00 1.1964319398467410e+01 -1.2001107015501975e+03 4.7379135492105597e+03 -9.1414733113398131e+02 6.4776202281431033e+03 -4.0186285095484664e+03 2.7048483321777685e+03 -1.0146694340802325e+04 4.1479945181260007e+01 1.3401265149651599e+04 
      </Row>
      <Row Index="30">
        -2.3723590677910693e+01 4.0636561319915927e+02 5.8893346221318343e+03 -2.7432768254679604e+02 -6.9041939146416667e+00 -2.5350411781529147e+01 4.1807100720460187e+02 1.7164465472557276e+02 -9.0564729588539592e+00 1.5063085383709677e+01 4.4713758108182810e+02 -1.6058410623531890e+03 -2.0837928693160165e+02 -2.9976198675495880e-01 -7.3482988180889151e+01 -1.8488485565040719e+01 7.2777490212098201e+01 8.8627248538662116e+00 1.0399282638633849e+01 1.8303699132846668e+02 2.3531211156986501e+01 -2.9545120919011333e+02 7.2294387812268468e+00 -4.0837106555007267e+01 -1.6150446386823205e+01 -2.0387478083221777e+02 7.8947958864118846e+00 1.2613134791738362e+01 -1.6017100709019287e+03 -1.1293043717057210e+03 7.5659284703892752e+02 2.0549909159897126e+00 1.5160149039303258e+02 -2.2057588243354218e+02 -9.5577986047740410e+01 2.1510721572786169e+00 5.1279067571713304e+00 1.1205104959898856e+03 -6.4508149707025441e+03 -1.4180634330169255e+00 -2.2284970589813500e+00 1.1076582242569404e+02 -1.2499387886812544e+02 6.1044076491742533e+02 -9.3728493605567986e-01 -1.4515700898999597e+01 4.3070267874534073e+02 9.3906975173934222e+02 -7.9922665620622217e+02 -2.4003824167079983e+01 8.9835980993344663e+01 -5.7025615778476322e+00 -1.1119821492220526e+03 -1.6571080075521508e+01 7.0904727081859801e+02 
      </Row>
      <Row Index="31">
        2.3057461314773008e+01 1.6905070747542777e+02 7.4945932965359077e+02 -2.5233205601613179e+01 -5.8602034724454761e+01 -1.2022558718470304e+02 -1.1981879418590432e+02 4.5233343758614865e+02 1.6869112676327624e+00 1.9488495489021034e+00 3.1284019040769635e+02 4.8083877313635139e+02 6.9136733579894099e+00 -1.0186919032547976e+01 3.6679463657095312e+01 -1.3593731853538884e+00 1.9799795712006016e+01 7.2253809672196212e-01 9.2847533127031738e+00 -2.1728891466162167e+02 5.8444500880090675e+02 2.8335074215068516e+00 -1.4698871644164534e+01 -1.3564461247614508e+02 5.1409226471266720e+01 2.3920393707839435e+02 -9.9901696609163082e-01 -3.1271782176156851e+01 -2.0163527396324207e+02 -1.6721544184957672e+03 2.0549909091896073e+00 6.7880815439019315e+01 1.5508581036127828e+02 5.0941237708643925e+01 -5.3966716230403540e+02 -1.8039258078381926e+00 1.0881345552204298e+00 -4.6461022936055417e+02 9.0897012808284103e+02 -2.9708088489349223e+00 -4.4952004852735721e+00 -2.5192799859215064e+01 1.6968978650179587e+01 -1.0934563872376311e+01 -3.7982868547402920e-01 1.3198324166196020e+01 8.0058818062734005e+00 -5.4283005736547139e+01 6.9424716101323867e+01 -2.2086819692288759e+02 1.1314228965452675e+02 3.6109052908773599e+01 1.2125209481124735e+02 5.3998364942887811e-01 -1.8977390177752386e+02 
      </Row>
      <Row Index="32">
        -2.8147439021364335e+01 -1.2442005093023763e+04 5.1265362318506177e+03 -1.7977049138622351e+02 -1.4484303231999957e+02 -2.2301916782826302e+03 1.3106948098904377e+02 1.6588043541925872e+03 -1.8310331711639151e+01 -3.4020053487431142e+01 8.7118220627901610e+03 8.0208185821451389e+02 -4.0620865742997921e+01 -2.9356442062992301e+01 -3.3865694348399120e+02 -4.1844203287426353e+01 6.8109321466807160e+01 1.5573261770034151e+01 2.5393088178690959e+01 -7.2805276342921425e+03 -9.7129238948590137e+02 2.0513315007958226e+01 -8.1744965838432790e+00 -2.8086133746367705e+02 2.2277533537730051e+02 4.2481943477348250e+02 -4.0267104227041273e+00 8.6613085602298270e+00 1.0407928320756415e+04 -3.2497780824627271e+03 1.5160148998029132e+02 1.5508581035002121e+02 2.7473088287010141e+03 1.6529487452561156e+01 -1.7554706354261843e+03 1.8740488332929026e+01 4.7950262260175345e+00 -4.2577569173747706e+03 -3.0142666875533541e+02 -2.2187243976932223e+00 -2.0844875920903757e+01 -5.2971167288865104e+01 -2.6338136277611380e+02 -1.9918847391909466e+02 -4.5464072077917290e+00 1.1150302606353331e+02 4.4533250833545362e+03 6.3982357395585495e+02 2.6090055637506218e+01 -5.3169487990038760e+02 -1.2145626282861458e+03 5.5635540458008518e+02 5.5964926965469817e+02 -1.0522668974692365e+01 -3.8873636541649021e+03 
      </Row>
      <Row Index="33">
        3.6172421911377427e+01 8.7852879971767834e+01 -2.9646884275997340e+03 -1.2157538465875632e+01 -4.4890094667743739e+01 -1.2568261914644609e+02 -5.9042639852689240e+02 6.2221794499040698e+02 -3.4174613150266886e-01 -2.9234487947649654e+00 -2.6942477130229236e+02 7.9566299742244428e+02 9.6147092982837819e+01 -6.2695236640009711e+00 1.6905256407294246e+02 -1.2785343097356758e+01 -6.4406583980612595e+01 -5.0456587979272172e-01 -1.3697706680678721e+01 5.1525372349409736e+02 1.8938942339396406e+03 1.2821698027876164e+02 -1.6865676818402065e+01 -1.7091429063760415e+02 -3.9619675354242958e+02 1.0817350278300296e+02 -1.1904160842043439e+00 -2.0301104011429747e+01 1.7953692611728911e+01 -4.0929624904519005e+02 -2.2057588230495912e+02 5.0941237698908708e+01 1.6529487330353447e+01 6.5806323591531634e+02 -5.4477644431193971e+02 -4.9386416222136420e-01 -3.8440448162162233e-01 -1.7878363312117401e+03 2.2734163119002842e+03 -1.0978177846632377e+01 -4.3303530455575263e+00 -1.0447740021907750e+02 2.2439323907522919e+02 1.1931926684153385e+02 1.0478685654390141e-02 7.8631935196778429e+00 -7.8605361562409780e+02 -1.0117923450209041e+03 3.7492008975743056e+02 -1.9650488352891830e+02 2.0974888181589068e+02 -5.0620390841737753e+02 4.5634082243359870e+02 3.9300147376354246e+00 2.0357784109592797e+02 
      </Row>
      <Row Index="34">
        -2.4866604315720906e+02 -3.2061441155052744e+03 -5.8247275368495466e+03 3.2463247911703365e+02 5.2469587779569520e+02 1.8487471180052817e+03 1.6897927585534053e+03 -1.4774333657607669e+04 -7.9277638176388336e+01 -1.3503404312577914e+00 -7.7894779127547517e+03 -5.9520010123563407e+03 -1.0040443332662835e+02 8.5777475239767227e+01 -5.4436264693457633e+02 -2.8584471807915543e+02 9.9244656827265862e+02 -3.1588283704986679e+00 6.4897827069376945e+01 8.1079794223941863e+03 -1.0421304276566079e+04 -7.0191143224998086e+01 6.0787063181288886e+01 1.0112426930511137e+03 -1.7070189611637761e+02 -2.6140338280437572e+02 -5.2565581950359046e+01 1.9593275465479337e+02 4.7394128554342315e+03 2.0889375851156929e+04 -9.5577985300535829e+01 -5.3966716214194400e+02 -1.7554706308496461e+03 -5.4477644631887233e+02 1.1846765359300283e+04 1.2161044691385976e+02 -8.6865772344147381e+00 3.8195871288146318e+03 -1.1889518944551488e+04 4.1556267449763254e+01 3.0065938955988415e+01 5.6087400816380921e+01 -8.3482057347526893e+02 2.3683049153454699e+03 6.8584781904626979e+00 -1.2947438981449136e+02 -3.1832004900466964e+03 1.8248239604237720e+03 -7.3975520591986879e+02 2.0263495662784990e+03 -1.2948238702769581e+03 5.9328635974685699e+02 -1.8915678994138885e+04 -1.7067485680585946e+01 2.1935099376918879e+04 
      </Row>
      <Row Index="35">
        1.8756432108455705e+01 -5.6438406430626856e+02 3.8889453868117627e+01 -3.8419197553484707e+00 1.2705932830560727e+00 -5.9803203046357396e+00 7.7215973917162302e+00 -1.7500807608394211e+01 -2.9926497734882624e+01 -3.1877045666265502e+00 6.1831166796118850e+01 -5.5874287831147456e+00 -5.7396909119979966e-01 1.3868782297373521e+00 -9.1703054298902771e+00 2.7510432814526382e+00 -4.0900621948148796e+01 6.5625640100708438e-01 6.9089093702274766e+00 -8.2812368566936129e+01 -1.2231011369941874e+02 7.1041182235969842e+00 8.8171838361187405e-01 1.5312930617496363e+01 -5.2090782458551246e+00 -9.6965661577070136e+01 -8.4513627247437313e+00 -2.3490164556073047e+01 5.9680777108336042e+02 1.4734987859863020e+02 2.1510721537665756e+00 -1.8039258077915190e+00 1.8740488324404147e+01 -4.9386415950881712e-01 1.2161044687059965e+02 3.9207238084200348e+01 -1.1123434856444514e+00 -1.4810190521378422e+02 -9.2246806724781862e+01 -2.2177847947104645e-01 -4.0092736548319141e-01 -6.0224094689342440e+00 -9.3213641182827933e-01 5.6253873441001424e+01 -2.2228317889942470e+00 1.1849844472455981e+01 2.2587150153704822e+01 1.6130152847866043e+01 -7.2687607079359919e+00 7.9504561372051512e+00 -4.9390023253082759e+01 9.4192220427670570e-01 1.4526540917783322e+01 -4.2128994815859215e+00 2.8470397019233108e+01 
      </Row>
      <Row Index="36">
        -2.2538943095208701e+00 8.6337736835639589e-01 5.6391164141730854e+01 -8.8063912292228252e-01 -1.1958141198093646e+00 -3.8909511624790696e+00 7.1342036843692114e-02 8.5389436005420976e+00 -4.6368446777204075e-01 3.1019896896011048e+00 -9.6920377994047158e-01 -1.9961400389879955e+00 -2.9023906286981855e+00 -1.8526669040890376e-01 -5.0647738958713262e-01 1.8266362620884991e-01 8.8125989933132587e-01 9.0705002858523187e-01 4.9011808560172909e-01 -1.1457928838739463e+01 1.4637086506590776e+01 -3.0812133863743369e+00 -7.7583758966717209e-02 -2.0075088256733125e+00 4.2222523033446180e-01 6.3046746388876471e+00 1.0929677910314268e+00 2.2164447052237062e+00 -8.0080691193861639e+00 -6.0968365313271278e+01 5.1279067558263147e+00 1.0881345552132429e+00 4.7950262205528773e+00 -3.8440447844087799e-01 -8.6865772434932538e+00 -1.1123434857608905e+00 1.5483786860712632e+00 -2.8199713357631467e+01 -1.7261293652350560e+01 -4.1125202905301350e-01 -4.3475734443008313e-02 -4.6759561663907245e-01 -1.3034719531650063e-01 -1.4109981046589249e+01 -3.1051861174056228e-03 -6.5210818826247952e+00 -6.1165516308769448e+00 2.7944563245702816e+00 -6.5824068622926557e+00 -4.8320327775324614e+00 -6.9262198909321859e-01 -6.9088943091337729e-02 2.6606269129953571e+01 -1.3023173442601941e+00 -2.2195185672808449e+01 
      </Row>
      <Row Index="37">
        -1.1964749883755940e+02 3.3215012503870763e+04 5.6900280647151521e+03 -4.6630781750407914e+02 4.2797985768590206e+02 5.6932069718521525e+03 1.9094372200326361e+03 -3.2762213161023101e+03 9.2837005210403277e+01 6.6253449352050666e+01 5.4260787299443036e+03 -1.9313343988689157e+03 -1.0521507588741588e+02 5.3172474016120759e+01 -1.9574070225014584e+03 3.2007068915235868e+02 -2.0545191007480025e+02 -3.3395962042261090e+01 -1.5575492856068740e+02 5.0946682221917436e+03 -6.5498488372279244e+03 -3.0152262529829750e+02 9.7883913624617207e+01 1.5306971412537387e+03 -2.0272566767690296e+02 -1.1876269691174093e+03 7.4181954208172101e+01 2.6393253780198484e+02 -4.8963826285403222e+04 2.1061464948435896e+03 1.1205104945340370e+03 -4.6461022940425153e+02 -4.2577569106984774e+03 -1.7878363330099091e+03 3.8195871132948523e+03 -1.4810190509209525e+02 -2.8199713350310645e+01 8.7214140380142620e+04 -5.0325019915502926e+03 -1.0479127106417036e+02 4.4099031570624696e+01 1.2174390211410655e+03 9.4131466895822797e+01 7.1911442159624366e+03 2.1589500929106777e+01 -2.3057444779548078e+02 3.1562044582426679e+04 8.4864776641882418e+02 -1.1741523512681702e+03 1.5698640983818186e+03 1.6265015640765557e+03 -1.0555314451625802e+02 -1.5604286900267409e+04 -3.0520013392253986e+00 -1.7644002808347763e+04 
      </Row>
      <Row Index="38">
        2.4736419639582891e+02 7.0376522380020469e+03 -5.5821519053436976e+04 1.5620654472077003e+03 -7.7169812777082007e+02 2.2254931725268252e+03 -8.3673450212918615e+03 2.1816457198365824e+04 1.5638346477583309e+02 -1.7266481965954881e+01 2.9058870867919177e+03 3.6371249991507619e+04 2.0988360980526268e+03 -1.3511376088934412e+02 1.3917738253022544e+03 5.5887720579258166e+02 -4.6809999577093404e+03 -1.7110507291740214e+02 -6.7808060101044248e+01 -5.0836614120341837e+03 -7.8337118978075159e+03 3.0558137051315716e+03 -2.7391053890749527e+02 -3.8810948166530579e+03 4.7384588866183913e+03 4.8799957628079574e+02 -8.9063068770759855e+01 -8.9230878071678490e+01 -2.6274204279128462e+03 -2.2895464766888297e+04 -6.4508149725538860e+03 9.0897012790994404e+02 -3.0142667810793500e+02 2.2734163161100296e+03 -1.1889518953490027e+04 -9.2246806803171182e+01 -1.7261293657274564e+01 -5.0325020380249698e+03 1.2148220356322902e+05 -4.3974519261658133e+02 -4.7348972327505983e+01 -1.3436042437909427e+03 8.4313083510048477e+02 -3.9265575124759489e+03 3.7395689166839361e+00 -2.9812207644378009e+02 6.7597581000191781e+02 -9.3049303920680286e+03 9.8663785204838805e+03 -3.3687372471969284e+03 4.4395872740144750e+03 5.4967999324024840e+03 3.5390588628100741e+04 2.7100937751186484e+02 -3.7985240186772113e+04 
      </Row>
      <Row Index="39">
        2.9880275423613085e+00 -5.9208185419760412e+01 1.1708264158830417e+02 6.0842418178750393e+00 2.4261598230257420e+00 -2.8356262540879811e+01 2.8902574838032095e+01 -1.3010465503754403e+02 4.7927846115340866e-01 -1.9128318025001079e+00 -1.9704005000428879e+01 -1.1408005811543173e+02 -1.7823846657946802e+00 2.8390963578149808e-01 -1.3131320313468677e+00 1.0055230284932009e+00 2.7807111195709240e+01 5.8273211038127215e-01 -3.2303664975592028e-01 -9.6265886652301560e+01 1.4650850703493398e+02 -5.2235478292359971e+00 1.0260565027785296e+00 3.0700027264997516e+01 -2.5030402177750119e+01 3.4935584081220838e+01 4.4121121865600799e-02 -3.0942827571116744e+00 1.9864235787704456e+02 5.0904685514079119e+01 -1.4180634257795282e+00 -2.9708088492157132e+00 -2.2187243975832018e+00 -1.0978177851598218e+01 4.1556267557224601e+01 -2.2177847954684515e-01 -4.1125202914553682e-01 -1.0479127096762591e+02 -4.3974519279782544e+02 6.3401502956660991e+00 3.2318656023906939e-01 3.7027763135836538e+00 5.2255614603790796e+00 -8.4134997753807767e+01 -2.9420985403385336e-02 6.3652531920240163e+00 -2.8364087802308141e+01 1.2807626187638135e+01 -1.5275695858246465e+01 1.0855998209998745e+01 -3.5643491670742009e+01 -3.9750407691522710e+01 -3.4238359700943121e+01 -4.1538828198805433e-01 7.2440115644804337e+01 
      </Row>
      <Row Index="40">
        -1.3734689281337609e+00 1.0420219268889923e+01 -6.8074013659112950e+01 3.0382937065733415e+00 3.8384961658905024e+00 1.5798892909625067e+01 6.1692360062364813e+00 -2.9306919817517610e+01 3.2017381609929774e-01 -3.6196857735944832e-02 -4.6514387993536729e+01 -2.4852128394022692e+01 -1.5081826778303054e-01 7.8637190685836345e-01 -1.1714308061439169e+00 1.8192284993917838e+00 7.8389493235931695e-01 -1.5790196838291592e-01 -5.7842468084321297e-01 1.5775588003682060e+01 -1.4338315020139646e+01 4.1850977863889227e-01 8.2864873759737367e-01 1.2614607635745188e+01 -6.4450965509608693e+00 -1.0187303319306693e+01 2.5245811823242548e-01 1.8670921251680515e+00 1.0607776339691554e+01 9.7160756597857414e+01 -2.2284970565700570e+00 -4.4952004852432772e+00 -2.0844875917486142e+01 -4.3303530483722881e+00 3.0065938987581177e+01 -4.0092736545477170e-01 -4.3475734469420768e-02 4.4099031605038761e+01 -4.7348972372826061e+01 3.2318656016771286e-01 5.0202102246081037e-01 1.2679261983529848e+00 3.2157251421296547e+00 5.0865730168959971e+00 1.2264696533848041e-02 -1.0871754695726501e+00 -8.0932441996496518e+00 -3.1833570832984464e+00 -3.1784002005183698e+00 1.5130293777266388e+01 -6.0084350635868171e+00 -9.5989344548616842e+00 -2.2341235347891395e+01 1.0775358841949445e-01 3.4200499540163825e+01 
      </Row>
      <Row Index="41">
        -1.8451929678609190e+01 2.1935035136647348e+03 9.7179259274156334e+02 -6.9588210921188193e+01 2.1806078425661468e+01 9.9480529944037698e+01 1.9308161217547405e+02 1.2756465433571793e+02 3.7996911244612406e+00 -4.2189513107923631e+00 6.2061672177963192e+02 -3.3117649695742477e+02 -3.2667692412104088e+01 2.8607974949457002e+00 -9.4619777753909148e+01 6.2476204690669874e+00 -1.3017199134746443e+02 4.2947231924711105e+00 -5.3677484984930288e+00 -1.1050118610078935e+03 -6.4083604515537809e+02 -1.2926100874733493e+00 9.2034331964675502e+00 9.9797304129002441e+01 -2.7565287176912989e+01 -1.1788628247539873e+02 4.5156790876840205e+00 2.2278760308533641e+01 -2.0193650926330301e+03 3.8519776523429573e+02 1.1076582240348594e+02 -2.5192799862653462e+01 -5.2971167207731924e+01 -1.0447740024175323e+02 5.6087400665903488e+01 -6.0224094671952191e+00 -4.6759561669841965e-01 1.2174390212167655e+03 -1.3436042432777219e+03 3.7027763128690481e+00 1.2679261981691146e+00 2.0221448506515100e+02 -4.6653407918861717e+01 1.5435781749583055e+02 -3.4576524439649248e-01 9.2311329775974542e+00 5.5331420793859149e+02 1.6845090389522477e+02 -1.1532391779602141e+02 9.9368832371921599e+01 1.0806154112447163e+02 1.3882944734631252e+01 -1.8934197366475996e+02 -6.5081395249520426e+00 -5.2600521583481452e+02 
      </Row>
      <Row Index="42">
        2.6426121686686201e+01 5.5330265816679457e+01 -1.8876322282272033e+03 6.2006861456338356e+01 -1.9768394133871197e+01 5.0748054769913324e+01 -3.6030603578747787e+02 4.2958578574601415e+02 -4.9639411793752686e-01 1.1836234448533105e+00 3.7920302223414183e+01 7.4661791298524076e+02 4.0940339536604597e+01 1.1866893565149894e-01 1.3067436205472768e+02 1.6524175233211099e+02 1.1647861552187533e+02 1.6505889830878004e+00 -1.3159319330535709e+01 -6.7559609068999998e+02 3.8301826810785742e+03 3.6007949582564834e+01 -1.6919990450745104e+00 1.2170972871339472e+02 -5.5172109181803489e+02 3.6948803127836163e+02 5.3456405460524365e+00 -2.1025421840733543e+01 1.6439017208665609e+02 -2.2350552102827096e+03 -1.2499387869476628e+02 1.6968978642358120e+01 -2.6338136236133460e+02 2.2439323886015518e+02 -8.3482057118651073e+02 -9.3213640785945440e-01 -1.3034719875951595e-01 9.4131470479111158e+01 8.4313083145558312e+02 5.2255614573067533e+00 3.2157251427689211e+00 -4.6653407880755424e+01 5.0750166144561069e+02 6.2407625517330132e+02 -1.5098416140051167e+00 1.7321414684208420e+01 1.7781990553242397e+02 -1.0531409815850475e+03 1.4317564278385780e+02 -6.9429530598422389e+01 1.0752383575346688e+02 -9.7997653304940559e+02 -1.2459441880210607e+03 -3.6989807801950860e+00 1.1608120860294891e+03 
      </Row>
      <Row Index="43">
        1.4593568079518445e+02 3.4129422162733972e+03 -5.2098478477117606e+03 -1.5426107853534631e+01 -1.8047897611097142e+01 2.9428730895777699e+02 -1.0873601046443218e+02 -1.7600530078608077e+04 -2.7327812787729272e+01 -4.0627349439251702e+01 2.7499930045977235e+03 7.7722780783084454e+02 -1.9830422897875542e+02 6.4985674394993111e+00 -1.0629475620808080e+02 2.4320447745989077e+02 4.5677785139102489e+03 -6.3444758423778694e+01 -6.9003281405952293e+01 -8.2983080765604973e+02 8.9561624262885889e+03 -2.9635597685311222e+02 4.0422914422404574e+01 2.4400796623434871e+01 -7.6136296258942457e+02 8.8850447860319400e+03 -2.5945427161990665e+01 -6.1590708022125909e+01 -7.2789065987095237e+03 4.3491037291591056e+02 6.1044076965744534e+02 -1.0934562986286974e+01 -1.9918843745830236e+02 1.1931925203953870e+02 2.3683049114594469e+03 5.6253873825730466e+01 -1.4109981004120982e+01 7.1911443359984551e+03 -3.9265574448728148e+03 -8.4134998473396990e+01 5.0865728007332791e+00 1.5435781883066375e+02 6.2407623870267707e+02 4.6317547950198321e+04 -3.5045186894724338e+00 5.8900700960331619e+01 3.5188091075114608e+03 -4.9918024402062292e+02 -7.8025195528139386e+02 2.4587168709607795e+01 4.2367473692288627e+02 -1.3834796508019645e+03 -1.2993511757943803e+05 7.5940335622956354e+01 1.2588312956875990e+05 
      </Row>
      <Row Index="44">
        -8.3419339777082779e-01 3.8138817849401221e+01 -1.2007519356199914e+01 8.0470170571638633e-01 3.6346879887828987e-01 3.3637520131101653e+00 8.3628066760234177e-01 -8.4841096826892226e+00 1.9435540123769650e+00 3.7670173707660481e-01 -2.5452522531652448e+01 -2.6557778542687700e+00 8.6520814383350242e-02 -6.5177877390536487e-02 -5.3438132278299122e-01 -1.1712271870750186e+00 5.4723992502763394e+00 -1.0064497104567209e+00 9.1975436858739101e-02 6.2847464426880833e+01 -6.5528621250309982e-01 -2.2984514201735706e-01 6.3080146277682991e-02 -1.0956589325816992e+00 9.8800093814521972e-01 -1.5242660039840032e+00 -4.6406611644766116e-01 9.3297663495036121e-01 -5.1196023676742243e+01 6.3322905538934151e+00 -9.3728493526755852e-01 -3.7982868538229220e-01 -4.5464072094345003e+00 1.0478686106281998e-02 6.8584781968445547e+00 -2.2228317890472553e+00 -3.1051861232786193e-03 2.1589500939303761e+01 3.7395688990199005e+00 -2.9420985394385646e-02 1.2264696541265298e-02 -3.4576524421346511e-01 -1.5098416125727452e+00 -3.5045186292645143e+00 5.2913746680689333e-01 -1.5860113295690583e+00 -1.6911645176661288e+01 -4.2471011044742113e-01 4.1236816615897659e-01 8.4414406604712156e-01 2.9486093729308491e+00 1.9204990084597715e+00 3.3179096013041685e+00 1.2515961144768672e+00 8.5245598435046190e+00 
      </Row>
      <Row Index="45">
        3.2796707086196804e+01 -5.9209991302698472e+02 1.8171510258886468e+02 -5.1057460625094677e+00 -8.6368543415318868e+00 -9.9109377405991950e+01 4.5184356910214944e+00 -7.8961136655560949e+01 -1.1372465806024580e+01 -2.4876832503904097e+01 6.2412079041715333e+02 -7.4281532179091812e+01 1.3855301876779066e+01 -1.5518629871388612e-01 2.5639529242786921e+01 3.6989826366248053e+00 -5.2080011735910830e+01 9.8411195821583988e+00 3.5665981130224509e+00 -9.0848246069407469e+02 1.1645448898585482e+02 1.0564245864759698e+01 -3.9711108210728607e+00 1.2201619912520982e+00 -3.3790535665650225e+01 1.1653474064156399e+02 6.3773903051859975e+00 -5.3024318818177214e+01 6.6357019557509193e+02 1.1964319648062201e+01 -1.4515700895124075e+01 1.3198324165320265e+01 1.1150302618400562e+02 7.8631934664748542e+00 -1.2947438982752834e+02 1.1849844474828593e+01 -6.5210818825473034e+00 -2.3057444770815823e+02 -2.9812207613425062e+02 6.3652531902325791e+00 -1.0871754701412677e+00 9.2311329764470500e+00 1.7321414612766588e+01 5.8900700459782456e+01 -1.5860113297193337e+00 1.0812448248600974e+02 3.7683966507392472e+02 1.0620438182072377e+01 2.7796453232880832e+01 -2.1617048996140170e+01 -2.7096030245390310e+01 -4.5317603274373596e+01 -4.3416951663208363e+02 -1.3998207050045131e+01 1.2215663573843364e+02 
      </Row>
      <Row Index="46">
        -1.5089546007614990e+02 -4.1354731526994146e+04 6.0249642343407686e+03 -4.9464897628132894e+02 -1.3175448013666028e+01 -2.6663452932154760e+03 5.5521832291939063e+02 1.8172155754768755e+03 -2.5061128198983397e+01 -1.1660979586304165e+02 4.4121947264271788e+04 1.8885311566820892e+03 -5.6909072129710694e+00 -1.3820028751270002e+00 -1.3991005566822714e+03 4.3126932792733714e+02 -1.2580546479874756e+03 3.2449117022479186e+01 -1.9055641453682620e+02 -4.5320519154211506e+04 -4.3210929124947288e+03 1.0429733419748663e+02 4.1007733924527656e+01 3.9463874611561187e+02 1.1731921319555113e+02 2.6539746239498490e+03 2.9947865146721597e+01 2.8512710575927213e+02 3.0733212826067582e+04 -1.2001106989965774e+03 4.3070267633020785e+02 8.0058816942854989e+00 4.4533250883132205e+03 -7.8605361664789962e+02 -3.1832005136852531e+03 2.2587150280379205e+01 -6.1165516130580500e+00 3.1562044560433715e+04 6.7597587122174446e+02 -2.8364087867721537e+01 -8.0932442320851408e+00 5.5331420758291824e+02 1.7781990158695226e+02 3.5188089158616922e+03 -1.6911645179136997e+01 3.7683966467583559e+02 4.0937211872582237e+04 9.8446283949991266e+02 2.1976097689992685e+01 1.0806054848630447e+02 -2.7835329666216394e+03 3.1524444450490483e+02 -9.8269906378152227e+03 -4.9881171212616778e+01 -2.8124318569027168e+04 
      </Row>
      <Row Index="47">
        -5.5189482733993827e+01 -1.3344448490789218e+03 1.0875696303346320e+04 -3.1777634551536630e+02 4.5341965821899294e+01 -1.9406903204729588e+02 1.2026427592346463e+03 -2.0003392350647955e+03 -2.6495538882463450e+00 -2.7554885618108074e+00 1.2379567192555696e+03 -4.1343765032259371e+03 -2.8588630241606802e+02 5.2311060154342499e+00 -3.7999154984910092e+02 -2.6650198751409653e+02 -5.4834873959625838e+00 1.9171617635809071e+00 3.7942685229703784e+01 -9.2739917658409104e+02 -7.6538909299406423e+03 -4.1773340268487686e+02 2.1828565673104961e+01 -5.5711935088773316e+01 1.3552830308667133e+03 -7.3437594513359727e+01 -1.3778693681843833e+01 2.1182729058196429e+01 9.9218335298268357e+02 4.7379135459550889e+03 9.3906975137233405e+02 -5.4283005692475001e+01 6.3982357432986191e+02 -1.0117923450026069e+03 1.8248239535164898e+03 1.6130152853946644e+01 2.7944563360962107e+00 8.4864776124586569e+02 -9.3049303783552932e+03 1.2807626169512901e+01 -3.1833570931756818e+00 1.6845090384078935e+02 -1.0531409822523951e+03 -4.9918029331598746e+02 -4.2471010907219942e-01 1.0620438000637847e+01 9.8446283660155893e+02 3.8673500828755291e+03 -1.1375271205563758e+03 1.9675869169818816e+02 -4.9382783904117730e+02 2.1349464085057607e+03 -1.4108471628975838e+03 -8.1926173417302834e+00 7.3568671879114311e+02 
      </Row>
      <Row Index="48">
        4.5373857662807040e+01 -1.5044795174640603e+02 -5.9122999663918808e+03 1.8377707705951252e+02 -5.7859931500240691e+01 -6.8208871105416620e+00 -7.4803341304822061e+02 1.1892683745016111e+03 1.7054963331420851e+01 -2.2296424907438450e+01 3.6383194949198514e+02 2.8483770286940758e+03 2.5513278792846086e+02 -1.1123806050641406e+01 1.0682848728700628e+02 2.8587653430886348e+01 -3.2769693621093757e+02 -1.3238472250345694e+01 -9.6077859908709797e+00 -1.1789737882108893e+03 -5.6352459392921446e+01 3.6884608805523294e+02 -2.2673668919049135e+01 -1.8543500748214137e+02 1.6522141515080057e+02 2.6432586736475423e+02 -1.0798659382433470e+01 -2.8326432667845779e+01 1.4364323579720221e+03 -9.1414733169028477e+02 -7.9922665631438281e+02 6.9424716081930342e+01 2.6090054815117583e+01 3.7492009008765035e+02 -7.3975520577072894e+02 -7.2687607145766577e+00 -6.5824068638741124e+00 -1.1741523547808902e+03 9.8663785189342179e+03 -1.5275695841846300e+01 -3.1784001958034738e+00 -1.1532391783847879e+02 1.4317564312889090e+02 -7.8025195506827185e+02 4.1236816762535256e-01 2.7796453223457775e+01 2.1976092675235037e+01 -1.1375271216114816e+03 1.0754203424764464e+03 -2.5579230432585246e+02 1.5186736130964027e+02 1.9738108400155033e+02 2.8893877356259691e+03 2.4748876738055969e+01 -3.0241324399157106e+03 
      </Row>
      <Row Index="49">
        -8.8495377846143469e+01 -9.2726778867344547e+02 -2.9242729930211162e+03 1.0390117957015673e+02 1.9718209463773246e+02 4.1301060990274527e+02 4.5886110193183197e+02 -1.6942149097305955e+03 -9.7587794120569242e+00 -1.1798307144707223e+01 -8.2708184061278007e+02 -1.7477251970966399e+03 -2.4884755988985717e+01 3.6290711695918162e+01 -1.3206595223720797e+02 4.7567562106391961e+00 -6.8626552237306896e+01 8.5987899753263264e-01 -3.2475055363764113e+01 6.1578533469600370e+02 -2.3852821899542241e+03 -1.4683438889467197e+00 4.3390400653796867e+01 4.9931686061841538e+02 -1.9632266161080383e+02 -9.1325444502775963e+02 6.6701305030044296e+00 1.1118245177642333e+02 8.6919268381808070e+02 6.4776202285501795e+03 -2.4003824147902733e+01 -2.2086819692387121e+02 -5.3169487993027860e+02 -1.9650488356727419e+02 2.0263495668257196e+03 7.9504561377996161e+00 -4.8320327775445300e+00 1.5698640981456138e+03 -3.3687372477184076e+03 1.0855998209027234e+01 1.5130293777356396e+01 9.9368832358328348e+01 -6.9429530635787302e+01 2.4587171518674040e+01 8.4414406637122319e-01 -2.1617048999985627e+01 1.0806054805990715e+02 1.9675869186601892e+02 -2.5579230438686540e+02 7.9973316280094014e+02 -4.2614142774921891e+02 -1.3384251192425515e+02 -4.4359020739279185e+02 -5.9251309991457219e+00 5.7635553493367684e+02 
      </Row>
      <Row Index="50">
        5.1226650363214503e+01 1.2931590335770721e+04 -6.2322068111315116e+02 -7.4564994485354646e+01 -9.5934563106717377e+01 1.1795538898855486e+03 -5.7604372960924979e+02 1.6506389986388149e+03 4.2125608346915357e+01 2.6395100232136315e+01 -3.6151569082604838e+03 1.3266131389850188e+03 3.1684785116562409e+01 -1.7156466704993875e+01 4.7285337048067322e+02 -1.7759608538429347e+01 -2.9324000564773814e+02 -2.1856752926953504e-01 -6.4961617892731738e-01 4.2698205601173540e+03 1.8929859355878500e+03 -3.9651102014656772e+01 -3.4134241136694129e+01 -6.6940212582598815e+02 2.2508139653347871e+02 2.7343011628569593e+02 6.9229058793330296e+00 -5.6198057895489264e+01 -1.3213060997309425e+04 -4.0186285094486775e+03 8.9835981187018504e+01 1.1314228965452247e+02 -1.2145626284491627e+03 2.0974888187903889e+02 -1.2948238681529101e+03 -4.9390023260563638e+01 -6.9262199307749572e-01 1.6265015680073102e+03 4.4395872685591003e+03 -3.5643491665033253e+01 -6.0084350599974021e+00 1.0806154118658482e+02 1.0752383617382584e+02 4.2367475592161691e+02 2.9486093716294408e+00 -2.7096030163144562e+01 -2.7835329638637681e+03 -4.9382783935189326e+02 1.5186736089048981e+02 -4.2614142773883600e+02 1.9113876227999949e+03 6.5019846648292059e+01 9.9485873029019672e+02 1.0938953868497947e+00 2.8846631593035124e+02 
      </Row>
      <Row Index="51">
        -2.8930812033316215e+01 1.4878245650953613e+02 2.2340763121370692e+03 -8.4141419539648268e+01 -2.7106463975437919e+01 3.0763631888603413e+01 2.1878994259108549e+02 8.2835750965037732e+02 1.3627838571189670e+01 -3.8232236694148014e+00 8.0764285091753118e+02 3.6928725803018369e+02 1.3962823938072688e+01 -1.0287151326150706e+01 -1.9057357603186392e+02 -2.7828320137343690e+02 -5.8596992785003386e+02 -1.6691901976299050e+01 2.5856645522382678e+01 -1.0159795078774914e+02 -8.4212440846708196e+03 4.5155796092543824e+01 -8.9441188655732162e+00 -5.0433636739160283e+02 1.6908006452492536e+03 -5.1158154427137197e+02 -2.2751775397971869e+01 2.4117771208849149e+01 -1.7318563480093144e+02 2.7048483274812897e+03 -5.7025621322529787e+00 3.6109052918174996e+01 5.5635540327859053e+02 -5.0620390771940765e+02 5.9328635317209591e+02 9.4192219380667552e-01 -6.9088934531109203e-02 -1.0555315565431374e+02 5.4967999425626822e+03 -3.9750407676830491e+01 -9.5989344550724738e+00 1.3882944614948883e+01 -9.7997653295376358e+02 -1.3834796983254273e+03 1.9204990125585439e+00 -4.5317603468616198e+01 3.1524443236171032e+02 2.1349464062897741e+03 1.9738108502104708e+02 -1.3384251198337370e+02 6.5019847842971103e+01 2.6134613498307544e+03 4.5389904183787039e+03 2.6095096581262624e+01 -5.0185121092856989e+03 
      </Row>
      <Row Index="52">
        -2.9680393408110831e+02 1.1326759376823902e+03 9.2919409051592229e+03 -1.0193160434986930e+03 -1.3256354669143911e+02 -3.1220504492474720e+02 -1.8731681058426620e+03 8.1824442429751158e+04 -7.0022829966801510e+01 8.3619163934956305e+01 -7.0016965161114931e+03 6.0090325464354828e+03 6.6491546867543366e+02 6.2204671294894069e+00 5.3603507395088673e+02 -3.6742221140721813e+02 -1.7730658773059025e+04 3.0579527860856615e+01 4.1412549999309704e+01 7.5174724660217762e+03 -2.8529442194434348e+04 1.4121059151326772e+03 -4.2207729764442774e+01 -7.6117875073011965e+02 2.8666386319720186e+03 -3.7090902195052709e+04 2.5284436457790434e+01 2.9847745793815557e+02 2.7137720264047384e+03 -1.0146694439412095e+04 -1.1119821642258939e+03 1.2125209196656942e+02 5.5964915422175545e+02 4.5634086941194255e+02 -1.8915678982469486e+04 1.4526539703952949e+01 2.6606268993657068e+01 -1.5604287280467339e+04 3.5390588411913923e+04 -3.4238357402617112e+01 -2.2341234659545762e+01 -1.8934197785198921e+02 -1.2459441356230527e+03 -1.2993511758299288e+05 3.3179097907504911e+00 -4.3416951817994413e+02 -9.8269912442673194e+03 -1.4108473195841652e+03 2.8893877362442163e+03 -4.4359019834641367e+02 9.9485879019822460e+02 4.5389902671699392e+03 4.1409980257024820e+05 -3.5261881976854056e+01 -4.0133936965197232e+05 
      </Row>
      <Row Index="53">
        2.8505587393465248e-01 -5.5407077855899843e+01 -1.6170543148734470e+02 1.8456554635959890e+00 -1.4247191964575165e+00 1.0124721501462886e+01 -1.7844904109999149e+01 7.3370581027003936e+01 1.3303959467721917e+01 -4.4968559281871023e+00 -6.3720904152960429e+01 1.3889046367737078e+02 3.0760254270176972e+00 -3.4168004344397218e-01 -1.0057383061214296e+01 -5.9822506104831064e-01 3.7315887555813788e+01 -1.5349951818247689e+01 -2.7054887403645296e+00 1.1841106000036234e+02 -4.0327319430872421e+00 8.3822071437099055e+00 7.3640084221695901e-01 -9.6979416347537608e+00 2.1129185582683704e+01 -6.0055583738892437e+00 -1.2230535962514352e+01 7.9110863895274068e+00 1.0625409078207667e+02 4.1479945145217243e+01 -1.6571080073832398e+01 5.3998365043486007e-01 -1.0522668964033613e+01 3.9300147344393963e+00 -1.7067485732758712e+01 -4.2128994815421414e+00 -1.3023173441527574e+00 -3.0520013322336581e+00 2.7100937759386130e+02 -4.1538828229003855e-01 1.0775358827286857e-01 -6.5081395242730196e+00 -3.6989807876201297e+00 7.5940335311340391e+01 1.2515961144727785e+00 -1.3998207051176983e+01 -4.9881171183771421e+01 -8.1926173295979794e+00 2.4748876742195858e+01 -5.9251310027116233e+00 1.0938953874482849e+00 2.6095096604224306e+01 -3.5261880976180159e+01 2.0495349764237957e+01 9.4102532449544327e+01 
      </Row>
      <Row Index="54">
        4.3187089176772861e+02 2.7885093670517206e+04 -1.4632017170203966e+04 1.4876945114540868e+03 1.8759472965638270e+02 1.9357733448315412e+03 1.4739812821274390e+03 -8.2579002402767539e+04 4.4617839695485600e+01 -2.7656494802795351e+00 -3.3034305863961577e+04 -8.3934833297352307e+03 -6.8627824619971216e+02 1.0966447969549336e+01 5.5478983539063483e+02 5.2570076067466289e+01 1.8865437239939347e+04 -7.4267021980485879e+01 1.3779487587884068e+02 3.3227366489589214e+04 3.1863686178176198e+04 -1.4947087807934731e+03 2.7876729576659272e+01 8.2384468749444932e+02 -3.1387062651696615e+03 3.3659268993083388e+04 -6.6526165191782638e+01 -5.5947938760876423e+02 -2.1477111376792192e+04 1.3401265244828537e+04 7.0904728791136586e+02 -1.8977389885213415e+02 -3.8873635444891406e+03 2.0357779549399856e+02 2.1935099386885064e+04 2.8470398104380365e+01 -2.2195185552072871e+01 -1.7644002413066104e+04 -3.7985240028576955e+04 7.2440113428368932e+01 3.4200498887286813e+01 -5.2600521138301701e+02 1.1608120376539591e+03 1.2588312974534882e+05 8.5245596591248614e+00 1.2215663760001189e+02 -2.8124317970117267e+04 7.3568687145685544e+02 -3.0241324451346863e+03 5.7635552555555478e+02 2.8846625922870589e+02 -5.0185119704538010e+03 -4.0133937019982730e+05 9.4102533469151240e+01 4.2521608279399585e+05 
      </Row>
    </InverseHessian>
  </Weights>
</MethodSetup>
